svm_type c_svc
kernel_type linear
nr_class 5
total_sv 921
rho -16.22177846120129 -2.5658787237453957 -5.44267698944192 -3.5394361982709936 4.828530034826438 -1.0251962257896108 4.816675034278023 -1.5215528016205702 -3.007438689675002 4.35758935714314
label 0 1 2 3 4
probA -0.8539586109256961 -2.043667220066222 -1.637745622168783 -1.9212210774829348 -0.6890987841975865 -1.1177029893186659 -1.175006275369443 -5.053167446595794 -3.7473414072052775 -3.9982379522070484
probB -0.7439065456438767 -0.5406395054381898 -0.5644385734396238 -0.4826424141298284 -0.04549015551163812 -0.44241070932409937 -0.0818449804228261 0.1438393378282629 0.39493233554943635 -0.7100045288775774
nr_sv 24 315 253 124 205
SV
744.710263475654 0.0 0.0 0.0 1:0.0714285671710968 2:0.12352941185235977 3:0.6666666865348816 
0.0 0.0 2048.0 0.0 1:0.976190447807312 2:0.12173912674188614 3:0.45098039507865906 
2048.0 2048.0 1595.242716123045 2048.0 1:0.050724636763334274 2:0.1314285695552826 3:0.686274528503418 
2048.0 2048.0 0.0 2048.0 1:0.053333330899477005 2:0.14792899787425995 3:0.6627451181411743 
0.0 0.0 2048.0 0.0 1:0.9696969985961914 2:0.07096774131059647 3:0.6078431606292725 
2048.0 0.0 741.0658252875647 0.0 1:0.07894736528396606 2:0.10795454680919647 3:0.6901960968971252 
0.0 0.0 2048.0 0.0 1:0.9166666865348816 2:0.6666666865348816 3:0.0117647061124444 
570.6927551133517 0.4812769381841788 2048.0 1296.9947665921184 1:0.9166666865348816 2:1.0 3:0.007843137718737125 
605.5813165910114 1.0215166926046124 2048.0 2048.0 1:0.9166666865348816 2:1.0 3:0.007843137718737125 
2048.0 75.84137103681265 2048.0 1972.096150607903 1:0.9166666865348816 2:1.0 3:0.007843137718737125 
0.0 2048.0 2048.0 2048.0 1:0.0 2:1.0 3:0.003921568859368563 
0.0 2048.0 2048.0 2048.0 1:0.0 2:1.0 3:0.003921568859368563 
0.0 2048.0 2048.0 2048.0 1:0.0 2:1.0 3:0.003921568859368563 
0.0 2048.0 2048.0 2048.0 1:0.0 2:1.0 3:0.003921568859368563 
0.0 2048.0 2048.0 2048.0 1:0.0 2:1.0 3:0.003921568859368563 
0.0 2048.0 2048.0 2048.0 1:0.6666666865348816 2:1.0 3:0.007843137718737125 
0.0 0.0 1463.7049249149939 0.0 1:0.6666666865348816 2:0.5 3:0.01568627543747425 
0.0 0.0 2048.0 0.0 1:0.9166666865348816 2:0.3333333432674408 3:0.0235294122248888 
0.0 2048.0 0.0 712.7788291260548 1:0.06521739810705185 2:0.13939394056797028 3:0.6470588445663452 
0.0 0.0 2048.0 0.0 1:0.9871795177459717 2:0.09558823704719543 3:0.5333333611488342 
0.0 2048.0 0.0 2048.0 1:0.0555555522441864 2:0.24590164422988892 3:0.47843137383461 
0.0 2048.0 0.0 2048.0 1:0.0555555522441864 2:0.24590164422988892 3:0.47843137383461 
0.0 1685.3604148992742 0.0 0.0 1:0.029411762952804565 2:0.09826589375734329 3:0.6784313917160034 
0.0 0.0 2048.0 0.0 1:0.9523809552192688 2:0.06086956337094307 3:0.45098039507865906 
-0.0 2048.0 2048.0 2048.0 1:0.0035460989456623793 2:0.9791666865348816 3:0.7529411911964417 
-0.0 2048.0 0.0 2048.0 1:0.0015949010848999023 2:0.9952380657196045 3:0.8235294222831726 
-0.0 2048.0 0.0 2048.0 1:0.0015949010848999023 2:0.9952380657196045 3:0.8235294222831726 
-0.0 2048.0 0.0 2048.0 1:0.0023364524822682142 2:0.9771689772605896 3:0.8588235378265381 
-0.0 2048.0 0.0 2048.0 1:7.824699277989566E-4 2:0.9508928656578064 3:0.8784313797950745 
-0.0 2048.0 0.0 2048.0 1:7.936556939966977E-4 2:0.9905660152435303 3:0.8313725590705872 
-0.0 2048.0 0.0 2048.0 1:0.0031007726211100817 2:0.9907833933830261 3:0.8509804010391235 
-0.0 2048.0 0.0 2048.0 1:0.0015220741042867303 2:0.9776785969734192 3:0.8784313797950745 
-0.0 2048.0 0.0 0.0 1:0.0015082955360412598 2:0.9444444179534912 3:0.9176470637321472 
-0.0 2048.0 0.0 2048.0 1:7.861654157750309E-4 2:0.9860464930534363 3:0.843137264251709 
-0.0 2048.0 0.0 2048.0 1:0.0 2:0.976190447807312 3:0.8235294222831726 
-0.0 2048.0 0.0 2048.0 1:8.090634946711361E-4 2:0.9671361446380615 3:0.8352941274642944 
-0.0 2048.0 0.0 2048.0 1:0.0 2:0.9301310181617737 3:0.8980392217636108 
-0.0 2048.0 0.0 2048.0 1:0.0030581059399992228 2:0.9909090995788574 3:0.8627451062202454 
-0.0 2048.0 1156.927040031734 2048.0 1:0.0052083334885537624 2:0.9824561476707458 3:0.8941176533699036 
-0.0 2048.0 2048.0 2048.0 1:0.006818185094743967 2:0.9909909963607788 3:0.8705882430076599 
-0.0 2048.0 2048.0 2048.0 1:0.006033182144165039 2:0.9735682606697083 3:0.8901960849761963 
-0.0 2048.0 0.0 2048.0 1:9.746551513671875E-4 2:0.977142870426178 3:0.686274528503418 
-0.0 2048.0 0.0 2048.0 1:0.0 2:1.0 3:0.6705882549285889 
-0.0 2048.0 0.0 2048.0 1:0.0016666650772094727 2:0.9852216839790344 3:0.7960784435272217 
-0.0 2048.0 0.0 2048.0 1:0.0041459403000772 2:0.9757281541824341 3:0.8078431487083435 
-0.0 2048.0 0.0 2048.0 1:8.375247125513852E-4 2:0.9386792182922363 3:0.8313725590705872 
-0.0 2048.0 0.0 2048.0 1:0.002525250194594264 2:0.9428571462631226 3:0.8235294222831726 
-0.0 2048.0 0.0 2048.0 1:7.936556939966977E-4 2:0.9905660152435303 3:0.8313725590705872 
-0.0 2048.0 0.0 0.0 1:0.0034152965527027845 2:0.9878542423248291 3:0.9686274528503418 
-0.0 2048.0 2048.0 0.0 1:0.005464484449476004 2:0.9838709831237793 3:0.9725490212440491 
-0.0 2048.0 0.0 0.0 1:0.002766251564025879 2:0.9757084846496582 3:0.9686274528503418 
-0.0 2048.0 0.0 0.0 1:0.002109706401824951 2:0.9556451439857483 3:0.9725490212440491 
-0.0 2048.0 0.0 0.0 1:6.973544950596988E-4 2:0.9637096524238586 3:0.9725490212440491 
-0.0 2048.0 0.0 0.0 1:0.0 2:0.9591836929321289 3:0.9607843160629272 
-0.0 0.0 2048.0 0.0 1:0.994490385055542 2:0.9679999947547913 3:0.9803921580314636 
-0.0 2048.0 0.0 2048.0 1:8.635620470158756E-4 2:0.9507389068603516 3:0.7960784435272217 
-0.0 0.0 2048.0 2048.0 1:0.9988662004470825 2:0.948387086391449 3:0.6078431606292725 
-0.0 2048.0 0.0 2048.0 1:0.003072192193940282 2:0.9517543911933899 3:0.8941176533699036 
-0.0 2048.0 2048.0 2048.0 1:0.004739334341138601 2:0.9634703397750854 3:0.8588235378265381 
-0.0 0.0 2048.0 2048.0 1:0.9992101192474365 2:0.917391300201416 3:0.9019607901573181 
-0.0 0.0 2048.0 2048.0 1:0.9992101192474365 2:0.9254385828971863 3:0.8941176533699036 
-0.0 0.0 2048.0 0.0 1:0.9945483207702637 2:0.902953565120697 3:0.929411768913269 
-0.0 2048.0 0.0 2048.0 1:0.003205130575224757 2:0.7609755992889404 3:0.8039215803146362 
-0.0 0.0 2048.0 2048.0 1:0.9957044720649719 2:0.8818181753158569 3:0.8627451062202454 
-0.0 0.0 2048.0 2048.0 1:0.9957044720649719 2:0.8818181753158569 3:0.8627451062202454 
-0.0 2048.0 2048.0 2048.0 1:0.004901965614408255 2:0.9532710313796997 3:0.8392156958580017 
-0.0 2048.0 0.0 0.0 1:0.0028011202812194824 2:0.9674796462059021 3:0.9647058844566345 
-0.0 2048.0 0.0 0.0 1:6.666679983027279E-4 2:0.9842519760131836 3:0.9960784316062927 
-0.0 2048.0 0.0 0.0 1:0.0020242929458618164 2:0.9762845635414124 3:0.9921568632125854 
-0.0 2048.0 0.0 0.0 1:6.88701868057251E-4 2:0.9837398529052734 3:0.9647058844566345 
-0.0 2048.0 2048.0 2048.0 1:0.006108204368501902 2:0.9271844625473022 3:0.8078431487083435 
-0.0 0.0 2048.0 2048.0 1:0.9944071769714355 2:0.792553186416626 3:0.7372549176216125 
-0.0 2048.0 0.0 2048.0 1:0.0 2:0.761904776096344 3:0.7411764860153198 
-0.0 2048.0 2048.0 2048.0 1:0.003086417680606246 2:0.9938650131225586 3:0.6392157077789307 
-0.0 2048.0 0.0 2048.0 1:0.001658370136283338 2:0.9305555820465088 3:0.8470588326454163 
-0.0 2048.0 2048.0 2048.0 1:0.004504502285271883 2:0.9955157041549683 3:0.8745098114013672 
-0.0 2048.0 0.0 0.0 1:0.0046480693854391575 2:0.992094874382019 3:0.9921568632125854 
-0.0 2048.0 0.0 0.0 1:6.775061483494937E-4 2:0.980079710483551 3:0.9843137264251709 
-0.0 2048.0 0.0 0.0 1:0.0033333301544189453 2:0.9920634627342224 3:0.9882352948188782 
-0.0 2048.0 0.0 0.0 1:0.0041152238845825195 2:0.9798387289047241 3:0.9725490212440491 
-0.0 2048.0 2048.0 0.0 1:0.004801094997674227 2:0.9878048896789551 3:0.9647058844566345 
-0.0 2048.0 0.0 0.0 1:0.0034435291308909655 2:0.9679999947547913 3:0.9803921580314636 
-0.0 0.0 2048.0 0.0 1:0.9979079365730286 2:0.9598393440246582 3:0.9764705896377563 
-0.0 2048.0 0.0 0.0 1:0.0020242929458618164 2:0.9801587462425232 3:0.9882352948188782 
-0.0 2048.0 0.0 2048.0 1:7.75198161136359E-4 2:0.9907833933830261 3:0.8509804010391235 
-0.0 2048.0 0.0 0.0 1:0.004048585891723633 2:0.9840637445449829 3:0.9843137264251709 
-0.0 2048.0 0.0 0.0 1:0.00468541169539094 2:0.9959999918937683 3:0.9803921580314636 
-0.0 2048.0 0.0 0.0 1:0.004016061779111624 2:0.9959999918937683 3:0.9803921580314636 
-0.0 2048.0 0.0 0.0 1:0.00468541169539094 2:0.988095223903656 3:0.9882352948188782 
-0.0 2048.0 0.0 0.0 1:0.0033467214088886976 2:0.9920318722724915 3:0.9843137264251709 
-0.0 2048.0 0.0 0.0 1:0.0046480693854391575 2:0.992094874382019 3:0.9921568632125854 
-0.0 2048.0 0.0 0.0 1:0.0026560425758361816 2:0.9960317611694336 3:0.9882352948188782 
-0.0 2048.0 0.0 0.0 1:0.004048585891723633 2:1.0 3:0.9686274528503418 
-0.0 2048.0 0.0 0.0 1:0.004048585891723633 2:1.0 3:0.9686274528503418 
-0.0 2048.0 0.0 0.0 1:0.004801094997674227 2:0.9959016442298889 3:0.95686274766922 
-0.0 2048.0 0.0 0.0 1:0.0 2:0.9722222089767456 3:0.9882352948188782 
-0.0 2048.0 0.0 0.0 1:0.002688169479370117 2:0.9880478382110596 3:0.9843137264251709 
-0.0 2048.0 0.0 0.0 1:6.693403120152652E-4 2:0.9803149700164795 3:0.9960784316062927 
-0.0 0.0 2048.0 0.0 1:0.9986720085144043 2:0.9843137264251709 3:1.0 
-0.0 0.0 2048.0 0.0 1:0.9980079531669617 2:0.9843137264251709 3:1.0 
-0.0 0.0 2048.0 0.0 1:0.9993333220481873 2:0.9803921580314636 3:1.0 
-0.0 2048.0 0.0 0.0 1:0.0013495286693796515 2:0.9801587462425232 3:0.9882352948188782 
-0.0 2048.0 0.0 0.0 1:6.802678108215332E-4 2:0.9760956168174744 3:0.9843137264251709 
-0.0 2048.0 0.0 0.0 1:0.0033333301544189453 2:0.9920634627342224 3:0.9882352948188782 
-0.0 2048.0 0.0 0.0 1:0.0 2:0.9529914259910583 3:0.9176470637321472 
-0.0 2048.0 0.0 0.0 1:0.004704297054558992 2:0.9959839582443237 3:0.9764705896377563 
-0.0 2048.0 0.0 0.0 1:0.0013946989784017205 2:0.9876033067703247 3:0.9490196108818054 
-0.0 2048.0 0.0 2048.0 1:0.0017543832072988153 2:0.984455943107605 3:0.7568627595901489 
-0.0 2048.0 0.0 2048.0 1:9.107490186579525E-4 2:0.9891892075538635 3:0.7254902124404907 
-0.0 0.0 0.0 2048.0 1:0.0 2:1.0 3:0.5882353186607361 
-0.0 2048.0 0.0 2048.0 1:0.0 2:0.9259259104728699 3:0.6352941393852234 
-0.0 2048.0 2048.0 2048.0 1:0.99609375 2:0.5267489552497864 3:0.9529411792755127 
-0.0 2048.0 2048.0 2048.0 1:0.9884696006774902 2:0.6737288236618042 3:0.9254902005195618 
-0.0 2048.0 0.0 2048.0 1:9.058018331415951E-4 2:0.893203854560852 3:0.8078431487083435 
-0.0 2048.0 2048.0 2048.0 1:0.008680552244186401 2:0.9411764740943909 3:0.800000011920929 
-0.0 2048.0 0.0 2048.0 1:0.0016501644859090447 2:0.9439252614974976 3:0.8392156958580017 
-0.0 0.0 2048.0 0.0 1:0.996279776096344 2:0.9531915187835693 3:0.9215686321258545 
-0.0 0.0 2048.0 0.0 1:0.9992722272872925 2:0.9541666507720947 3:0.9411764740943909 
-0.0 2048.0 0.0 0.0 1:0.0028248627204447985 2:0.9672130942344666 3:0.95686274766922 
-0.0 2048.0 0.0 2048.0 1:0.0 2:0.9248826503753662 3:0.8352941274642944 
-0.0 2048.0 2048.0 2048.0 1:0.008333335630595684 2:0.9950248599052429 3:0.7882353067398071 
-0.0 2048.0 0.0 2048.0 1:0.0033167500514537096 2:0.9901477694511414 3:0.7960784435272217 
-0.0 2048.0 0.0 2048.0 1:0.0 2:0.934272289276123 3:0.8352941274642944 
-0.0 0.0 2048.0 2048.0 1:0.9991666674613953 2:0.930232584476471 3:0.843137264251709 
-0.0 2048.0 0.0 2048.0 1:0.0 2:0.9822485446929932 3:0.6627451181411743 
-0.0 0.0 2048.0 2048.0 1:0.004597703460603952 2:0.9863945841789246 3:0.5764706134796143 
-0.0 2048.0 0.0 2048.0 1:0.0010482171783223748 2:1.0 3:0.6235294342041016 
-0.0 2048.0 0.0 2048.0 1:0.002044985769316554 2:1.0 3:0.6392157077789307 
-0.0 2048.0 2048.0 2048.0 1:0.004273504018783569 2:1.0 3:0.6117647290229797 
-0.0 2048.0 0.0 2048.0 1:0.0 2:1.0 3:0.6745098233222961 
-0.0 2048.0 0.0 2048.0 1:0.0010101000079885125 2:0.9537572264671326 3:0.6784313917160034 
-0.0 2048.0 0.0 2048.0 1:0.0 2:0.9869281053543091 3:0.6000000238418579 
-0.0 2048.0 0.0 0.0 1:0.0041152238845825195 2:0.9798387289047241 3:0.9725490212440491 
-0.0 2048.0 0.0 0.0 1:0.0020408134441822767 2:0.9800000190734863 3:0.9803921580314636 
-0.0 2048.0 0.0 0.0 1:0.0027434825897216797 2:0.9798387289047241 3:0.9725490212440491 
-0.0 2048.0 0.0 0.0 1:0.0034578146878629923 2:0.9796748161315918 3:0.9647058844566345 
-0.0 2048.0 0.0 0.0 1:0.004166663158684969 2:0.9795918464660645 3:0.9607843160629272 
-0.0 2048.0 0.0 0.0 1:0.0019685029983520508 2:0.9960784316062927 3:1.0 
-0.0 2048.0 0.0 0.0 1:0.0019685029983520508 2:0.9960784316062927 3:1.0 
-0.0 2048.0 0.0 0.0 1:0.0013333359966054559 2:0.9842519760131836 3:0.9960784316062927 
-0.0 2048.0 0.0 2048.0 1:0.0 2:1.0 3:0.6705882549285889 
-0.0 2048.0 0.0 0.0 1:0.0026350419502705336 2:0.9921568632125854 3:1.0 
-0.0 0.0 2048.0 0.0 1:0.9986666440963745 2:0.9842519760131836 3:0.9960784316062927 
-0.0 0.0 2048.0 0.0 1:0.9986772537231445 2:0.9882352948188782 3:1.0 
-0.0 2048.0 0.0 0.0 1:6.640056963078678E-4 2:0.9843137264251709 3:1.0 
-0.0 2048.0 0.0 2048.0 1:0.0041459403000772 2:0.9571428298950195 3:0.8235294222831726 
-0.0 0.0 2048.0 2048.0 1:0.9983333349227905 2:0.9615384340286255 3:0.8156862854957581 
-0.0 0.0 2048.0 2048.0 1:0.9991666674613953 2:0.9852216839790344 3:0.7960784435272217 
-0.0 0.0 2048.0 2048.0 1:0.9982993006706238 2:0.9514563083648682 3:0.8078431487083435 
-0.0 2048.0 0.0 2048.0 1:0.0025380749721080065 2:0.9800994992256165 3:0.7882353067398071 
-0.0 2048.0 0.0 2048.0 1:9.746551513671875E-4 2:0.8999999761581421 3:0.7450980544090271 
-0.0 2048.0 0.0 2048.0 1:8.635620470158756E-4 2:0.9948453903198242 3:0.7607843279838562 
-0.0 2048.0 0.0 2048.0 1:0.0034722189884632826 2:0.9648241400718689 3:0.7803921699523926 
-0.0 2048.0 2048.0 2048.0 1:0.007017543073743582 2:0.9693877696990967 3:0.7686274647712708 
-0.0 2048.0 0.0 2048.0 1:0.0026177961844950914 2:0.9597989916801453 3:0.7803921699523926 
-0.0 2048.0 2048.0 2048.0 1:0.005376348737627268 2:0.96875 3:0.7529411911964417 
-0.0 0.0 2048.0 2048.0 1:0.0024509828072041273 2:0.9927007555961609 3:0.5372549295425415 
-0.0 2048.0 2048.0 2048.0 1:0.008287291042506695 2:0.9679144620895386 3:0.7333333492279053 
-0.0 2048.0 0.0 2048.0 1:0.0010101000079885125 2:1.0 3:0.6470588445663452 
-0.0 2048.0 0.0 0.0 1:6.858706474304199E-4 2:0.9759036302566528 3:0.9764705896377563 
-0.0 2048.0 0.0 0.0 1:0.002699057338759303 2:0.9840637445449829 3:0.9843137264251709 
-0.0 2048.0 0.0 0.0 1:0.0014556050300598145 2:0.9541666507720947 3:0.9411764740943909 
-0.0 0.0 2048.0 0.0 1:0.9965277910232544 2:0.9677419066429138 3:0.9725490212440491 
-0.0 0.0 2048.0 1177.160127542167 1:0.9952830076217651 2:0.9059829115867615 3:0.9176470637321472 
-0.0 0.0 2048.0 2048.0 1:0.9941666722297668 2:0.8849557638168335 3:0.886274516582489 
-0.0 0.0 2048.0 0.0 1:0.9984917044639587 2:0.9324894547462463 3:0.929411768913269 
-0.0 2048.0 0.0 0.0 1:7.47382640838623E-4 2:0.9529914259910583 3:0.9176470637321472 
-0.0 0.0 2048.0 0.0 1:0.9925925731658936 2:0.9221311211585999 3:0.95686274766922 
-0.0 0.0 2048.0 0.0 1:0.99631267786026 2:0.9456067085266113 3:0.9372549057006836 
-0.0 2048.0 2048.0 2048.0 1:0.006862749811261892 2:1.0 3:0.6666666865348816 
-0.0 2048.0 0.0 0.0 1:0.0034435291308909655 2:0.9797570705413818 3:0.9686274528503418 
-0.0 2048.0 2048.0 0.0 1:0.0053547522984445095 2:0.9959999918937683 3:0.9803921580314636 
-0.0 2048.0 0.0 0.0 1:0.0020000042859464884 2:0.9881423115730286 3:0.9921568632125854 
-0.0 2048.0 0.0 0.0 1:0.0033200483303517103 2:0.992094874382019 3:0.9921568632125854 
-0.0 2048.0 0.0 0.0 1:6.858706474304199E-4 2:0.972000002861023 3:0.9803921580314636 
-0.0 2048.0 0.0 0.0 1:0.0013280212879180908 2:0.9881889820098877 3:0.9960784316062927 
-0.0 2048.0 0.0 0.0 1:0.0 2:0.9803921580314636 3:1.0 
-0.0 2048.0 2048.0 0.0 1:0.005228757858276367 2:1.0 3:1.0 
-0.0 2048.0 0.0 2048.0 1:8.591015939600766E-4 2:0.9556650519371033 3:0.7960784435272217 
-0.0 2048.0 2048.0 0.0 1:0.007670849561691284 2:1.0 3:0.9372549057006836 
-0.0 2048.0 0.0 0.0 1:0.004593173507601023 2:1.0 3:0.9960784316062927 
-0.0 2048.0 0.0 0.0 1:0.0 2:0.9803149700164795 3:0.9960784316062927 
-0.0 2048.0 2048.0 0.0 1:0.005625883582979441 2:0.9834024906158447 3:0.9450980424880981 
-0.0 2048.0 0.0 0.0 1:0.0048814513720571995 2:1.0 3:0.9372549057006836 
-0.0 2048.0 2048.0 0.0 1:0.006410261150449514 2:1.0 3:0.9176470637321472 
-0.0 2048.0 0.0 2048.0 1:0.0 2:0.9938650131225586 3:0.6392157077789307 
-0.0 2048.0 0.0 2048.0 1:9.058018331415951E-4 2:0.978723406791687 3:0.7372549176216125 
-0.0 2048.0 0.0 0.0 1:0.0014124313602223992 2:0.9632652997970581 3:0.9607843160629272 
-0.0 2048.0 0.0 0.0 1:0.0019841294270008802 2:0.9921259880065918 3:0.9960784316062927 
-0.0 2048.0 0.0 0.0 1:0.0033467214088886976 2:0.9841897487640381 3:0.9921568632125854 
-0.0 2048.0 0.0 0.0 1:0.0034152965527027845 2:0.9918699264526367 3:0.9647058844566345 
-0.0 2048.0 0.0 0.0 1:0.0034435291308909655 2:0.9797570705413818 3:0.9686274528503418 
-0.0 2048.0 0.0 0.0 1:0.00413223123177886 2:0.9877551198005676 3:0.9607843160629272 
-0.0 0.0 2048.0 2048.0 1:0.996632993221283 2:0.9611650705337524 3:0.8078431487083435 
-0.0 2048.0 0.0 0.0 1:0.0028011202812194824 2:0.9674796462059021 3:0.9647058844566345 
-0.0 2048.0 0.0 0.0 1:0.0027322371024638414 2:0.9799196720123291 3:0.9764705896377563 
-0.0 2048.0 2048.0 2048.0 1:0.0036036076489835978 2:1.0 3:0.7254902124404907 
-0.0 0.0 2048.0 2048.0 1:0.9991273880004883 2:0.9695431590080261 3:0.772549033164978 
-0.0 0.0 2048.0 2048.0 1:0.0033333301544189453 2:1.0 3:0.5882353186607361 
-0.0 2048.0 2048.0 2048.0 1:0.004140784498304129 2:0.9938271641731262 3:0.6352941393852234 
-0.0 2048.0 0.0 2048.0 1:0.0 2:0.949367105960846 3:0.6196078658103943 
-0.0 2048.0 0.0 2048.0 1:0.0 2:0.9537037014961243 3:0.8470588326454163 
-0.0 2048.0 0.0 2048.0 1:0.0 2:0.9313725233078003 3:0.800000011920929 
-0.0 0.0 2048.0 2048.0 1:0.993127167224884 2:0.9509803652763367 3:0.800000011920929 
-2048.0 2048.0 2048.0 2048.0 1:0.9961240291595459 2:0.47777777910232544 3:0.3529411852359772 
-2048.0 2048.0 0.0 2048.0 1:0.0 2:0.4656488597393036 3:0.5137255191802979 
-0.0 2048.0 2048.0 2048.0 1:0.9972222447395325 2:0.46875 3:0.501960813999176 
-0.0 2048.0 2048.0 2048.0 1:0.9971264600753784 2:0.3258427083492279 3:0.6980392336845398 
-0.0 2048.0 0.0 2048.0 1:0.0 2:0.34117648005485535 3:0.6666666865348816 
-0.0 2048.0 2048.0 2048.0 1:0.9971264600753784 2:0.41134750843048096 3:0.5529412031173706 
-0.0 2048.0 2048.0 2048.0 1:0.9971264600753784 2:0.41134750843048096 3:0.5529412031173706 
-0.0 2048.0 2048.0 2048.0 1:0.9947090148925781 2:0.47727271914482117 3:0.5176470875740051 
-0.0 0.0 2048.0 2048.0 1:0.9968553781509399 2:1.0 3:0.6235294342041016 
-0.0 2048.0 2048.0 2048.0 1:0.00644567608833313 2:0.9731183052062988 3:0.729411780834198 
-0.0 2048.0 0.0 0.0 1:0.0029368598479777575 2:0.9578059315681458 3:0.929411768913269 
-0.0 2048.0 0.0 0.0 1:0.0014245013007894158 2:0.9590163826942444 3:0.95686274766922 
-0.0 2048.0 0.0 0.0 1:0.0021186470985412598 2:0.9672130942344666 3:0.95686274766922 
-0.0 2048.0 0.0 0.0 1:0.004273504018783569 2:0.9669421315193176 3:0.9490196108818054 
-0.0 2048.0 0.0 0.0 1:7.122556562535465E-4 2:0.9590163826942444 3:0.95686274766922 
-0.0 2048.0 0.0 907.5108624576316 1:0.0014814833411946893 2:0.9740259647369385 3:0.9058823585510254 
-0.0 0.0 2048.0 2048.0 1:0.998084306716919 2:0.9775280952453613 3:0.6980392336845398 
-0.0 0.0 2048.0 0.0 1:0.9962462186813354 2:0.9568965435028076 3:0.9098039269447327 
-0.0 0.0 0.0 2048.0 1:0.0 2:0.98591548204422 3:0.5568627715110779 
-0.0 0.0 0.0 2048.0 1:0.0 2:0.98591548204422 3:0.5568627715110779 
-0.0 0.0 2048.0 2048.0 1:0.009090910665690899 2:0.9649122953414917 3:0.2235294133424759 
-1293.4265606527588 2048.0 2048.0 2048.0 1:0.9903846383094788 2:0.38235294818878174 3:0.5333333611488342 
-0.0 0.0 2048.0 2048.0 1:0.9972527623176575 2:0.8387096524238586 3:0.8509804010391235 
-0.0 2048.0 0.0 0.0 1:0.002710024593397975 2:0.984000027179718 3:0.9803921580314636 
-0.0 2048.0 0.0 0.0 1:0.0048814513720571995 2:0.9876033067703247 3:0.9490196108818054 
-0.0 2048.0 2048.0 0.0 1:0.006302525755017996 2:0.9916666746139526 3:0.9411764740943909 
-0.0 2048.0 2048.0 2048.0 1:0.00943396519869566 2:0.9769585132598877 3:0.8509804010391235 
-0.0 2048.0 2048.0 2048.0 1:0.00943396519869566 2:0.9769585132598877 3:0.8509804010391235 
-0.0 0.0 2048.0 0.0 1:0.9993252158164978 2:0.9724409580230713 3:0.9960784316062927 
-0.0 2048.0 0.0 0.0 1:0.0032938122749328613 2:0.9960629940032959 3:0.9960784316062927 
-0.0 2048.0 2048.0 0.0 1:0.0050724647007882595 2:0.9871244430541992 3:0.9137254953384399 
-0.0 2048.0 0.0 0.0 1:0.0035014052409678698 2:0.9794238805770874 3:0.9529411792755127 
-0.0 2048.0 0.0 0.0 1:0.0027322371024638414 2:0.9799196720123291 3:0.9764705896377563 
-0.0 2048.0 0.0 2048.0 1:0.0 2:0.9801980257034302 3:0.7921568751335144 
-0.0 2048.0 0.0 2048.0 1:0.0 2:0.9649999737739563 3:0.7843137383460999 
-0.0 2048.0 0.0 2048.0 1:0.0 2:0.9789473414421082 3:0.7450980544090271 
-0.0 2048.0 0.0 2048.0 1:0.0018315017223358154 2:0.9732620120048523 3:0.7333333492279053 
-0.0 0.0 0.0 2048.0 1:0.0 2:1.0 3:0.5882353186607361 
-0.0 0.0 0.0 2048.0 1:0.0012077292194589972 2:1.0 3:0.5411764979362488 
-0.0 2048.0 0.0 2048.0 1:0.0 2:1.0 3:0.6470588445663452 
-0.0 2048.0 0.0 0.0 1:0.0028985540848225355 2:1.0 3:0.9019607901573181 
-0.0 2048.0 0.0 0.0 1:0.0035014052409678698 2:0.9916666746139526 3:0.9411764740943909 
-0.0 2048.0 2048.0 0.0 1:0.005376348737627268 2:0.9919999837875366 3:0.9803921580314636 
-0.0 2048.0 0.0 2048.0 1:8.771916036494076E-4 2:0.9134615659713745 3:0.8156862854957581 
-0.0 0.0 2048.0 2048.0 1:0.9951691031455994 2:0.650943398475647 3:0.4156862795352936 
-0.0 2048.0 2048.0 2048.0 1:0.0033333301544189453 2:0.9433962106704712 3:0.6235294342041016 
-0.0 0.0 2048.0 2048.0 1:0.9905837774276733 2:0.8634146451950073 3:0.8039215803146362 
-0.0 0.0 2048.0 2048.0 1:0.9950000047683716 2:0.921658992767334 3:0.8509804010391235 
-0.0 2048.0 0.0 2048.0 1:0.0015723308315500617 2:0.9636363387107849 3:0.8627451062202454 
-0.0 2048.0 0.0 2048.0 1:0.0023584861773997545 2:0.9769585132598877 3:0.8509804010391235 
-0.0 2048.0 0.0 2048.0 1:0.00314465188421309 2:0.9814814925193787 3:0.8470588326454163 
-0.0 2048.0 0.0 2048.0 1:0.002293576719239354 2:0.9688888788223267 3:0.8823529481887817 
-0.0 2048.0 0.0 2048.0 1:0.002262443071231246 2:0.9866071343421936 3:0.8784313797950745 
-0.0 2048.0 2048.0 2048.0 1:0.006481478456407785 2:0.957446813583374 3:0.7372549176216125 
-0.0 2048.0 2048.0 2048.0 1:0.005582133773714304 2:0.9766355156898499 3:0.8392156958580017 
-0.0 2048.0 0.0 0.0 1:0.0022321443539112806 2:0.9613733887672424 3:0.9137254953384399 
-0.0 2048.0 2048.0 2048.0 1:0.007680495735257864 2:0.9954128265380859 3:0.8549019694328308 
-0.0 2048.0 0.0 0.0 1:0.004065036773681641 2:0.984000027179718 3:0.9803921580314636 
-0.0 2048.0 0.0 0.0 1:0.0041152238845825195 2:0.9798387289047241 3:0.9725490212440491 
-0.0 0.0 2048.0 0.0 1:0.9986282587051392 2:0.9642857313156128 3:0.9882352948188782 
-0.0 2048.0 0.0 2048.0 1:7.75198161136359E-4 2:0.9817351698875427 3:0.8588235378265381 
-0.0 2048.0 0.0 0.0 1:0.0013717412948608398 2:0.9681274890899658 3:0.9843137264251709 
-0.0 2048.0 0.0 0.0 1:0.0 2:0.9801587462425232 3:0.9882352948188782 
-0.0 2048.0 0.0 0.0 1:0.0034293532371520996 2:0.9838056564331055 3:0.9686274528503418 
-0.0 0.0 2048.0 0.0 1:0.9993113279342651 2:0.9603174328804016 3:0.9882352948188782 
-0.0 0.0 2048.0 0.0 1:0.9992907643318176 2:0.9751037359237671 3:0.9450980424880981 
-0.0 297.0020550863176 2048.0 2048.0 1:0.9962962865829468 2:0.6766917109489441 3:0.5215686559677124 
-0.0 2048.0 2048.0 2048.0 1:0.9977777600288391 2:0.6302521228790283 3:0.46666666865348816 
-0.0 2048.0 2048.0 2048.0 1:0.998039186000824 2:0.6296296119689941 3:0.529411792755127 
-0.0 2048.0 2048.0 2048.0 1:0.9850427508354187 2:0.46706587076187134 3:0.6549019813537598 
-0.0 2048.0 2048.0 2048.0 1:0.9837962985038757 2:0.5581395626068115 3:0.5058823823928833 
-0.0 2048.0 0.0 2048.0 1:0.0 2:1.0 3:0.6352941393852234 
-0.0 2048.0 0.0 2048.0 1:0.0024154584389179945 2:0.9672897458076477 3:0.8392156958580017 
-0.0 2048.0 0.0 0.0 1:0.004081636667251587 2:0.9839357137680054 3:0.9764705896377563 
-0.0 2048.0 0.0 0.0 1:0.001976281637325883 2:0.9921568632125854 3:1.0 
-0.0 2048.0 0.0 0.0 1:0.002008030889555812 2:0.988095223903656 3:0.9882352948188782 
-0.0 2048.0 0.0 0.0 1:0.003952572587877512 2:0.9960629940032959 3:0.9960784316062927 
-0.0 2048.0 0.0 0.0 1:0.0046480693854391575 2:0.9960317611694336 3:0.9882352948188782 
-0.0 2048.0 0.0 0.0 1:0.003267973428592086 2:1.0 3:1.0 
-0.0 0.0 158.38130835585665 2048.0 1:0.0021786491852253675 2:1.0 3:0.6000000238418579 
-0.0 2048.0 0.0 0.0 1:0.0033333301544189453 2:0.9960159659385681 3:0.9843137264251709 
-0.0 2048.0 0.0 0.0 1:0.003921568393707275 2:1.0 3:1.0 
-0.0 2048.0 0.0 0.0 1:0.0013280212879180908 2:0.992094874382019 3:0.9921568632125854 
-0.0 2048.0 0.0 0.0 1:0.0 2:0.9802371263504028 3:0.9921568632125854 
-0.0 2048.0 0.0 0.0 1:6.858706474304199E-4 2:0.9681274890899658 3:0.9843137264251709 
-0.0 2048.0 0.0 2048.0 1:0.0017006794223561883 2:0.9560975432395935 3:0.8039215803146362 
-0.0 2048.0 0.0 2048.0 1:8.012850885279477E-4 2:0.9585253596305847 3:0.8509804010391235 
-0.0 2048.0 0.0 2048.0 1:0.00317460298538208 2:0.963302731513977 3:0.8549019694328308 
-0.0 2048.0 0.0 2048.0 1:0.004025767091661692 2:0.9810426831245422 3:0.8274509906768799 
-627.5577745272554 2048.0 0.0 2048.0 1:0.0025641026441007853 2:0.7222222089767456 3:0.3529411852359772 
-2048.0 2048.0 2048.0 2048.0 1:0.015151510946452618 2:0.2661290466785431 3:0.48627451062202454 
-2048.0 2048.0 2048.0 2048.0 1:0.015151510946452618 2:0.341085284948349 3:0.5058823823928833 
-0.0 2048.0 2048.0 2048.0 1:0.009803920984268188 2:0.6868686676025391 3:0.38823530077934265 
-0.0 2048.0 2048.0 2048.0 1:0.9967637658119202 2:0.673202633857727 3:0.6000000238418579 
-0.0 2048.0 2048.0 2048.0 1:0.990514874458313 2:0.66847825050354 3:0.7215686440467834 
-0.0 0.0 2048.0 2048.0 1:0.9889705777168274 2:0.7861271500587463 3:0.6784313917160034 
-0.0 0.0 2048.0 2048.0 1:0.9989035129547119 2:0.8444444537162781 3:0.7058823704719543 
-0.0 2048.0 0.0 2048.0 1:0.0 2:0.8722222447395325 3:0.7058823704719543 
-0.0 2048.0 0.0 2048.0 1:0.003067483427003026 2:0.9209039807319641 3:0.6941176652908325 
-0.0 2048.0 0.0 2048.0 1:0.0037037034053355455 2:0.9278350472450256 3:0.7607843279838562 
-0.0 2048.0 0.0 2048.0 1:0.0026177961844950914 2:0.9549999833106995 3:0.7843137383460999 
-0.0 0.0 2048.0 2048.0 1:0.9981883764266968 2:0.9533678889274597 3:0.7568627595901489 
-0.0 2048.0 0.0 2048.0 1:0.002673794748261571 2:0.9639175534248352 3:0.7607843279838562 
-0.0 2048.0 0.0 2048.0 1:0.0024509828072041273 2:0.9807692170143127 3:0.8156862854957581 
-0.0 2048.0 2048.0 2048.0 1:0.003663003444671631 2:0.989130437374115 3:0.7215686440467834 
-0.0 2048.0 0.0 2048.0 1:9.578565950505435E-4 2:0.9720670580863953 3:0.7019608020782471 
-0.0 0.0 2048.0 2048.0 1:0.99895179271698 2:0.9937499761581421 3:0.6274510025978088 
-0.0 0.0 2048.0 2048.0 1:0.9954338073730469 2:0.948051929473877 3:0.6039215922355652 
-0.0 0.0 2048.0 2048.0 1:0.9923245906829834 2:0.9440993666648865 3:0.6313725709915161 
-0.0 0.0 0.0 2048.0 1:0.0012437800178304315 2:0.9925925731658936 3:0.529411792755127 
-0.0 2048.0 0.0 2048.0 1:0.0 2:0.95652174949646 3:0.5411764979362488 
-0.0 2048.0 0.0 2048.0 1:0.0 2:0.971222996711731 3:0.545098066329956 
-0.0 2048.0 2048.0 2048.0 1:0.0034965078812092543 2:0.9662162065505981 3:0.5803921818733215 
-0.0 2048.0 0.0 2048.0 1:0.0 2:0.9800000190734863 3:0.5882353186607361 
-0.0 2048.0 0.0 2048.0 1:0.0 2:0.9647887349128723 3:0.5568627715110779 
-0.0 2048.0 0.0 2048.0 1:0.001149425865150988 2:0.9863945841789246 3:0.5764706134796143 
-0.0 2048.0 0.0 2048.0 1:0.0021645028609782457 2:0.9871794581413269 3:0.6117647290229797 
-0.0 0.0 213.18040693762117 2048.0 1:0.002222220180556178 2:0.9933775067329407 3:0.5921568870544434 
-0.0 0.0 2048.0 2048.0 1:0.002330998657271266 2:1.0 3:0.5607843399047852 
-0.0 2048.0 0.0 2048.0 1:0.0022522511426359415 2:0.9736841917037964 3:0.5960784554481506 
-0.0 2048.0 0.0 2048.0 1:0.0012077292194589972 2:0.9387755393981934 3:0.5764706134796143 
-0.0 2048.0 2048.0 2048.0 1:0.0035971205215901136 2:0.9144737124443054 3:0.5960784554481506 
-0.0 2048.0 2048.0 2048.0 1:0.002347419736906886 2:0.9793103337287903 3:0.5686274766921997 
-0.0 0.0 2048.0 2048.0 1:0.004901965614408255 2:0.9855072498321533 3:0.5411764979362488 
-0.0 197.7429007968445 0.0 2048.0 1:0.0011990368366241455 2:0.9788732528686523 3:0.5568627715110779 
-0.0 2048.0 0.0 2048.0 1:0.0011820296058431268 2:0.9527027010917664 3:0.5803921818733215 
-0.0 0.0 0.0 2048.0 1:0.0 2:0.9858155846595764 3:0.5529412031173706 
-0.0 0.0 2048.0 2048.0 1:0.009485095739364624 2:0.976190447807312 3:0.4941176474094391 
-0.0 0.0 2048.0 2048.0 1:0.9972677826881409 2:1.0 3:0.47843137383461 
-0.0 0.0 0.0 2048.0 1:0.0 2:0.9669421315193176 3:0.4745098054409027 
-0.0 0.0 2048.0 2048.0 1:0.9985507130622864 2:0.9829059839248657 3:0.4588235318660736 
-0.0 0.0 2048.0 2048.0 1:0.9985507130622864 2:0.9829059839248657 3:0.4588235318660736 
-0.0 0.0 2048.0 2048.0 1:0.9985507130622864 2:0.9829059839248657 3:0.4588235318660736 
-0.0 2048.0 0.0 2048.0 1:0.0 2:0.9440000057220459 3:0.4901960790157318 
-0.0 0.0 2048.0 2048.0 1:0.005291005130857229 2:1.0 3:0.4941176474094391 
-0.0 -2048.0 0.0 0.0 1:0.0 2:1.0 3:0.501960813999176 
-0.0 -2048.0 0.0 0.0 1:0.08941344171762466 2:0.9319999814033508 3:0.9803921580314636 
-0.0 -2048.0 0.0 0.0 1:0.08154506236314774 2:0.9173228144645691 3:0.9960784316062927 
-0.0 -2048.0 0.0 0.0 1:0.08154506236314774 2:0.9173228144645691 3:0.9960784316062927 
-0.0 -2048.0 0.0 0.0 1:0.08189655095338821 2:0.913385808467865 3:0.9960784316062927 
-0.0 -2048.0 0.0 0.0 1:0.08156028389930725 2:0.9591836929321289 3:0.9607843160629272 
-0.0 -2048.0 0.0 0.0 1:0.08038347959518433 2:0.9868995547294617 3:0.8980392217636108 
-0.0 -2048.0 0.0 0.0 1:0.08926080912351608 2:0.9484127163887024 3:0.9882352948188782 
-0.0 -2048.0 0.0 0.0 1:0.08918128162622452 2:0.9156626462936401 3:0.9764705896377563 
-0.0 -2048.0 0.0 0.0 1:0.08951964974403381 2:0.9051383137702942 3:0.9921568632125854 
-0.0 -2048.0 0.0 0.0 1:0.08759689331054688 2:0.8775510191917419 3:0.9607843160629272 
-0.0 -2048.0 0.0 0.0 1:0.08873456716537476 2:0.8744939565658569 3:0.9686274528503418 
-0.0 -2048.0 0.0 0.0 1:0.09250763803720474 2:0.9356223344802856 3:0.9137254953384399 
-2048.0 -2048.0 0.0 0.0 1:0.0902777686715126 2:0.5714285969734192 3:0.16470588743686676 
-0.0 -2048.0 0.0 0.0 1:0.08851674944162369 2:0.8672199249267578 3:0.9450980424880981 
-0.0 -2048.0 0.0 0.0 1:0.075396828353405 2:0.9491525292396545 3:0.6941176652908325 
-0.0 -2048.0 0.0 0.0 1:0.09111110121011734 2:0.8858267664909363 3:0.9960784316062927 
-0.0 -2048.0 0.0 0.0 1:0.07866043597459793 2:0.9106382727622986 3:0.9215686321258545 
-0.0 -2048.0 0.0 0.0 1:0.06060606241226196 2:0.9330357313156128 3:0.8784313797950745 
-0.0 -2048.0 0.0 0.0 1:0.056589145213365555 2:0.8958333134651184 3:0.9411764740943909 
-0.0 -2048.0 0.0 0.0 1:0.06468797475099564 2:0.8830645084381104 3:0.9725490212440491 
-0.0 -2048.0 0.0 0.0 1:0.06416275352239609 2:0.9383260011672974 3:0.8901960849761963 
-0.0 -2048.0 0.0 0.0 1:0.06392694264650345 2:0.9319148659706116 3:0.9215686321258545 
-0.0 -2048.0 0.0 0.0 1:0.06451612710952759 2:0.8893442749977112 3:0.95686274766922 
-0.0 -2048.0 0.0 0.0 1:0.07852564007043839 2:0.9674418568611145 3:0.843137264251709 
-0.0 -2048.0 0.0 0.0 1:0.08618233352899551 2:0.9512194991111755 3:0.9647058844566345 
-0.0 -2048.0 0.0 0.0 1:0.08991227298974991 2:0.9306122660636902 3:0.9607843160629272 
-0.0 -2048.0 0.0 0.0 1:0.08503401279449463 2:0.9683794379234314 3:0.9921568632125854 
-0.0 -2048.0 0.0 0.0 1:0.09447982907295227 2:0.7889447212219238 3:0.7803921699523926 
-2048.0 -0.0 0.0 0.0 1:0.09383753687143326 2:0.64673912525177 3:0.7215686440467834 
-2048.0 -0.0 0.0 0.0 1:0.09139785170555115 2:0.5776397585868835 3:0.6313725709915161 
-0.0 -2048.0 0.0 0.0 1:0.018439719453454018 2:0.9399999976158142 3:0.9803921580314636 
-0.0 -2048.0 0.0 0.0 1:0.03951149061322212 2:0.9243028163909912 3:0.9843137264251709 
-0.0 -2048.0 0.0 0.0 1:0.03951149061322212 2:0.9243028163909912 3:0.9843137264251709 
-0.0 -2048.0 0.0 0.0 1:0.03951149061322212 2:0.9243028163909912 3:0.9843137264251709 
-0.0 -2048.0 0.0 0.0 1:0.03951149061322212 2:0.9243028163909912 3:0.9843137264251709 
-0.0 -2048.0 0.0 0.0 1:0.03951149061322212 2:0.9243028163909912 3:0.9843137264251709 
-0.0 -2048.0 0.0 0.0 1:0.03951149061322212 2:0.9243028163909912 3:0.9843137264251709 
-0.0 -2048.0 0.0 0.0 1:0.037940382957458496 2:0.9723320007324219 3:0.9921568632125854 
-0.0 -2048.0 0.0 0.0 1:0.03581267595291138 2:0.9877551198005676 3:0.9607843160629272 
-0.0 -2048.0 0.0 0.0 1:0.03319501504302025 2:0.9958677887916565 3:0.9490196108818054 
-0.0 -2048.0 0.0 0.0 1:0.03319501504302025 2:0.9958677887916565 3:0.9490196108818054 
-0.0 -2048.0 0.0 0.0 1:0.04203540086746216 2:0.9377593398094177 3:0.9450980424880981 
-0.0 -2048.0 0.0 0.0 1:0.016666671261191368 2:0.9933775067329407 3:0.5921568870544434 
-0.0 -2048.0 0.0 0.0 1:0.04964539408683777 2:0.9082125425338745 3:0.8117647171020508 
-0.0 -2048.0 0.0 0.0 1:0.07681158930063248 2:0.9200000166893005 3:0.9803921580314636 
-0.0 -2048.0 0.0 0.0 1:0.07681158930063248 2:0.9200000166893005 3:0.9803921580314636 
-0.0 -2048.0 0.0 0.0 1:0.07629629969596863 2:0.9036144614219666 3:0.9764705896377563 
-0.0 -2048.0 0.0 0.0 1:0.07123097777366638 2:0.9757084846496582 3:0.9686274528503418 
-0.0 -2048.0 0.0 0.0 1:0.07698056846857071 2:0.8814229369163513 3:0.9921568632125854 
-0.0 -2048.0 0.0 0.0 1:0.07838983088731766 2:0.9516128897666931 3:0.9725490212440491 
-0.0 -2048.0 0.0 0.0 1:0.07524613291025162 2:0.9957982897758484 3:0.9333333373069763 
-0.0 -2048.0 0.0 0.0 1:0.06486042588949203 2:0.867521345615387 3:0.9176470637321472 
-0.0 -2048.0 0.0 0.0 1:0.03703703358769417 2:0.9536423683166504 3:0.5921568870544434 
-0.0 -2048.0 0.0 0.0 1:0.01785714365541935 2:0.9929078221321106 3:0.5529412031173706 
-0.0 -2048.0 0.0 0.0 1:0.034161489456892014 2:0.9938271641731262 3:0.6352941393852234 
-0.0 -2048.0 0.0 0.0 1:0.03292180970311165 2:0.9418604373931885 3:0.6745098233222961 
-0.0 -2048.0 0.0 0.0 1:0.037931036204099655 2:1.0 3:0.5686274766921997 
-0.0 -2048.0 0.0 0.0 1:0.03378378227353096 2:0.9932885766029358 3:0.5843137502670288 
-0.0 -2048.0 0.0 0.0 1:0.031446535140275955 2:0.9937499761581421 3:0.6274510025978088 
-0.0 -2048.0 0.0 0.0 1:0.05120481923222542 2:0.9651162624359131 3:0.6745098233222961 
-0.0 -2048.0 0.0 0.0 1:0.0460122711956501 2:0.976047933101654 3:0.6549019813537598 
-0.0 -2048.0 0.0 0.0 1:0.030701756477355957 2:0.9934640526771545 3:0.6000000238418579 
-0.0 -2048.0 0.0 0.0 1:0.04791666939854622 2:1.0 3:0.6274510025978088 
-0.0 -2048.0 0.0 0.0 1:0.0364583320915699 2:0.9937888383865356 3:0.6313725709915161 
-0.0 -2048.0 0.0 0.0 1:0.03375527262687683 2:0.9404761791229248 3:0.658823549747467 
-0.0 -2048.0 0.0 0.0 1:0.05751173570752144 2:0.9102563858032227 3:0.6117647290229797 
-0.0 -2048.0 0.0 0.0 1:0.021428575739264488 2:1.0 3:0.5490196347236633 
-0.0 -2048.0 0.0 0.0 1:0.05349794030189514 2:0.9257143139839172 3:0.686274528503418 
-0.0 -2048.0 0.0 0.0 1:0.05386178568005562 2:1.0 3:0.6431372761726379 
-0.0 -2048.0 0.0 0.0 1:0.06583333015441895 2:0.9259259104728699 3:0.8470588326454163 
-0.0 -2048.0 0.0 0.0 1:0.06843800097703934 2:0.9452054500579834 3:0.8588235378265381 
-0.0 -2048.0 0.0 0.0 1:0.06570512801408768 2:0.9719626307487488 3:0.8392156958580017 
-0.0 -2048.0 0.0 0.0 1:0.06514382362365723 2:0.8834080696105957 3:0.8745098114013672 
-0.0 -1745.938260992954 0.0 0.0 1:0.06231231614947319 2:0.8774703741073608 3:0.9921568632125854 
-0.0 -2048.0 0.0 0.0 1:0.06415620446205139 2:0.9484127163887024 3:0.9882352948188782 
-0.0 -2048.0 0.0 0.0 1:0.06505847722291946 2:0.9785407781600952 3:0.9137254953384399 
-0.0 -2048.0 0.0 0.0 1:0.05645160749554634 2:0.9789473414421082 3:0.7450980544090271 
-0.0 -2048.0 0.0 0.0 1:0.08261493593454361 2:0.9169960618019104 3:0.9921568632125854 
-0.0 -2048.0 0.0 0.0 1:0.07898550480604172 2:0.9504132270812988 3:0.9490196108818054 
-0.0 -2048.0 0.0 0.0 1:0.07526881247758865 2:0.9234042763710022 3:0.9215686321258545 
-0.0 -2048.0 0.0 0.0 1:0.08993399143218994 2:0.922374427318573 3:0.8588235378265381 
-0.0 -2048.0 0.0 0.0 1:0.07799145579338074 2:0.8914285898208618 3:0.686274528503418 
-0.0 -2048.0 0.0 0.0 1:0.08116883039474487 2:0.9058823585510254 3:0.6666666865348816 
-0.0 -2048.0 0.0 0.0 1:0.03205128386616707 2:0.9957447052001953 3:0.9215686321258545 
-0.0 -2048.0 0.0 0.0 1:0.03205128386616707 2:0.9957447052001953 3:0.9215686321258545 
-0.0 -2048.0 0.0 0.0 1:0.03205128386616707 2:0.9957447052001953 3:0.9215686321258545 
-0.0 -2048.0 0.0 0.0 1:0.05303030088543892 2:0.9527559280395508 3:0.9960784316062927 
-0.0 -2048.0 0.0 0.0 1:0.0555555522441864 2:0.9795918464660645 3:0.9607843160629272 
-0.0 -2048.0 0.0 0.0 1:0.05149051547050476 2:0.9959514141082764 3:0.9686274528503418 
-0.0 -2048.0 0.0 0.0 1:0.04693877696990967 2:0.9683794379234314 3:0.9921568632125854 
-0.0 -2048.0 0.0 0.0 1:0.04481792449951172 2:0.9916666746139526 3:0.9411764740943909 
-0.0 -2048.0 0.0 0.0 1:0.04792561009526253 2:0.9246031641960144 3:0.9882352948188782 
-0.0 -2048.0 0.0 0.0 1:0.0625 2:0.9448819160461426 3:0.9960784316062927 
-0.0 -2048.0 0.0 0.0 1:0.07253086566925049 2:0.8962655663490295 3:0.9450980424880981 
-0.0 -2048.0 0.0 0.0 1:0.0762578621506691 2:0.8796680569648743 3:0.9450980424880981 
-0.0 -2048.0 0.0 0.0 1:0.07042253762483597 2:0.9424778819084167 3:0.886274516582489 
-0.0 -2048.0 0.0 0.0 1:0.07720058411359787 2:0.9788135886192322 3:0.9254902005195618 
-0.0 -2048.0 0.0 0.0 1:0.0920502170920372 2:0.9917012453079224 3:0.9450980424880981 
-0.0 -2048.0 0.0 0.0 1:0.07681756466627121 2:0.972000002861023 3:0.9803921580314636 
-0.0 -2048.0 0.0 0.0 1:0.0778236910700798 2:0.9877551198005676 3:0.9607843160629272 
-0.0 -2048.0 0.0 0.0 1:0.0873015895485878 2:0.9240000247955322 3:0.9803921580314636 
-0.0 -2048.0 0.0 0.0 1:0.08439715951681137 2:0.9552845358848572 3:0.9647058844566345 
-0.0 -2048.0 0.0 0.0 1:0.08227848261594772 2:0.9330708384513855 3:0.9960784316062927 
-0.0 -2048.0 0.0 0.0 1:0.057041000574827194 2:0.954081654548645 3:0.7686274647712708 
-0.0 -2048.0 0.0 0.0 1:0.07720058411359787 2:0.9585062265396118 3:0.9450980424880981 
-0.0 -2048.0 0.0 0.0 1:0.07055214792490005 2:0.9476743936538696 3:0.6745098233222961 
-0.0 -2048.0 0.0 0.0 1:0.08133333176374435 2:0.8802816867828369 3:0.5568627715110779 
-715.6347774958689 -0.0 0.0 0.0 1:0.0818452313542366 2:0.6913580298423767 3:0.6352941393852234 
-2048.0 -2048.0 0.0 0.0 1:0.10000000149011612 2:0.5 3:0.03921568766236305 
-2048.0 -0.0 0.0 0.0 1:0.06666666269302368 2:0.4545454680919647 3:0.04313725605607033 
-2048.0 -2048.0 0.0 15.534744536096582 1:0.1111111044883728 2:0.5 3:0.0470588244497776 
-1047.0698020710036 -2048.0 0.0 0.0 1:0.0833333358168602 2:1.0 3:0.0235294122248888 
-0.0 -2048.0 0.0 0.0 1:0.08524904400110245 2:0.8365384340286255 3:0.8156862854957581 
-0.0 -2048.0 0.0 0.0 1:0.07837837934494019 2:0.844748854637146 3:0.8588235378265381 
-0.0 -2048.0 0.0 0.0 1:0.07669616490602493 2:0.9826086759567261 3:0.9019607901573181 
-0.0 -2048.0 0.0 0.0 1:0.08675799518823624 2:0.9563318490982056 3:0.8980392217636108 
-0.0 -2048.0 0.0 0.0 1:0.09937401860952377 2:0.9594594836235046 3:0.8705882430076599 
-0.0 -2048.0 0.0 0.0 1:0.07236842066049576 2:0.9325153231620789 3:0.6392157077789307 
-0.0 -2048.0 1.3177439527202977 0.0 1:0.10666666179895401 2:1.0 3:0.19607843458652496 
-0.0 -2048.0 0.0 0.0 1:0.07821637392044067 2:0.9047619104385376 3:0.9882352948188782 
-0.0 -2048.0 0.0 0.0 1:0.0801144540309906 2:0.9282868504524231 3:0.9843137264251709 
-0.0 -2048.0 0.0 0.0 1:0.08477011322975159 2:0.9508196711540222 3:0.95686274766922 
-0.0 -2048.0 0.0 0.0 1:0.09243085980415344 2:0.9160000085830688 3:0.9803921580314636 
-0.0 -2048.0 0.0 0.0 1:0.08623188734054565 2:0.931174099445343 3:0.9686274528503418 
-0.0 -2048.0 0.0 0.0 1:0.09491779655218124 2:0.8814229369163513 3:0.9921568632125854 
-0.0 -2048.0 0.0 0.0 1:0.09166666865348816 2:0.9411764740943909 3:1.0 
-0.0 -2048.0 0.0 0.0 1:0.08196721225976944 2:0.9644268751144409 3:0.9921568632125854 
-0.0 -2048.0 0.0 0.0 1:0.0833333358168602 2:0.9599999785423279 3:0.9803921580314636 
-0.0 -2048.0 0.0 0.0 1:0.05591397359967232 2:0.8563535809516907 3:0.7098039388656616 
-2048.0 -0.0 0.0 0.0 1:0.05833333730697632 2:0.42553192377090454 3:0.18431372940540314 
-2048.0 -0.0 0.0 0.0 1:0.0575396828353405 2:0.5714285969734192 3:0.5764706134796143 
-0.0 -2048.0 0.0 0.0 1:0.09259259700775146 2:0.849056601524353 3:0.8313725590705872 
-0.0 -2048.0 0.0 0.0 1:0.08128079026937485 2:0.8787878751754761 3:0.9058823585510254 
-0.0 -2048.0 0.0 0.0 1:0.06416666507720947 2:0.9708737730979919 3:0.8078431487083435 
-0.0 -2048.0 0.0 0.0 1:0.06966490298509598 2:0.9895287752151489 3:0.7490196228027344 
-0.0 -2048.0 0.0 0.0 1:0.06593406200408936 2:0.994535505771637 3:0.7176470756530762 
-0.0 -2048.0 0.0 0.0 1:0.0693146362900734 2:0.9683257937431335 3:0.8666666746139526 
-0.0 -2048.0 0.0 0.0 1:0.06540084630250931 2:0.9575757384300232 3:0.6470588445663452 
-0.0 -2048.0 0.0 0.0 1:0.07740915566682816 2:0.8719007968902588 3:0.9490196108818054 
-0.0 -2048.0 0.0 0.0 1:0.06814814358949661 2:0.9656652212142944 3:0.9137254953384399 
-0.0 -2048.0 0.0 0.0 1:0.06437390297651291 2:0.9497487545013428 3:0.7803921699523926 
-0.0 -2048.0 0.0 0.0 1:0.057971011847257614 2:0.9200000166893005 3:0.8823529481887817 
-0.0 -2048.0 0.0 0.0 1:0.05980861186981201 2:0.8781512379646301 3:0.9333333373069763 
-0.0 -2048.0 0.0 0.0 1:0.06075533106923103 2:0.8712446093559265 3:0.9137254953384399 
-0.0 -2048.0 0.0 0.0 1:0.07307060807943344 2:0.9575471878051758 3:0.8313725590705872 
-0.0 -2048.0 0.0 0.0 1:0.06619936972856522 2:0.9145299196243286 3:0.9176470637321472 
-0.0 -2048.0 0.0 0.0 1:0.08083333820104599 2:0.921658992767334 3:0.8509804010391235 
-0.0 -2048.0 0.0 0.0 1:0.04471544548869133 2:0.8497409224510193 3:0.7568627595901489 
-0.0 -2048.0 0.0 0.0 1:0.022954097017645836 2:0.8882978558540344 3:0.7372549176216125 
-0.0 -2048.0 0.0 0.0 1:0.014583329670131207 2:1.0 3:0.6274510025978088 
-0.0 -2048.0 0.0 0.0 1:0.07623318582773209 2:1.0 3:0.8745098114013672 
-0.0 -2048.0 0.0 0.0 1:0.07439199090003967 2:1.0 3:0.9137254953384399 
-0.0 -2048.0 0.0 0.0 1:0.07902298122644424 2:0.9872340559959412 3:0.9215686321258545 
-0.0 -2048.0 0.0 0.0 1:0.0833333358168602 2:0.949999988079071 3:0.9411764740943909 
-0.0 -2048.0 0.0 0.0 1:0.0833333358168602 2:1.0 3:0.9333333373069763 
-0.0 -2048.0 0.0 0.0 1:0.08163265138864517 2:0.9839357137680054 3:0.9764705896377563 
-0.0 -2048.0 0.0 0.0 1:0.08439715951681137 2:0.9362549781799316 3:0.9843137264251709 
-0.0 -2048.0 0.0 0.0 1:0.08472222089767456 2:0.9599999785423279 3:0.9803921580314636 
-0.0 -2048.0 0.0 0.0 1:0.06279069930315018 2:0.9388646483421326 3:0.8980392217636108 
-0.0 -2048.0 0.0 0.0 1:0.03562341257929802 2:1.0 3:0.5137255191802979 
-0.0 -796.806694890198 0.0 0.0 1:0.09684684872627258 2:0.7708333134651184 3:0.7529411911964417 
-0.0 -2048.0 0.0 0.0 1:0.0885416641831398 2:0.8727272748947144 3:0.8627451062202454 
-0.0 -2048.0 0.0 0.0 1:0.0900297537446022 2:0.9491525292396545 3:0.9254902005195618 
-0.0 -2048.0 0.0 0.0 1:0.07000000029802322 2:0.930232584476471 3:0.843137264251709 
-2048.0 -2048.0 0.0 0.0 1:0.07575757056474686 2:0.7857142686843872 3:0.054901961237192154 
-0.0 -2048.0 0.0 0.0 1:0.0833333358168602 2:0.9134615659713745 3:0.8156862854957581 
-0.0 -2048.0 0.0 0.0 1:0.08117444068193436 2:0.8427947759628296 3:0.8980392217636108 
-0.0 -2048.0 0.0 0.0 1:0.08377424627542496 2:0.8590909242630005 3:0.8627451062202454 
-0.0 -2048.0 0.0 0.0 1:0.061359863728284836 2:0.9617224931716919 3:0.8196078538894653 
-0.0 -2048.0 0.0 0.0 1:0.034246575087308884 2:0.9668874144554138 3:0.5921568870544434 
-0.0 -2048.0 0.0 0.0 1:0.05436720326542854 2:0.8990384340286255 3:0.8156862854957581 
-0.0 -2048.0 0.0 0.0 1:0.06212121248245239 2:0.95652174949646 3:0.9019607901573181 
-0.0 -2048.0 0.0 0.0 1:0.06212121248245239 2:0.95652174949646 3:0.9019607901573181 
-0.0 -2048.0 0.0 0.0 1:0.06808510422706604 2:0.9437751173973083 3:0.9764705896377563 
-0.0 -2048.0 0.0 0.0 1:0.06267217546701431 2:0.9718875288963318 3:0.9764705896377563 
-0.0 -2048.0 0.0 0.0 1:0.05416666343808174 2:0.948616623878479 3:0.9921568632125854 
-0.0 -2048.0 0.0 0.0 1:0.018907567486166954 2:1.0 3:0.9333333373069763 
-0.0 -2048.0 0.0 0.0 1:0.018907567486166954 2:1.0 3:0.9333333373069763 
-0.0 -2048.0 0.0 0.0 1:0.009751777164638042 2:0.9842932224273682 3:0.7490196228027344 
-0.0 -2048.0 0.0 0.0 1:0.049069374799728394 2:0.9292452931404114 3:0.8313725590705872 
-0.0 -2048.0 0.0 0.0 1:0.057788949459791183 2:0.8504273295402527 3:0.9176470637321472 
-0.0 -2048.0 0.0 0.0 1:0.054964546114206314 2:0.9543147087097168 3:0.772549033164978 
-0.0 -2048.0 0.0 0.0 1:0.048295456916093826 2:0.8627451062202454 3:0.800000011920929 
-0.0 -2048.0 0.0 0.0 1:0.0625879094004631 2:0.9556451439857483 3:0.9725490212440491 
-0.0 -2048.0 0.0 0.0 1:0.07181572169065475 2:0.980079710483551 3:0.9843137264251709 
-0.0 -2048.0 0.0 0.0 1:0.07887517660856247 2:0.9642857313156128 3:0.9882352948188782 
-0.0 -2048.0 0.0 0.0 1:0.08227848261594772 2:0.9330708384513855 3:0.9960784316062927 
-0.0 -2048.0 0.0 0.0 1:0.07661927491426468 2:0.985981285572052 3:0.8392156958580017 
-0.0 -2048.0 0.0 0.0 1:0.05148342251777649 2:0.9549999833106995 3:0.7843137383460999 
-0.0 -2048.0 0.0 0.0 1:0.08771929889917374 2:0.9801587462425232 3:0.9882352948188782 
-0.0 -2048.0 0.0 0.0 1:0.0798611119389534 2:0.9561753273010254 3:0.9843137264251709 
-0.0 -2048.0 0.0 0.0 1:0.07708332687616348 2:0.9795918464660645 3:0.9607843160629272 
-0.0 -2048.0 0.0 0.0 1:0.08224163204431534 2:0.8980392217636108 3:1.0 
-0.0 -2048.0 0.0 0.0 1:0.08227848261594772 2:0.9595141410827637 3:0.9686274528503418 
-0.0 -2048.0 0.0 0.0 1:0.07782673090696335 2:0.9869565367698669 3:0.9019607901573181 
-0.0 -2048.0 0.0 0.0 1:0.06862744688987732 2:0.9866071343421936 3:0.8784313797950745 
-0.0 -2048.0 0.0 0.0 1:0.038135599344968796 2:0.9957805871963501 3:0.929411768913269 
-0.0 -2048.0 0.0 0.0 1:0.011517614126205444 2:0.9685039520263672 3:0.9960784316062927 
-0.0 -2048.0 0.0 0.0 1:0.014462809078395367 2:0.9958847761154175 3:0.9529411792755127 
-0.0 -2048.0 0.0 0.0 1:0.0011261304607614875 2:1.0 3:0.5803921818733215 
-0.0 -2048.0 0.0 0.0 1:0.05643739178776741 2:0.9086538553237915 3:0.8156862854957581 
-0.0 -2048.0 0.0 0.0 1:0.07482993602752686 2:0.875 3:0.8784313797950745 
-0.0 -2048.0 0.0 0.0 1:0.0632530152797699 2:0.9021739363670349 3:0.7215686440467834 
-0.0 -2048.0 0.0 0.0 1:0.07129629701375961 2:0.8999999761581421 3:0.7843137383460999 
-0.0 -2048.0 0.0 0.0 1:0.06872852891683578 2:0.8584070801734924 3:0.886274516582489 
-0.0 -2048.0 0.0 0.0 1:0.06842105835676193 2:0.9223300814628601 3:0.8078431487083435 
-0.0 -2048.0 0.0 0.0 1:0.06756756454706192 2:0.8937197923660278 3:0.8117647171020508 
-0.0 -2048.0 0.0 0.0 1:0.07003545761108398 2:0.8909952640533447 3:0.8274509906768799 
-0.0 -2048.0 0.0 0.0 1:0.07238095253705978 2:0.8838383555412292 3:0.7764706015586853 
-0.0 -2048.0 0.0 0.0 1:0.05842912197113037 2:0.9666666388511658 3:0.7058823704719543 
-0.0 -2048.0 0.0 0.0 1:0.08733973652124405 2:0.8776371479034424 3:0.929411768913269 
-0.0 -2048.0 0.0 0.0 1:0.08220210671424866 2:0.960869550704956 3:0.9019607901573181 
-0.0 -2048.0 0.0 0.0 1:0.08407080173492432 2:0.9300411343574524 3:0.9529411792755127 
-0.0 -2048.0 0.0 0.0 1:0.0920398011803627 2:0.8663793206214905 3:0.9098039269447327 
-0.0 -2048.0 0.0 0.0 1:0.0848214253783226 2:0.8960000276565552 3:0.9803921580314636 
-0.0 -2048.0 0.0 0.0 1:0.07523148506879807 2:0.8571428656578064 3:0.658823549747467 
-0.0 -2048.0 0.0 0.0 1:0.09294871240854263 2:0.7878788113594055 3:0.7764706015586853 
-0.0 -2048.0 0.0 0.0 1:0.0555555522441864 2:0.7384615540504456 3:0.5098039507865906 
-0.0 -2048.0 0.0 0.0 1:0.09104257822036743 2:0.9700854420661926 3:0.9176470637321472 
-0.0 -2048.0 0.0 0.0 1:0.08193277567625046 2:0.9958158731460571 3:0.9372549057006836 
-2048.0 -0.0 0.0 0.0 1:0.07916667312383652 2:0.5479452013969421 3:0.2862745225429535 
-0.0 -2048.0 0.0 0.0 1:0.08703703433275223 2:0.8333333134651184 3:0.8470588326454163 
-0.0 -2048.0 0.0 0.0 1:0.08490566164255142 2:0.8796680569648743 3:0.9450980424880981 
-0.0 -2048.0 0.0 0.0 1:0.0923202633857727 2:0.9107142686843872 3:0.8784313797950745 
-0.0 -2048.0 0.0 0.0 1:0.07249626517295837 2:0.9214876294136047 3:0.9490196108818054 
-0.0 -2048.0 0.0 0.0 1:0.10040160268545151 2:0.8426395654678345 3:0.772549033164978 
-0.0 -2048.0 0.0 0.0 1:0.09680134057998657 2:0.9801980257034302 3:0.7921568751335144 
-2048.0 -2048.0 8.454545144900763 158.49228726529816 1:0.10942760854959488 2:0.6971830725669861 3:0.5568627715110779 
-0.0 -2048.0 0.0 0.0 1:0.054644811898469925 2:0.9918699264526367 3:0.9647058844566345 
-0.0 -2048.0 0.0 0.0 1:0.04323570802807808 2:0.9917012453079224 3:0.9450980424880981 
-0.0 -2048.0 0.0 0.0 1:0.04323570802807808 2:0.9917012453079224 3:0.9450980424880981 
-0.0 -2048.0 0.0 0.0 1:0.04323570802807808 2:0.9917012453079224 3:0.9450980424880981 
-0.0 -2048.0 0.0 0.0 1:0.04922644421458244 2:0.9367588758468628 3:0.9921568632125854 
-0.0 -2048.0 0.0 0.0 1:0.015981733798980713 2:0.9931972622871399 3:0.5764706134796143 
-0.0 -2048.0 0.0 0.0 1:0.03690476343035698 2:0.8588957190513611 3:0.6392157077789307 
-0.0 -2048.0 0.0 0.0 1:0.03611110523343086 2:0.930232584476471 3:0.5058823823928833 
-0.0 -2048.0 0.0 0.0 1:0.03827160596847534 2:0.9507042169570923 3:0.5568627715110779 
-0.0 -2048.0 0.0 0.0 1:0.020987650379538536 2:0.985401451587677 3:0.5372549295425415 
-0.0 -2048.0 0.0 0.0 1:0.021144280210137367 2:0.9925925731658936 3:0.529411792755127 
-0.0 -2048.0 0.0 0.0 1:0.0551876425743103 2:0.9934210777282715 3:0.5960784554481506 
-0.0 -2048.0 0.0 0.0 1:0.08015873283147812 2:0.8898305296897888 3:0.9254902005195618 
-0.0 -2048.0 0.0 0.0 1:0.07847896218299866 2:0.9763033390045166 3:0.8274509906768799 
-0.0 -2048.0 0.0 0.0 1:0.07902973890304565 2:0.9063829779624939 3:0.9215686321258545 
-0.0 -2048.0 0.0 0.0 1:0.08294209837913513 2:0.8729507923126221 3:0.95686274766922 
-0.0 -2048.0 0.0 0.0 1:0.061526477336883545 2:0.9861751198768616 3:0.8509804010391235 
-0.0 -2048.0 0.0 0.0 1:0.011494249105453491 2:1.0 3:0.5686274766921997 
-0.0 -2048.0 0.0 0.0 1:0.011494249105453491 2:1.0 3:0.5686274766921997 
-0.0 -2048.0 0.0 0.0 1:0.011494249105453491 2:1.0 3:0.5686274766921997 
-0.0 -2048.0 0.0 0.0 1:0.011494249105453491 2:1.0 3:0.5686274766921997 
-0.0 -2048.0 0.0 0.0 1:0.011494249105453491 2:1.0 3:0.5686274766921997 
-0.0 -2048.0 0.0 0.0 1:0.011494249105453491 2:1.0 3:0.5686274766921997 
-0.0 -2048.0 0.0 0.0 1:0.02666667103767395 2:0.983146071434021 3:0.6980392336845398 
-0.0 -1787.0745663307096 -0.0 0.0 1:0.5740740895271301 2:0.9545454382896423 3:0.5176470875740051 
-0.0 -2048.0 -0.0 0.0 1:0.5740740895271301 2:0.9545454382896423 3:0.5176470875740051 
-0.0 -2048.0 -0.0 0.0 1:0.5716049671173096 2:0.8181818127632141 3:0.6470588445663452 
-0.0 -2048.0 -0.0 0.0 1:0.5704607367515564 2:1.0 3:0.48235294222831726 
-0.0 -2048.0 -0.0 0.0 1:0.5720338821411133 2:1.0 3:0.4627451002597809 
-0.0 -2048.0 -0.0 0.0 1:0.5687022805213928 2:0.9034482836723328 3:0.5686274766921997 
-0.0 -2048.0 -0.0 0.0 1:0.5756802558898926 2:0.9377990365028381 3:0.8196078538894653 
-0.0 -2048.0 -0.0 0.0 1:0.5711252689361572 2:0.8579235076904297 3:0.7176470756530762 
-0.0 -2048.0 -0.0 2.2982370850756397 1:0.5660377144813538 2:0.4953271150588989 3:0.8392156958580017 
-2048.0 -0.0 -0.0 0.0 1:0.5740740895271301 2:0.75 3:0.0941176488995552 
-2048.0 -0.0 -0.0 0.0 1:0.5888888835906982 2:0.4639175236225128 3:0.3803921639919281 
-0.0 -2048.0 -0.0 0.0 1:0.5671641826629639 2:0.5654008388519287 3:0.929411768913269 
-2048.0 -2048.0 -0.0 0.0 1:0.5634920597076416 2:0.807692289352417 3:0.10196078568696976 
-2048.0 -2048.0 -0.0 0.0 1:0.5666666626930237 2:0.7142857313156128 3:0.10980392247438431 
-2048.0 -2048.0 -0.0 0.0 1:0.5666666626930237 2:0.6666666865348816 3:0.11764705926179886 
-2048.0 -2048.0 -0.0 0.0 1:0.5714285373687744 2:0.75 3:0.10980392247438431 
-2048.0 -2048.0 -0.0 0.0 1:0.5714285373687744 2:0.7241379022598267 3:0.11372549086809158 
-0.0 -2048.0 -0.0 1.421290578174532 1:0.5657051205635071 2:0.5098039507865906 3:0.800000011920929 
-2048.0 -0.0 -0.0 0.0 1:0.579365074634552 2:0.7777777910232544 3:0.10588235408067703 
-0.0 -2048.0 -0.0 0.0 1:0.5671641826629639 2:0.8758170008659363 3:0.6000000238418579 
-0.0 -2048.0 -0.0 0.0 1:0.574404776096344 2:0.875 3:0.7529411911964417 
-0.0 -2048.0 -0.0 0.0 1:0.5743879675865173 2:0.9315789341926575 3:0.7450980544090271 
-0.0 -2048.0 -0.0 0.0 1:0.5721924901008606 2:0.9396985173225403 3:0.7803921699523926 
-0.0 -2048.0 -0.0 0.0 1:0.5614035129547119 2:0.9681528806686401 3:0.615686297416687 
-0.0 -2048.0 -0.0 0.0 1:0.5707635283470154 2:0.9521276354789734 3:0.7372549176216125 
-0.0 -2048.0 -0.0 0.0 1:0.573991060256958 2:0.9823788404464722 3:0.8901960849761963 
-0.0 -2048.0 -0.0 0.0 1:0.5760869979858398 2:0.978723406791687 3:0.9215686321258545 
-0.0 -2048.0 -0.0 0.0 1:0.5708333849906921 2:0.9756097793579102 3:0.9647058844566345 
-0.0 -2048.0 -0.0 0.0 1:0.5687702298164368 2:0.9856459498405457 3:0.8196078538894653 
-0.0 -2048.0 -0.0 0.0 1:0.5671520829200745 2:0.8803418874740601 3:0.9176470637321472 
-2048.0 -0.0 -0.0 0.0 1:0.5763888955116272 2:0.8275862336158752 3:0.11372549086809158 
-0.0 -2048.0 -0.0 0.0 1:0.5727699398994446 2:0.9508928656578064 3:0.8784313797950745 
-0.0 -2048.0 -0.0 0.0 1:0.5746376514434814 2:0.9704641103744507 3:0.929411768913269 
-0.0 -2048.0 -0.0 0.0 1:0.5735930800437927 2:0.9956896305084229 3:0.9098039269447327 
-0.0 -1826.5952269261522 -0.0 0.0 1:0.5783045887947083 2:0.920634925365448 3:0.9882352948188782 
-0.0 -1788.6787114939116 -0.0 0.0 1:0.5783045887947083 2:0.920634925365448 3:0.9882352948188782 
-0.0 -2048.0 -0.0 0.0 1:0.5729166865348816 2:0.9497717022895813 3:0.8588235378265381 
-1752.0134663256126 -0.0 -0.0 0.0 1:0.5909090638160706 2:0.48245614767074585 3:0.4470588266849518 
-0.0 -2048.0 -0.0 0.0 1:0.5638888478279114 2:0.6593406796455383 3:0.7137255072593689 
-0.0 -2048.0 -0.0 0.0 1:0.5767441391944885 2:0.9388646483421326 3:0.8980392217636108 
-0.0 -2048.0 -0.0 0.0 1:0.5719920992851257 2:0.7544642686843872 3:0.8784313797950745 
-0.0 -2048.0 -0.0 0.0 1:0.566107988357544 2:0.7816593647003174 3:0.8980392217636108 
-0.0 -2048.0 -0.0 0.0 1:0.568870484828949 2:0.5215517282485962 3:0.9098039269447327 
-2048.0 -2048.0 -0.0 0.0 1:0.5679011940956116 2:0.5400000214576721 3:0.19607843458652496 
-0.0 -2048.0 -0.0 0.0 1:0.5741667151451111 2:0.9009009003639221 3:0.8705882430076599 
-0.0 -2048.0 -0.0 0.0 1:0.5731883645057678 2:0.9236947894096375 3:0.9764705896377563 
-0.0 -2048.0 -0.0 0.0 1:0.5759368538856506 2:0.8366336822509766 3:0.7921568751335144 
-0.0 -2048.0 -0.0 0.0 1:0.5702540874481201 2:0.9214876294136047 3:0.9490196108818054 
-0.0 -2048.0 -0.0 0.0 1:0.5740740895271301 2:0.9686098694801331 3:0.8745098114013672 
-0.0 -2048.0 -0.0 0.0 1:0.5658915042877197 2:0.9347826242446899 3:0.9019607901573181 
-0.0 -2048.0 -0.0 0.0 1:0.5729166865348816 2:0.9372385144233704 3:0.9372549057006836 
-0.0 -2048.0 -0.0 0.0 1:0.5719529986381531 2:0.9153226017951965 3:0.9725490212440491 
-0.0 -2048.0 -0.0 0.0 1:0.5700934529304504 2:0.9469026327133179 3:0.886274516582489 
-0.0 -2048.0 -0.0 0.0 1:0.5710382461547852 2:0.855140209197998 3:0.8392156958580017 
-2048.0 -2048.0 -0.0 0.0 1:0.5714285373687744 2:0.6603773832321167 3:0.2078431397676468 
-2048.0 -0.0 -0.0 0.0 1:0.5833333134651184 2:0.5333333611488342 3:0.05882352963089943 
-0.0 -2048.0 -0.0 0.0 1:0.5724043846130371 2:0.5922330021858215 3:0.8078431487083435 
-2048.0 -222.14025057431627 -0.0 0.0 1:0.5740740895271301 2:0.7346938848495483 3:0.1921568661928177 
-2048.0 -0.0 -0.0 0.0 1:0.5862069129943848 2:0.5178571343421936 3:0.21960784494876862 
-2048.0 -2048.0 -5.3448653061354365 36.560413793116616 1:0.563218355178833 2:0.6304348111152649 3:0.18039216101169586 
-0.0 -2048.0 -0.0 0.0 1:0.5738831162452698 2:0.7348484992980957 3:0.5176470875740051 
-0.0 -2048.0 -0.0 0.0 1:0.5665025115013123 2:0.9666666388511658 3:0.8235294222831726 
-0.0 -2048.0 -0.0 0.0 1:0.5731292366981506 2:0.9245283007621765 3:0.8313725590705872 
-0.0 -2048.0 -0.0 0.0 1:0.5721392631530762 2:0.9392523169517517 3:0.8392156958580017 
-0.0 -2048.0 -0.0 0.0 1:0.5739436745643616 2:0.9726027250289917 3:0.572549045085907 
-0.0 -2048.0 -0.0 0.0 1:0.5703364014625549 2:1.0 3:0.4274509847164154 
-0.0 -2048.0 -0.0 0.0 1:0.575129508972168 2:0.9368932247161865 3:0.8078431487083435 
-0.0 -2048.0 -0.0 0.0 1:0.569023609161377 2:0.9124423861503601 3:0.8509804010391235 
-0.0 -2048.0 -0.0 0.0 1:0.5682926774024963 2:0.8913043737411499 3:0.9019607901573181 
-0.0 -2048.0 -0.0 0.0 1:0.5682730674743652 2:0.9171270728111267 3:0.7098039388656616 
-0.0 -2048.0 -0.0 0.0 1:0.5693739056587219 2:0.9248826503753662 3:0.8352941274642944 
-0.0 -2048.0 -0.0 0.0 1:0.5736246109008789 2:0.9856459498405457 3:0.8196078538894653 
-0.0 -2048.0 -0.0 0.0 1:0.5692541599273682 2:0.9733333587646484 3:0.8823529481887817 
-0.0 -2048.0 -0.0 0.0 1:0.5731883645057678 2:0.9387755393981934 3:0.9607843160629272 
-0.0 -2048.0 -0.0 0.0 1:0.5699152946472168 2:0.9833333492279053 3:0.9411764740943909 
-0.0 -2048.0 -0.0 0.0 1:0.5719696879386902 2:0.9865471124649048 3:0.8745098114013672 
-0.0 -2048.0 -0.0 0.0 1:0.5620490908622742 2:0.9467213153839111 3:0.95686274766922 
-0.0 -2048.0 -0.0 0.0 1:0.5750360488891602 2:0.9506173133850098 3:0.9529411792755127 
-0.0 -2048.0 -0.0 0.0 1:0.5675477385520935 2:0.9497907757759094 3:0.9372549057006836 
-0.0 -2048.0 -0.0 0.0 1:0.5761904716491699 2:0.9589040875434875 3:0.8588235378265381 
-0.0 -2048.0 -0.0 0.0 1:0.5712049603462219 2:0.9342105388641357 3:0.8941176533699036 
-0.0 -2048.0 -0.0 0.0 1:0.567460298538208 2:0.9502262473106384 3:0.8666666746139526 
-0.0 -2048.0 -0.0 0.0 1:0.5674931406974792 2:0.9453125 3:0.501960813999176 
-0.0 -2048.0 -0.0 0.0 1:0.5677506923675537 2:0.9609375 3:0.501960813999176 
-0.0 -2048.0 -0.0 0.0 1:0.5645161271095276 2:1.0 3:0.48627451062202454 
-0.0 -2048.0 -0.0 0.0 1:0.5734463334083557 2:1.0 3:0.4627451002597809 
-0.0 -2048.0 -0.0 0.0 1:0.5721784234046936 2:0.9769230484962463 3:0.5098039507865906 
-0.0 -2048.0 -0.0 0.0 1:0.5736766457557678 2:0.9433198571205139 3:0.9686274528503418 
-0.0 -2048.0 -0.0 0.0 1:0.5664556622505188 2:0.8061224222183228 3:0.7686274647712708 
-0.0 -2048.0 -0.0 0.0 1:0.5755336284637451 2:0.9311926364898682 3:0.8549019694328308 
-0.0 -2048.0 -0.0 0.0 1:0.5636792182922363 2:0.933920681476593 3:0.8901960849761963 
-0.0 -2048.0 -0.0 0.0 1:0.5709401965141296 2:0.946601927280426 3:0.8078431487083435 
-0.0 -2048.0 -0.0 0.0 1:0.5762712359428406 2:0.827102780342102 3:0.8392156958580017 
-0.0 -2048.0 -0.0 0.0 1:0.5758333206176758 2:0.9852216839790344 3:0.7960784435272217 
-0.0 -2048.0 -0.0 0.0 1:0.5751633644104004 2:0.9272727370262146 3:0.8627451062202454 
-0.0 -2048.0 -0.0 0.0 1:0.5760517716407776 2:0.9581395387649536 3:0.843137264251709 
-0.0 -2048.0 -0.0 0.0 1:0.5689170360565186 2:0.9753086566925049 3:0.9529411792755127 
-0.0 -2048.0 -0.0 0.0 1:0.5685028433799744 2:0.9440000057220459 3:0.9803921580314636 
-0.0 -2048.0 -0.0 0.0 1:0.5705128312110901 2:0.9790794849395752 3:0.9372549057006836 
-0.0 -2048.0 -0.0 0.0 1:0.5730593800544739 2:0.9240506291389465 3:0.929411768913269 
-0.0 -2048.0 -0.0 0.0 1:0.5758293271064758 2:0.9768518805503845 3:0.8470588326454163 
-0.0 -2048.0 -0.0 0.0 1:0.5707547068595886 2:0.9464285969734192 3:0.8784313797950745 
-0.0 -2048.0 -0.0 0.0 1:0.5722983479499817 2:0.9733333587646484 3:0.8823529481887817 
-0.0 -2048.0 -0.0 0.0 1:0.5723905563354492 2:0.9473684430122375 3:0.8196078538894653 
-0.0 -2048.0 -0.0 0.0 1:0.5721726417541504 2:0.995555579662323 3:0.8823529481887817 
-0.0 -2048.0 -0.0 0.0 1:0.5720486044883728 2:0.7933884263038635 3:0.9490196108818054 
-0.0 -2048.0 -0.0 0.0 1:0.5750916004180908 2:0.8792270421981812 3:0.8117647171020508 
-0.0 -2048.0 -0.0 0.0 1:0.5741758346557617 2:0.9430052042007446 3:0.7568627595901489 
-0.0 -2048.0 -0.0 0.0 1:0.5655863881111145 2:0.943231463432312 3:0.8980392217636108 
-0.0 -2048.0 -0.0 0.0 1:0.568493127822876 2:0.9399141669273376 3:0.9137254953384399 
-0.0 -2048.0 -0.0 0.0 1:0.5734767317771912 2:0.8773584961891174 3:0.8313725590705872 
-0.0 -2048.0 -0.0 0.0 1:0.5661764740943909 2:0.9147982001304626 3:0.8745098114013672 
-0.0 -2048.0 -4.427423791485624 3.211574690189788 1:0.5591132640838623 2:0.8787878751754761 3:0.9058823585510254 
-0.0 -2048.0 -0.0 0.0 1:0.5648967623710632 2:0.9262295365333557 3:0.95686274766922 
-0.0 -2048.0 -0.0 0.0 1:0.560606062412262 2:0.960698664188385 3:0.8980392217636108 
-0.0 -2048.0 -0.0 0.0 1:0.5631911754608154 2:0.9295154213905334 3:0.8901960849761963 
-0.0 -2048.0 -0.0 0.0 1:0.5688405632972717 2:0.9583333134651184 3:0.9411764740943909 
-0.0 -2048.0 -0.0 0.0 1:0.5649123191833496 2:0.9090909361839294 3:0.8196078538894653 
-0.0 -2048.0 -0.0 0.0 1:0.571651041507721 2:0.9907407164573669 3:0.42352941632270813 
-0.0 -2048.0 -0.0 0.0 1:0.5771929621696472 2:0.6291390657424927 3:0.5921568870544434 
-0.0 -2048.0 -0.0 0.0 1:0.5694444179534912 2:0.5357142686843872 3:0.43921568989753723 
-2048.0 -2048.0 -0.0 0.0 1:0.5714285373687744 2:0.33870968222618103 3:0.24313725531101227 
-0.0 -2048.0 -0.0 0.0 1:0.5722222328186035 2:0.849056601524353 3:0.4156862795352936 
-0.0 -2048.0 -0.0 0.0 1:0.5730769038200378 2:1.0 3:0.5098039507865906 
-0.0 -2048.0 -0.0 -0.0 1:0.23461540043354034 2:0.884353756904602 3:0.5764706134796143 
-0.0 -2048.0 -0.0 -0.0 1:0.225053071975708 2:0.8579235076904297 3:0.7176470756530762 
-0.0 -2048.0 -0.0 -0.0 1:0.23848240077495575 2:0.9685039520263672 3:0.49803921580314636 
-0.0 -2048.0 -0.0 -0.0 1:0.29279279708862305 2:0.6235954761505127 3:0.6980392336845398 
-0.0 -2048.0 -0.0 -0.0 1:0.2591463327407837 2:0.9425287246704102 3:0.6823529601097107 
-0.0 -2048.0 -0.0 -0.0 1:0.2591463327407837 2:0.9425287246704102 3:0.6823529601097107 
-0.0 -2048.0 -0.0 -0.0 1:0.23737375438213348 2:0.8638743162155151 3:0.7490196228027344 
-0.0 -2048.0 -0.0 -0.0 1:0.23713643848896027 2:0.9867549538612366 3:0.5921568870544434 
-0.0 -2048.0 -0.0 -0.0 1:0.22985784709453583 2:0.9547511339187622 3:0.8666666746139526 
-0.0 -2048.0 -0.0 -0.0 1:0.23429949581623077 2:0.9452054500579834 3:0.8588235378265381 
-0.0 -2048.0 -0.0 -0.0 1:0.23267324268817902 2:0.8898678421974182 3:0.8901960849761963 
-0.0 -2048.0 -0.0 -0.0 1:0.23046250641345978 2:0.9372197389602661 3:0.8745098114013672 
-0.0 -2048.0 -0.0 -0.0 1:0.22985784709453583 2:0.9295154213905334 3:0.8901960849761963 
-0.0 -2048.0 -0.0 -0.0 1:0.23459716141223907 2:0.9768518805503845 3:0.8470588326454163 
-0.0 -2048.0 -0.0 -0.0 1:0.23241591453552246 2:0.9732142686843872 3:0.8784313797950745 
-0.0 -2048.0 -0.0 -0.0 1:0.23070605099201202 2:0.9354838728904724 3:0.8509804010391235 
-0.0 -2048.0 -0.0 -0.0 1:0.236286923289299 2:1.0 3:0.6196078658103943 
-0.0 -2048.0 -0.0 -0.0 1:0.22746331989765167 2:0.9937499761581421 3:0.6274510025978088 
-0.0 -0.0 -26.560618614612462 -0.0 1:0.2222222089767456 2:1.0 3:0.0235294122248888 
-0.0 -2048.0 -0.0 -0.0 1:0.23395442962646484 2:0.9470587968826294 3:0.6666666865348816 
-0.0 -2048.0 -0.0 -0.0 1:0.23371648788452148 2:0.945652186870575 3:0.7215686440467834 
-0.0 -2048.0 -0.0 -0.0 1:0.23004694283008575 2:0.9301310181617737 3:0.8980392217636108 
-0.0 -2048.0 -0.0 -0.0 1:0.2293906956911087 2:0.9637305736541748 3:0.7568627595901489 
-0.0 -2048.0 -0.0 -0.0 1:0.23378078639507294 2:0.8370786309242249 3:0.6980392336845398 
-0.0 -2048.0 -0.0 -0.0 1:0.23952095210552216 2:0.7952380776405334 3:0.8235294222831726 
-0.0 -2048.0 -0.0 -0.0 1:0.23535354435443878 2:0.859375 3:0.7529411911964417 
-0.0 -2048.0 -0.0 -0.0 1:0.2321772575378418 2:0.9153439402580261 3:0.7411764860153198 
-0.0 -2048.0 -0.0 -0.0 1:0.23410403728485107 2:0.9453551769256592 3:0.7176470756530762 
-0.0 -2048.0 -0.0 -0.0 1:0.23204421997070312 2:0.9627659320831299 3:0.7372549176216125 
-0.0 -2048.0 -0.0 -0.0 1:0.23229165375232697 2:0.9467455744743347 3:0.6627451181411743 
-0.0 -2048.0 -0.0 -0.0 1:0.23790323734283447 2:0.7607361674308777 3:0.6392157077789307 
-0.0 -2048.0 -0.0 -0.0 1:0.23165619373321533 2:0.8112244606018066 3:0.7686274647712708 
-0.0 -2048.0 -0.0 -0.0 1:0.22960372269153595 2:1.0 3:0.5607843399047852 
-0.0 -2048.0 -0.0 -0.0 1:0.24242424964904785 2:1.0 3:0.4745098054409027 
-0.0 -2048.0 -0.0 -0.0 1:0.22839505970478058 2:0.9507042169570923 3:0.5568627715110779 
-0.0 -2048.0 -0.0 -0.0 1:0.22522521018981934 2:0.8757396340370178 3:0.6627451181411743 
-0.0 -2048.0 -0.0 -0.0 1:0.22626931965351105 2:0.9617834687232971 3:0.615686297416687 
-0.0 -2048.0 -0.0 -0.0 1:0.2261904925107956 2:0.9929078221321106 3:0.5529412031173706 
-0.0 -2048.0 -0.0 -0.0 1:0.2280701845884323 2:0.8525640964508057 3:0.6117647290229797 
-0.0 -2048.0 -0.0 -0.0 1:0.23495371639728546 2:0.8372092843055725 3:0.6745098233222961 
-0.0 -2048.0 -0.0 -0.0 1:0.25 2:0.9577465057373047 3:0.5568627715110779 
-0.0 -2048.0 -0.0 -0.0 1:0.2882205545902252 2:0.9432623982429504 3:0.5529412031173706 
-0.0 -2048.0 -0.0 -0.0 1:0.27745094895362854 2:0.939226508140564 3:0.7098039388656616 
-0.0 -2048.0 -0.0 -0.0 1:0.2807539701461792 2:0.9438202381134033 3:0.6980392336845398 
-0.0 -2048.0 -0.0 -0.0 1:0.2722221910953522 2:0.9473684430122375 3:0.7450980544090271 
-0.0 -2048.0 -0.0 -0.0 1:0.2722221910953522 2:0.9473684430122375 3:0.7450980544090271 
-0.0 -2048.0 -0.0 -0.0 1:0.2722221910953522 2:0.9473684430122375 3:0.7450980544090271 
-0.0 -2048.0 -0.0 -0.0 1:0.2722221910953522 2:0.9473684430122375 3:0.7450980544090271 
-0.0 -2048.0 -0.0 -0.0 1:0.2642725706100464 2:0.9329897165298462 3:0.7607843279838562 
-0.0 -2048.0 -0.0 -0.0 1:0.258215993642807 2:0.9342105388641357 3:0.5960784554481506 
-0.0 -2048.0 -0.0 -0.0 1:0.24724061787128448 2:0.8628571629524231 3:0.686274528503418 
-0.0 -2048.0 -0.0 -0.0 1:0.23099415004253387 2:0.8260869383811951 3:0.8117647171020508 
-0.0 -2048.0 -0.0 -0.0 1:0.23865878582000732 2:0.8711340427398682 3:0.7607843279838562 
-0.0 -2048.0 -0.0 -0.0 1:0.24321706593036652 2:0.9885057210922241 3:0.6823529601097107 
-0.0 -2048.0 -0.0 -0.0 1:0.23245613276958466 2:0.949999988079071 3:0.7843137383460999 
-0.0 -2048.0 -0.0 -0.0 1:0.24903099238872528 2:0.868686854839325 3:0.7764706015586853 
-0.0 -2048.0 -0.0 -0.0 1:0.25159236788749695 2:0.7658536434173584 3:0.8039215803146362 
-0.0 -2048.0 -0.0 -0.0 1:0.255064457654953 2:0.9526315927505493 3:0.7450980544090271 
-0.0 -2048.0 -0.0 -0.0 1:0.24203820526599884 2:0.9457831382751465 3:0.6509804129600525 
-0.0 -2048.0 -0.0 -0.0 1:0.24944071471691132 2:0.9371069073677063 3:0.6235294342041016 
-0.0 -2048.0 -0.0 -0.0 1:0.31388887763023376 2:0.9917355179786682 3:0.4745098054409027 
-0.0 -728.1883265318834 -0.0 -0.0 1:0.33045974373817444 2:0.9914529919624329 3:0.4588235318660736 
-0.0 -2048.0 -0.0 -0.0 1:0.31280192732810974 2:0.9324324131011963 3:0.5803921818733215 
-0.0 -2048.0 -0.0 -0.0 1:0.31190475821495056 2:0.8917197585105896 3:0.615686297416687 
-0.0 -2048.0 -0.0 -0.0 1:0.3318965435028076 2:0.8992248177528381 3:0.5058823823928833 
-0.0 -2048.0 -0.0 -0.0 1:0.3318965435028076 2:0.8992248177528381 3:0.5058823823928833 
-0.0 -2048.0 -0.0 -0.0 1:0.31830599904060364 2:1.0 3:0.47843137383461 
-0.0 -2048.0 -0.0 -0.0 1:0.2960372865200043 2:0.9662162065505981 3:0.5803921818733215 
-2048.0 -0.0 -0.0 -0.0 1:0.2261904925107956 2:0.8399999737739563 3:0.19607843458652496 
-0.0 -2048.0 -0.0 -0.0 1:0.23076923191547394 2:0.9198113083839417 3:0.8313725590705872 
-0.0 -2048.0 -0.0 -0.0 1:0.2343485802412033 2:0.8954545259475708 3:0.8627451062202454 
-0.0 -2048.0 -0.0 -0.0 1:0.22601623833179474 2:0.9403669834136963 3:0.8549019694328308 
-0.0 -2048.0 -0.0 -0.0 1:0.23217248916625977 2:0.9757281541824341 3:0.8078431487083435 
-0.0 -2048.0 -0.0 -0.0 1:0.23051409423351288 2:0.9757281541824341 3:0.8078431487083435 
-0.0 -2048.0 -0.0 -0.0 1:0.24474473297595978 2:0.75 3:0.5803921818733215 
-0.0 -2048.0 -0.0 -0.0 1:0.24266667664051056 2:0.9689922332763672 3:0.5058823823928833 
-2048.0 -0.0 -0.0 -0.0 1:0.23333334922790527 2:0.8333333134651184 3:0.0470588244497776 
-0.0 -2048.0 -0.0 -0.0 1:0.2280701845884323 2:0.9806451797485352 3:0.6078431606292725 
-2048.0 -0.0 -0.0 -0.0 1:0.25 2:0.800000011920929 3:0.019607843831181526 
-2048.0 -0.0 -0.0 -0.0 1:0.2341269701719284 2:0.7924528121948242 3:0.2078431397676468 
-0.0 -2048.0 -0.0 -0.0 1:0.2368421107530594 2:0.9382715821266174 3:0.6352941393852234 
-0.0 -2048.0 -0.0 -0.0 1:0.23395442962646484 2:0.8341968655586243 3:0.7568627595901489 
-0.0 -2048.0 -0.0 -0.0 1:0.23673038184642792 2:0.9751552939414978 3:0.6313725709915161 
-0.0 -2048.0 -0.0 -0.0 1:0.2459769994020462 2:0.9294871687889099 3:0.6117647290229797 
-0.0 -2048.0 -0.0 -0.0 1:0.2415611743927002 2:0.9634146094322205 3:0.6431372761726379 
-0.0 -2048.0 -0.0 -0.0 1:0.24211712181568146 2:0.7872340679168701 3:0.7372549176216125 
-0.0 -2048.0 -0.0 -0.0 1:0.22468352317810059 2:0.9239766001701355 3:0.6705882549285889 
-0.0 -2048.0 -0.0 -0.0 1:0.23620307445526123 2:0.9320987462997437 3:0.6352941393852234 
-0.0 -2048.0 -0.0 -0.0 1:0.23333334922790527 2:0.7967032790184021 3:0.7137255072593689 
-0.0 -2048.0 -0.0 -0.0 1:0.23509931564331055 2:0.9263803958892822 3:0.6392157077789307 
-0.0 -2048.0 -0.0 -0.0 1:0.23509931564331055 2:0.9263803958892822 3:0.6392157077789307 
-0.0 -2048.0 -0.0 -0.0 1:0.2321772575378418 2:0.9611111283302307 3:0.7058823704719543 
-0.0 -2048.0 -0.0 -0.0 1:0.23619632422924042 2:0.885869562625885 3:0.7215686440467834 
-0.0 -2048.0 -0.0 -0.0 1:0.22859744727611542 2:0.879807710647583 3:0.8156862854957581 
-0.0 -2048.0 -0.0 -0.0 1:0.232638880610466 2:0.9056603908538818 3:0.6235294342041016 
-0.0 -2048.0 -0.0 -0.0 1:0.23863637447357178 2:0.9635036587715149 3:0.5372549295425415 
-0.0 -2048.0 -0.0 -0.0 1:0.22864322364330292 2:0.8883928656578064 3:0.8784313797950745 
-0.0 -2048.0 -0.0 -0.0 1:0.23205740749835968 2:0.9952380657196045 3:0.8235294222831726 
-0.0 -2048.0 -0.0 -0.0 1:0.22892720997333527 2:1.0 3:0.6823529601097107 
-2048.0 -0.0 -0.0 -0.0 1:0.234375 2:0.761904776096344 3:0.16470588743686676 
-0.0 -2048.0 -0.0 -0.0 1:0.2368866205215454 2:0.9516907930374146 3:0.8117647171020508 
-0.0 -2048.0 -0.0 -0.0 1:0.25292396545410156 2:0.8260869383811951 3:0.5411764979362488 
-0.0 -2048.0 -0.0 -0.0 1:0.230366513133049 2:0.936274528503418 3:0.800000011920929 
-0.0 -2048.0 -0.0 -0.0 1:0.22752809524536133 2:0.9128205180168152 3:0.7647058963775635 
-0.0 -2048.0 -0.0 -0.0 1:0.23822462558746338 2:0.9484536051750183 3:0.7607843279838562 
-0.0 -2048.0 -0.0 -0.0 1:0.23011843860149384 2:0.9656862616539001 3:0.800000011920929 
-0.0 -2048.0 -0.0 -0.0 1:0.2393616884946823 2:0.9791666865348816 3:0.7529411911964417 
-0.0 -2048.0 -0.0 -0.0 1:0.24681933224201202 2:0.9776119589805603 3:0.5254902243614197 
-0.0 -2048.0 -0.0 -0.0 1:0.2380952388048172 2:0.8588957190513611 3:0.6392157077789307 
-0.0 -2048.0 -0.0 -0.0 1:0.2357274293899536 2:0.8619047403335571 3:0.8235294222831726 
-2048.0 -0.0 -0.0 -0.0 1:0.24444444477558136 2:0.849056601524353 3:0.2078431397676468 
-0.0 -2048.0 -0.0 -0.0 1:0.24046432971954346 2:0.9710144996643066 3:0.8117647171020508 
-0.0 -2048.0 -0.0 -0.0 1:0.24326598644256592 2:0.9082568883895874 3:0.8549019694328308 
-0.0 -2048.0 -0.0 -0.0 1:0.23115579783916473 2:0.8883928656578064 3:0.8784313797950745 
-0.0 -2048.0 -0.0 -0.0 1:0.23617692291736603 2:0.9295154213905334 3:0.8901960849761963 
-0.0 -2048.0 -0.0 -0.0 1:0.2293577939271927 2:0.9909090995788574 3:0.8627451062202454 
-0.0 -2048.0 -0.0 -0.0 1:0.29133859276771545 2:0.9921875 3:0.501960813999176 
-0.0 -2048.0 -0.0 -0.0 1:0.29133859276771545 2:0.9921875 3:0.501960813999176 
-0.0 -2048.0 -0.0 -0.0 1:0.2539682388305664 2:0.9449999928474426 3:0.7843137383460999 
-0.0 -2048.0 -0.0 -0.0 1:0.24598932266235352 2:0.9166666865348816 3:0.800000011920929 
-0.0 -2048.0 -0.0 -0.0 1:0.31779661774635315 2:0.8428571224212646 3:0.5490196347236633 
-0.0 -2048.0 -0.0 -0.0 1:0.3023809492588043 2:0.8383233547210693 3:0.6549019813537598 
-0.0 -2048.0 -0.0 -0.0 1:0.3023809492588043 2:0.8383233547210693 3:0.6549019813537598 
-0.0 -2048.0 -0.0 -0.0 1:0.3023809492588043 2:0.8383233547210693 3:0.6549019813537598 
-2048.0 -0.0 -0.0 -0.0 1:0.2857142984867096 2:0.699999988079071 3:0.11764705926179886 
-0.0 -2048.0 -0.0 -0.0 1:0.22463767230510712 2:0.9757575988769531 3:0.6470588445663452 
-0.0 -2048.0 -0.0 -0.0 1:0.2342342585325241 2:0.7748690843582153 3:0.7490196228027344 
-0.0 -2048.0 -0.0 -0.0 1:0.2567204236984253 2:0.6262626051902771 3:0.7764706015586853 
-0.0 -2048.0 -0.0 -0.0 1:0.24436092376708984 2:0.8012048006057739 3:0.6509804129600525 
-0.0 -2048.0 -0.0 -0.0 1:0.2627314627170563 2:0.8888888955116272 3:0.6352941393852234 
-0.0 -2048.0 -0.0 -0.0 1:0.24592073261737823 2:0.9346405267715454 3:0.6000000238418579 
-0.0 -2048.0 -0.0 -0.0 1:0.23552896082401276 2:0.9382022619247437 3:0.6980392336845398 
-0.0 -2048.0 -0.0 -0.0 1:0.2390476018190384 2:0.9114583134651184 3:0.7529411911964417 
-0.0 -2048.0 -0.0 -0.0 1:0.23351161181926727 2:0.9121951460838318 3:0.8039215803146362 
-0.0 -2048.0 -0.0 -0.0 1:0.23351161181926727 2:0.9121951460838318 3:0.8039215803146362 
-0.0 -2048.0 -0.0 -0.0 1:0.23577237129211426 2:0.8324872851371765 3:0.772549033164978 
-0.0 -2048.0 -0.0 -0.0 1:0.23569023609161377 2:0.9519230723381042 3:0.8156862854957581 
-0.0 -2048.0 -0.0 -0.0 1:0.23429949581623077 2:0.9672897458076477 3:0.8392156958580017 
-0.0 -2048.0 -0.0 -0.0 1:0.2470238208770752 2:0.9599999785423279 3:0.686274528503418 
-0.0 -2048.0 -0.0 -0.0 1:0.23170733451843262 2:0.9624413251876831 3:0.8352941274642944 
-0.0 -2048.0 -0.0 -0.0 1:0.2345360964536667 2:0.9897959232330322 3:0.7686274647712708 
-0.0 -2048.0 -0.0 -0.0 1:0.2340909242630005 2:0.9909909963607788 3:0.8705882430076599 
-0.0 -2048.0 -0.0 -0.0 1:0.24457593262195587 2:0.949438214302063 3:0.6980392336845398 
-0.0 -2048.0 -0.0 -0.0 1:0.2323809415102005 2:0.8928571343421936 3:0.7686274647712708 
-0.0 -2048.0 -0.0 -0.0 1:0.2339743822813034 2:0.9585253596305847 3:0.8509804010391235 
-0.0 -2048.0 -0.0 -0.0 1:0.23366832733154297 2:0.9045454263687134 3:0.8627451062202454 
-0.0 -2048.0 -0.0 -0.0 1:0.23280422389507294 2:0.9742268323898315 3:0.7607843279838562 
-0.0 -2048.0 -0.0 -0.0 1:0.22769951820373535 2:0.9638009071350098 3:0.8666666746139526 
-0.0 -2048.0 -0.0 -0.0 1:0.24455611407756805 2:0.8614718317985535 3:0.9058823585510254 
-0.0 -2048.0 -0.0 -0.0 1:0.25132274627685547 2:0.9792746305465698 3:0.7568627595901489 
-0.0 -2048.0 -0.0 -0.0 1:0.23860912024974823 2:0.9328858852386475 3:0.5843137502670288 
-0.0 -2048.0 -0.0 -0.0 1:0.2743055522441864 2:0.8622754216194153 3:0.6549019813537598 
-0.0 -2048.0 -0.0 -0.0 1:0.3002873659133911 2:0.758169949054718 3:0.6000000238418579 
-0.0 -2048.0 -0.0 -0.0 1:0.24125874042510986 2:0.9727891087532043 3:0.5764706134796143 
-0.0 -2048.0 -0.0 -0.0 1:0.2365967482328415 2:0.8666666746139526 3:0.6470588445663452 
-0.0 -2048.0 -0.0 -0.0 1:0.24074073135852814 2:1.0 3:0.4941176474094391 
-0.0 -2048.0 -0.0 -0.0 1:0.23266220092773438 2:0.9254658222198486 3:0.6313725709915161 
-0.0 -2048.0 -0.0 -0.0 1:0.23980815708637238 2:0.9788732528686523 3:0.5568627715110779 
-0.0 -2048.0 -0.0 -0.0 1:0.23333334922790527 2:0.9900990128517151 3:0.7921568751335144 
-0.0 -2048.0 -0.0 -0.0 1:0.23152709007263184 2:0.918552041053772 3:0.8666666746139526 
-0.0 -2048.0 -0.0 -0.0 1:0.23619632422924042 2:0.90055251121521 3:0.7098039388656616 
-0.0 -2048.0 -0.0 -0.0 1:0.2289644032716751 2:0.895652174949646 3:0.9019607901573181 
-0.0 -2048.0 -0.0 -0.0 1:0.2330096960067749 2:0.9903846383094788 3:0.8156862854957581 
-0.0 -2048.0 -0.0 -0.0 1:0.23563218116760254 2:0.9398148059844971 3:0.8470588326454163 
-0.0 -2048.0 -0.0 -0.0 1:0.2433333396911621 2:0.9433962106704712 3:0.6235294342041016 
-0.0 -2048.0 -0.0 -0.0 1:0.22530865669250488 2:1.0 3:0.6352941393852234 
-0.0 -2048.0 -0.0 -0.0 1:0.22325579822063446 2:0.9555555582046509 3:0.8823529481887817 
-0.0 -2048.0 -0.0 -0.0 1:0.23352713882923126 2:0.950276255607605 3:0.7098039388656616 
-0.0 -2048.0 -0.0 -0.0 1:0.23284311592578888 2:0.9444444179534912 3:0.8470588326454163 
-0.0 -2048.0 -0.0 -0.0 1:0.2344028502702713 2:0.9639175534248352 3:0.7607843279838562 
-0.0 -2048.0 -0.0 -0.0 1:0.23310811817646027 2:0.8604651093482971 3:0.6745098233222961 
-0.0 -2048.0 -0.0 -0.0 1:0.23752494156360626 2:0.9766082167625427 3:0.6705882549285889 
-0.0 -2048.0 -0.0 -0.0 1:0.230158731341362 2:0.8669725060462952 3:0.8549019694328308 
-0.0 -2048.0 -0.0 -0.0 1:0.23083333671092987 2:0.9389671087265015 3:0.8352941274642944 
-0.0 -2048.0 -0.0 -0.0 1:0.2346014529466629 2:0.8679245114326477 3:0.8313725590705872 
-0.0 -2048.0 -0.0 -0.0 1:0.23416666686534882 2:0.9852216839790344 3:0.7960784435272217 
-0.0 -2048.0 -0.0 -0.0 1:0.23063063621520996 2:0.9736841917037964 3:0.7450980544090271 
-1928.4969167922047 -0.0 -0.0 -0.0 1:0.2348484992980957 2:0.9166666865348816 3:0.0941176488995552 
-0.0 -2048.0 -0.0 -0.0 1:0.2323809415102005 2:0.9887005686759949 3:0.6941176652908325 
-0.0 -2048.0 -0.0 -0.0 1:0.24398624897003174 2:0.9509803652763367 3:0.800000011920929 
-0.0 -2048.0 -0.0 -0.0 1:0.26510724425315857 2:0.8999999761581421 3:0.7450980544090271 
-0.0 -2048.0 -0.0 -0.0 1:0.26510724425315857 2:0.8999999761581421 3:0.7450980544090271 
-0.0 -2048.0 -0.0 -0.0 1:0.2850574553012848 2:0.8682634830474854 3:0.6549019813537598 
-0.0 -0.0 -0.0 -11.748732427047926 1:0.34285712242126465 2:0.9589040875434875 3:0.2862745225429535 
-2048.0 -0.0 -0.0 -31.742783719508637 1:0.35087719559669495 2:0.5135135054588318 3:0.29019609093666077 
-0.0 -1356.4826634679118 -0.0 -0.0 1:0.2448979616165161 2:0.6577181220054626 3:0.5843137502670288 
-2048.0 -0.0 -0.0 -0.0 1:0.23529410362243652 2:0.5 3:0.13333334028720856 
-2048.0 -0.0 -0.0 -0.0 1:0.2536231577396393 2:0.71875 3:0.125490203499794 
-0.0 -2048.0 -0.0 -0.0 1:0.24789917469024658 2:0.9224806427955627 3:0.5058823823928833 
-2048.0 -0.0 -0.0 -0.0 1:0.25 2:0.5277777910232544 3:0.5647059082984924 
-5.372829533871439 -2048.0 -147.46641318678226 -0.0 1:0.21578948199748993 2:0.6209150552749634 3:0.6000000238418579 
-2048.0 -0.0 -0.0 -0.0 1:0.2631578743457794 2:0.7169811129570007 3:0.4156862795352936 
-0.0 -2048.0 -0.0 -0.0 1:0.23924732208251953 2:0.6595744490623474 3:0.7372549176216125 
-0.0 -2048.0 -0.0 -0.0 1:0.23025047779083252 2:0.8963730335235596 3:0.7568627595901489 
-0.0 -2048.0 -0.0 -0.0 1:0.2307017594575882 2:0.9405940771102905 3:0.7921568751335144 
-0.0 -2048.0 -0.0 -0.0 1:0.2869674265384674 2:0.970802903175354 3:0.5372549295425415 
-0.0 -2048.0 -0.0 -0.0 1:0.2886904776096344 2:0.7272727489471436 3:0.6039215922355652 
-0.0 -2048.0 -0.0 -0.0 1:0.2886904776096344 2:0.7272727489471436 3:0.6039215922355652 
-0.0 -2048.0 -0.0 -0.0 1:0.2886904776096344 2:0.7272727489471436 3:0.6039215922355652 
-0.0 -2048.0 -0.0 -0.0 1:0.2886904776096344 2:0.7272727489471436 3:0.6039215922355652 
-0.0 -2048.0 -0.0 -0.0 1:0.2886904776096344 2:0.7272727489471436 3:0.6039215922355652 
-0.0 -2048.0 -0.0 -0.0 1:0.2886904776096344 2:0.7272727489471436 3:0.6039215922355652 
-0.0 -2048.0 -0.0 -0.0 1:0.2886904776096344 2:0.7272727489471436 3:0.6039215922355652 
-0.0 -2048.0 -0.0 -0.0 1:0.2886904776096344 2:0.7272727489471436 3:0.6039215922355652 
-0.0 -2048.0 -0.0 -0.0 1:0.2886904776096344 2:0.7272727489471436 3:0.6039215922355652 
