svm_type c_svc
kernel_type linear
nr_class 5
total_sv 875
rho -2.9391304260199766 -2.573102242456777 -4.156618140588076 -3.078815975333095 1.3436666746767052 -0.8930129387307686 9.676254765512294 -1.1816297070786566 -1.7150931733462151 4.550854479160581
label 0 1 2 3 4
probA -1.91028292094735 -2.685818956698271 -1.6680910059224885 -2.6219190645692065 -0.987475906661212 -1.2604515742224454 -1.0336911072313801 -3.2647606671018568 -1.8640151633437878 -3.926476523113985
probB -1.156913875106961 -1.4900100745956155 -1.8374738152397119 -1.0437274325190629 -0.6028853370804679 -0.03495893222813733 0.007174406582090679 -0.09560374721563511 -0.1096949167137907 -0.5023208374918587
nr_sv 3 286 238 129 219
SV
0.0 0.502700412002324 2.9364400754121553 0.8640832247871401 1:0.053333330899477005 2:0.18939393758773804 3:0.5176470875740051 
0.0 12.771698414299186 23.177744263143566 17.83146084565518 1:0.0416666679084301 2:0.2298850566148758 3:0.34117648005485535 
37.48152050786929 0.36843850746224927 28.81786255507098 5.132097322933053 1:0.9777777791023254 2:0.1807228922843933 3:0.32549020648002625 
-0.0 8192.0 0.0 8192.0 1:0.0 2:0.8260869383811951 3:0.45098039507865906 
-0.0 8192.0 0.0 8192.0 1:0.00138888752553612 2:0.9716598987579346 3:0.9686274528503418 
-0.0 8192.0 0.0 8192.0 1:0.00138888752553612 2:0.9716598987579346 3:0.9686274528503418 
-0.0 8192.0 0.0 8192.0 1:0.0020833315793424845 2:0.9795918464660645 3:0.9607843160629272 
-0.0 8192.0 0.0 0.0 1:0.0013550122966989875 2:0.9879518151283264 3:0.9764705896377563 
-0.0 8192.0 0.0 0.0 1:0.0020325183868408203 2:0.984000027179718 3:0.9803921580314636 
-0.0 8192.0 8192.0 8192.0 1:0.0027322371024638414 2:0.9721115827560425 3:0.9843137264251709 
-0.0 8192.0 0.0 8192.0 1:7.40736722946167E-4 2:0.9375 3:0.9411764740943909 
-0.0 0.0 8192.0 0.0 1:0.9986504912376404 2:0.9801587462425232 3:0.9882352948188782 
-0.0 8192.0 0.0 0.0 1:0.004016061779111624 2:0.9920318722724915 3:0.9843137264251709 
-0.0 8192.0 8192.0 0.0 1:0.005952378269284964 2:0.9960474371910095 3:0.9921568632125854 
-0.0 8192.0 0.0 8192.0 1:0.0034293532371520996 2:0.9798387289047241 3:0.9725490212440491 
-0.0 8192.0 8192.0 0.0 1:0.006693442817777395 2:0.9959999918937683 3:0.9803921580314636 
-0.0 8192.0 4861.643910118817 8192.0 1:0.004901965614408255 2:0.9834710955619812 3:0.9490196108818054 
-0.0 8192.0 0.0 8192.0 1:0.004219412803649902 2:0.9834024906158447 3:0.9450980424880981 
-0.0 8192.0 8192.0 8192.0 1:0.0014184415340423584 2:0.9591836929321289 3:0.9607843160629272 
-0.0 8192.0 0.0 8192.0 1:0.0015503863105550408 2:0.9388646483421326 3:0.8980392217636108 
-0.0 8192.0 0.0 8192.0 1:0.0016666650772094727 2:0.9009009003639221 3:0.8705882430076599 
-0.0 8192.0 0.0 8192.0 1:0.003072192193940282 2:0.9353448152542114 3:0.9098039269447327 
-0.0 8192.0 0.0 8192.0 1:0.002293576719239354 2:0.9356223344802856 3:0.9137254953384399 
-0.0 8192.0 0.0 8192.0 1:0.0020746884401887655 2:0.9757084846496582 3:0.9686274528503418 
-0.0 8192.0 0.0 8192.0 1:0.0011737048625946045 2:1.0 3:0.5568627715110779 
-0.0 8192.0 0.0 8192.0 1:0.004840940237045288 2:0.9877049326896667 3:0.95686274766922 
-0.0 8192.0 8192.0 8192.0 1:0.004922648426145315 2:0.987500011920929 3:0.9411764740943909 
-0.0 8192.0 0.0 8192.0 1:0.0027434825897216797 2:0.9759036302566528 3:0.9764705896377563 
-0.0 8192.0 8192.0 0.0 1:0.004742542747408152 2:0.980079710483551 3:0.9843137264251709 
-0.0 0.0 8192.0 0.0 1:0.9993055462837219 2:0.9716598987579346 3:0.9686274528503418 
-0.0 8192.0 8192.0 8192.0 1:0.006726453546434641 2:0.969565212726593 3:0.9019607901573181 
-0.0 8192.0 8192.0 8192.0 1:0.006726453546434641 2:0.969565212726593 3:0.9019607901573181 
-0.0 8192.0 0.0 8192.0 1:0.0 2:0.9585062265396118 3:0.9450980424880981 
-0.0 8192.0 0.0 8192.0 1:0.0 2:0.9585062265396118 3:0.9450980424880981 
-0.0 8192.0 0.0 8192.0 1:0.0 2:0.9585062265396118 3:0.9450980424880981 
-0.0 0.0 8192.0 0.0 1:0.9986168742179871 2:0.9717742204666138 3:0.9725490212440491 
-0.0 0.0 8192.0 0.0 1:0.9992938041687012 2:0.9516128897666931 3:0.9725490212440491 
-0.0 8192.0 0.0 0.0 1:0.0026560425758361816 2:0.9960317611694336 3:0.9882352948188782 
-0.0 8192.0 0.0 8192.0 1:0.0021008451003581285 2:0.9674796462059021 3:0.9647058844566345 
-0.0 8192.0 0.0 8192.0 1:0.004528989549726248 2:0.9839572310447693 3:0.7333333492279053 
-0.0 0.0 8192.0 8192.0 1:0.9987654089927673 2:0.97826087474823 3:0.5411764979362488 
-0.0 0.0 8192.0 8192.0 1:0.9964538812637329 2:1.0 3:0.5529412031173706 
-0.0 0.0 8192.0 8192.0 1:0.998792290687561 2:0.978723406791687 3:0.5529412031173706 
-0.0 0.0 8192.0 8192.0 1:0.998792290687561 2:0.978723406791687 3:0.5529412031173706 
-0.0 0.0 8192.0 8192.0 1:0.998792290687561 2:0.978723406791687 3:0.5529412031173706 
-0.0 0.0 8192.0 8192.0 1:0.998792290687561 2:0.978723406791687 3:0.5529412031173706 
-0.0 0.0 8192.0 8192.0 1:0.9964538812637329 2:1.0 3:0.5529412031173706 
-0.0 8192.0 0.0 8192.0 1:0.0 2:0.9652777910232544 3:0.5647059082984924 
-0.0 8192.0 0.0 8192.0 1:0.0 2:1.0 3:0.5647059082984924 
-0.0 8192.0 0.0 8192.0 1:0.0012531280517578125 2:1.0 3:0.5215686559677124 
-0.0 8192.0 0.0 8192.0 1:0.0026455025654286146 2:0.9692307710647583 3:0.7647058963775635 
-0.0 8192.0 0.0 8192.0 1:0.003584225894883275 2:0.9587628841400146 3:0.7607843279838562 
-0.0 8192.0 0.0 8192.0 1:0.003584225894883275 2:0.9587628841400146 3:0.7607843279838562 
-0.0 8192.0 0.0 8192.0 1:0.0026455025654286146 2:0.9497487545013428 3:0.7803921699523926 
-0.0 8192.0 0.0 8192.0 1:0.0 2:0.9430052042007446 3:0.7568627595901489 
-0.0 0.0 8192.0 8192.0 1:0.9975247383117676 2:0.9711538553237915 3:0.8156862854957581 
-0.0 0.0 8192.0 8192.0 1:0.9975247383117676 2:0.9711538553237915 3:0.8156862854957581 
-0.0 8192.0 0.0 8192.0 1:0.0 2:0.9430052042007446 3:0.7568627595901489 
-0.0 8192.0 0.0 8192.0 1:0.003584225894883275 2:0.9587628841400146 3:0.7607843279838562 
-0.0 8192.0 0.0 8192.0 1:0.004681647289544344 2:0.9621621370315552 3:0.7254902124404907 
-0.0 8192.0 0.0 8192.0 1:0.004089981317520142 2:0.9878787994384766 3:0.6470588445663452 
-0.0 8192.0 0.0 8192.0 1:0.0 2:0.9572192430496216 3:0.7333333492279053 
-0.0 8192.0 0.0 8192.0 1:0.0 2:0.9670329689979553 3:0.7137255072593689 
-0.0 8192.0 0.0 8192.0 1:0.0 2:0.9670329689979553 3:0.7137255072593689 
-0.0 8192.0 0.0 8192.0 1:0.0 2:0.9670329689979553 3:0.7137255072593689 
-0.0 8192.0 0.0 8192.0 1:0.0 2:0.9670329689979553 3:0.7137255072593689 
-0.0 8192.0 0.0 8192.0 1:0.0 2:0.9670329689979553 3:0.7137255072593689 
-0.0 8192.0 0.0 8192.0 1:0.0 2:0.9670329689979553 3:0.7137255072593689 
-0.0 8192.0 8192.0 8192.0 1:0.006944447755813599 2:0.9824561476707458 3:0.6705882549285889 
-0.0 8192.0 0.0 0.0 1:0.0020325183868408203 2:0.984000027179718 3:0.9803921580314636 
-0.0 8192.0 8192.0 8192.0 1:0.0056497156620025635 2:0.9792531132698059 3:0.9450980424880981 
-0.0 8192.0 8192.0 8192.0 1:0.0027322371024638414 2:0.9721115827560425 3:0.9843137264251709 
-0.0 0.0 8192.0 0.0 1:0.9985815286636353 2:0.9631147384643555 3:0.95686274766922 
-0.0 0.0 8192.0 0.0 1:0.9978540539741516 2:0.9588477611541748 3:0.9529411792755127 
-0.0 0.0 8192.0 0.0 1:0.9986282587051392 2:0.9681274890899658 3:0.9843137264251709 
-0.0 8192.0 8192.0 8192.0 1:0.0012077292194589972 2:0.6388888955116272 3:0.8470588326454163 
-0.0 0.0 8192.0 0.0 1:0.9977477788925171 2:0.9406779408454895 3:0.9254902005195618 
-0.0 8192.0 8192.0 8192.0 1:0.0014005601406097412 2:0.9558233022689819 3:0.9764705896377563 
-0.0 8192.0 0.0 0.0 1:0.0034013588447123766 2:0.9800000190734863 3:0.9803921580314636 
-0.0 8192.0 0.0 0.0 1:0.003952572587877512 2:0.9960629940032959 3:0.9960784316062927 
-0.0 8192.0 0.0 0.0 1:0.0032808382529765368 2:0.9960784316062927 3:1.0 
-0.0 8192.0 0.0 0.0 1:0.003952572587877512 2:0.9960629940032959 3:0.9960784316062927 
-0.0 8192.0 0.0 0.0 1:0.003999998327344656 2:0.9960159659385681 3:0.9843137264251709 
-0.0 8192.0 0.0 0.0 1:0.0020000042859464884 2:0.9881423115730286 3:0.9921568632125854 
-0.0 8192.0 0.0 8192.0 1:0.0 2:0.9764150977134705 3:0.8313725590705872 
-0.0 8192.0 0.0 0.0 1:0.002016127109527588 2:0.9841269850730896 3:0.9882352948188782 
-0.0 8192.0 8192.0 0.0 1:0.0026350419502705336 2:0.9921568632125854 3:1.0 
-0.0 8192.0 0.0 0.0 1:0.0013280212879180908 2:0.9843137264251709 3:1.0 
-0.0 8192.0 8192.0 0.0 1:0.0026350419502705336 2:0.9921568632125854 3:1.0 
-0.0 0.0 8192.0 8192.0 1:0.9974093437194824 2:0.9554455280303955 3:0.7921568751335144 
-0.0 8192.0 0.0 8192.0 1:0.0027322371024638414 2:0.9838709831237793 3:0.9725490212440491 
-0.0 8192.0 0.0 0.0 1:0.004666666034609079 2:1.0 3:0.9803921580314636 
-0.0 8192.0 8192.0 0.0 1:0.0033333301544189453 2:0.9881423115730286 3:0.9921568632125854 
-0.0 8192.0 8192.0 0.0 1:0.005312085151672363 2:0.9843137264251709 3:1.0 
-0.0 8192.0 0.0 0.0 1:0.0033467214088886976 2:0.9920318722724915 3:0.9843137264251709 
-0.0 8192.0 0.0 0.0 1:0.0026560425758361816 2:0.9881889820098877 3:0.9960784316062927 
-0.0 8192.0 0.0 8192.0 1:0.0034435291308909655 2:0.9837398529052734 3:0.9647058844566345 
-0.0 8192.0 0.0 8192.0 1:0.0013717412948608398 2:0.9838056564331055 3:0.9686274528503418 
-0.0 8192.0 0.0 8192.0 1:0.0013605455169454217 2:0.9760956168174744 3:0.9843137264251709 
-0.0 8192.0 8192.0 0.0 1:0.0026350419502705336 2:0.9921568632125854 3:1.0 
-0.0 8192.0 0.0 0.0 1:0.0033200483303517103 2:0.992094874382019 3:0.9921568632125854 
-0.0 8192.0 0.0 0.0 1:0.0026773810386657715 2:0.9920318722724915 3:0.9843137264251709 
-0.0 8192.0 0.0 0.0 1:0.0013550122966989875 2:0.976190447807312 3:0.9882352948188782 
-0.0 8192.0 0.0 8192.0 1:0.0014064708957448602 2:0.9713114500045776 3:0.95686274766922 
-0.0 0.0 8192.0 8192.0 1:0.9991364479064941 2:0.9460784196853638 3:0.800000011920929 
-0.0 8192.0 0.0 8192.0 1:0.0027434825897216797 2:0.9838056564331055 3:0.9686274528503418 
-0.0 8192.0 8192.0 8192.0 1:0.9980506896972656 2:0.8028169274330139 3:0.8352941274642944 
-0.0 8192.0 8192.0 8192.0 1:0.0 2:0.7421875 3:0.501960813999176 
-0.0 8192.0 0.0 8192.0 1:7.374584674835205E-4 2:0.9495798349380493 3:0.9333333373069763 
-0.0 8192.0 8192.0 0.0 1:0.9977678656578064 2:0.9491525292396545 3:0.9254902005195618 
-0.0 0.0 8192.0 0.0 1:0.9976958632469177 2:0.939393937587738 3:0.9058823585510254 
-0.0 0.0 8192.0 8192.0 1:0.996666669845581 2:0.9569377899169922 3:0.8196078538894653 
-0.0 0.0 8192.0 6991.059874404454 1:0.9952380657196045 2:0.9251101613044739 3:0.8901960849761963 
-0.0 0.0 8192.0 0.0 1:0.9993113279342651 2:0.9718875288963318 3:0.9764705896377563 
-0.0 8192.0 8192.0 0.0 1:0.005312085151672363 2:0.9960317611694336 3:0.9882352948188782 
-0.0 8192.0 0.0 0.0 1:0.005928853992372751 2:1.0 3:0.9921568632125854 
-0.0 8192.0 0.0 0.0 1:0.004593173507601023 2:1.0 3:0.9960784316062927 
-0.0 8192.0 0.0 0.0 1:0.00468541169539094 2:0.9959999918937683 3:0.9803921580314636 
-0.0 8192.0 8192.0 0.0 1:0.00612244987860322 2:0.9959349632263184 3:0.9647058844566345 
-0.0 8192.0 0.0 0.0 1:0.003952572587877512 2:0.9960629940032959 3:0.9960784316062927 
-0.0 8192.0 0.0 0.0 1:0.0032808382529765368 2:0.9960784316062927 3:1.0 
-0.0 8192.0 0.0 0.0 1:0.0033200483303517103 2:0.992094874382019 3:0.9921568632125854 
-0.0 8192.0 0.0 0.0 1:0.003373821498826146 2:0.9879999756813049 3:0.9803921580314636 
-0.0 8192.0 0.0 0.0 1:0.0026666622143238783 2:0.9881423115730286 3:0.9921568632125854 
-0.0 8192.0 0.0 0.0 1:0.0020325183868408203 2:0.980079710483551 3:0.9843137264251709 
-0.0 8192.0 0.0 8192.0 1:0.002754817483946681 2:0.9797570705413818 3:0.9686274528503418 
-0.0 8192.0 0.0 0.0 1:0.003952572587877512 2:0.9960629940032959 3:0.9960784316062927 
-0.0 8192.0 0.0 0.0 1:0.003952572587877512 2:0.9960629940032959 3:0.9960784316062927 
-0.0 8192.0 0.0 0.0 1:0.003952572587877512 2:0.9960629940032959 3:0.9960784316062927 
-0.0 8192.0 0.0 0.0 1:0.003952572587877512 2:0.9960629940032959 3:0.9960784316062927 
-0.0 8192.0 0.0 8192.0 1:0.002754817483946681 2:0.9797570705413818 3:0.9686274528503418 
-0.0 8192.0 0.0 0.0 1:0.003952572587877512 2:0.9960629940032959 3:0.9960784316062927 
-0.0 8192.0 0.0 8192.0 1:0.0 2:0.9759036302566528 3:0.9764705896377563 
-0.0 8192.0 8192.0 8192.0 1:0.0 2:0.6616161465644836 3:0.7764706015586853 
-0.0 8192.0 0.0 0.0 1:0.00468541169539094 2:0.9920318722724915 3:0.9843137264251709 
-0.0 8192.0 0.0 0.0 1:0.0026143789291381836 2:1.0 3:1.0 
-0.0 8192.0 0.0 0.0 1:0.0020325183868408203 2:0.984000027179718 3:0.9803921580314636 
-0.0 8192.0 0.0 8192.0 1:0.0 2:0.9931507110595703 3:0.572549045085907 
-0.0 8192.0 8192.0 0.0 1:0.004723350051790476 2:0.9919678568840027 3:0.9764705896377563 
-0.0 0.0 8192.0 8192.0 1:0.9925373196601868 2:0.7127659320831299 3:0.3686274588108063 
-0.0 8192.0 8192.0 8192.0 1:0.006410261150449514 2:0.5098039507865906 3:0.20000000298023224 
-0.0 8192.0 8192.0 8192.0 1:0.9958847761154175 2:0.8100000023841858 3:0.7843137383460999 
-0.0 0.0 8192.0 8192.0 1:0.9982817769050598 2:0.8940092325210571 3:0.8509804010391235 
-0.0 8192.0 0.0 8192.0 1:0.0 2:0.9672130942344666 3:0.95686274766922 
-0.0 8192.0 0.0 0.0 1:0.004704297054558992 2:0.9959839582443237 3:0.9764705896377563 
-0.0 0.0 8192.0 8192.0 1:0.9984050989151001 2:0.9166666865348816 3:0.8941176533699036 
-0.0 8192.0 0.0 8192.0 1:0.0020576119422912598 2:0.9798387289047241 3:0.9725490212440491 
-0.0 0.0 8192.0 8192.0 1:0.9958949089050293 2:0.9103139042854309 3:0.8745098114013672 
-0.0 0.0 8192.0 8192.0 1:0.996666669845581 2:0.8888888955116272 3:0.8823529481887817 
-0.0 0.0 8192.0 8192.0 1:0.996666669845581 2:0.8888888955116272 3:0.8823529481887817 
-0.0 0.0 8192.0 8192.0 1:0.996666669845581 2:0.8888888955116272 3:0.8823529481887817 
-0.0 8192.0 0.0 8192.0 1:0.0020576119422912598 2:0.9798387289047241 3:0.9725490212440491 
-0.0 8192.0 0.0 0.0 1:0.00476190447807312 2:0.9800000190734863 3:0.9803921580314636 
-0.0 0.0 8192.0 0.0 1:0.9963610172271729 2:0.9541666507720947 3:0.9411764740943909 
-0.0 8192.0 8192.0 8192.0 1:0.9807692170143127 2:0.5048543810844421 3:0.40392157435417175 
-0.0 6830.278982883561 8192.0 8192.0 1:0.998062014579773 2:0.843137264251709 3:0.800000011920929 
-0.0 8192.0 8192.0 0.0 1:0.005291005130857229 2:1.0 3:0.9882352948188782 
-0.0 0.0 8192.0 0.0 1:0.9992967844009399 2:0.9634146094322205 3:0.9647058844566345 
-0.0 0.0 8192.0 0.0 1:0.9979919791221619 2:0.9803149700164795 3:0.9960784316062927 
-0.0 8192.0 8192.0 0.0 1:0.0019920270424336195 2:0.9881889820098877 3:0.9960784316062927 
-0.0 8192.0 0.0 8192.0 1:0.0020746884401887655 2:0.9757084846496582 3:0.9686274528503418 
-0.0 8192.0 0.0 8192.0 1:0.0024752516765147448 2:0.9140271544456482 3:0.8666666746139526 
-0.0 8192.0 8192.0 8192.0 1:0.9931972622871399 2:0.8949771523475647 3:0.8588235378265381 
-0.0 0.0 8192.0 8192.0 1:0.9967159032821655 2:0.918552041053772 3:0.8666666746139526 
-0.0 0.0 8192.0 8192.0 1:0.9946236610412598 2:0.8815165758132935 3:0.8274509906768799 
-0.0 8192.0 8192.0 8192.0 1:0.9961686134338379 2:0.769911527633667 3:0.886274516582489 
-0.0 8192.0 8192.0 8192.0 1:0.9932170510292053 2:0.7713004350662231 3:0.8745098114013672 
-0.0 8192.0 8192.0 8192.0 1:0.994369387626648 2:0.6636771559715271 3:0.8745098114013672 
-0.0 0.0 8192.0 8192.0 1:0.9958333373069763 2:0.8163265585899353 3:0.3843137323856354 
-0.0 0.0 8192.0 8192.0 1:0.997890293598175 2:0.8144329786300659 3:0.3803921639919281 
-0.0 8192.0 8192.0 8192.0 1:0.9894179701805115 2:0.6631578803062439 3:0.37254902720451355 
-0.0 0.0 8192.0 8192.0 1:0.9948717951774597 2:0.7471264600753784 3:0.34117648005485535 
-0.0 8192.0 0.0 8192.0 1:0.0 2:0.8847926259040833 3:0.8509804010391235 
-0.0 8192.0 8192.0 8192.0 1:0.9980732202529907 2:0.7268907427787781 3:0.9333333373069763 
-0.0 8192.0 8192.0 8192.0 1:0.9950099587440491 2:0.7324561476707458 3:0.8941176533699036 
-0.0 8192.0 8192.0 8192.0 1:0.003367006778717041 2:0.9166666865348816 3:0.8470588326454163 
-0.0 0.0 8192.0 8192.0 1:0.9973404407501221 2:0.8703703880310059 3:0.8470588326454163 
-0.0 8192.0 2184.5199144964536 8192.0 1:0.0 2:0.8457943797111511 3:0.8392156958580017 
-0.0 0.0 8192.0 8192.0 1:0.9988662004470825 2:0.9671052694320679 3:0.5960784554481506 
-0.0 0.0 8192.0 8192.0 1:0.9987080097198486 2:0.9626865386962891 3:0.5254902243614197 
-0.0 8192.0 0.0 8192.0 1:0.006720433477312326 2:0.9465649127960205 3:0.5137255191802979 
-0.0 8192.0 0.0 8192.0 1:0.0028011202812194824 2:0.9444444179534912 3:0.4941176474094391 
-0.0 8192.0 0.0 8192.0 1:0.0013333359966054559 2:0.9541984796524048 3:0.5137255191802979 
-0.0 0.0 8192.0 8192.0 1:0.9985755085945129 2:0.9590163826942444 3:0.47843137383461 
-0.0 8192.0 0.0 8192.0 1:0.006472488399595022 2:0.9809523820877075 3:0.4117647111415863 
-0.0 8192.0 0.0 8192.0 1:0.003367006778717041 2:1.0 3:0.38823530077934265 
-0.0 8192.0 0.0 8192.0 1:0.0 2:1.0 3:0.3803921639919281 
-0.0 8192.0 0.0 8192.0 1:0.0025641026441007853 2:0.9701492786407471 3:0.5254902243614197 
-0.0 8192.0 0.0 8192.0 1:0.001165499328635633 2:0.9930555820465088 3:0.5647059082984924 
-0.0 8192.0 0.0 8192.0 1:0.005279034376144409 2:0.960869550704956 3:0.9019607901573181 
-0.0 8192.0 0.0 8192.0 1:0.005279034376144409 2:0.960869550704956 3:0.9019607901573181 
-0.0 8192.0 0.0 8192.0 1:0.0014005601406097412 2:0.9794238805770874 3:0.9529411792755127 
-0.0 8192.0 8192.0 8192.0 1:0.9950690269470215 2:0.7788018584251404 3:0.8509804010391235 
-0.0 8192.0 0.0 8192.0 1:0.0 2:0.9517543911933899 3:0.8941176533699036 
-0.0 8192.0 8192.0 8192.0 1:0.010658909566700459 2:0.8309178948402405 3:0.8117647171020508 
-0.0 8192.0 8192.0 8192.0 1:0.0 2:0.7788461446762085 3:0.8156862854957581 
-0.0 8192.0 0.0 8192.0 1:0.0010893245926126838 2:1.0 3:0.6000000238418579 
-0.0 8192.0 0.0 8192.0 1:0.002192984102293849 2:1.0 3:0.5960784554481506 
-0.0 0.0 8192.0 8192.0 1:0.996835470199585 2:0.987500011920929 3:0.6274510025978088 
-0.0 8192.0 8192.0 8192.0 1:0.0015949010848999023 2:0.9457013607025146 3:0.8666666746139526 
-0.0 8192.0 0.0 8192.0 1:0.0032520294189453125 2:0.980861246585846 3:0.8196078538894653 
-0.0 8192.0 0.0 8192.0 1:0.002325584413483739 2:0.9684684872627258 3:0.8705882430076599 
-0.0 8192.0 0.0 8192.0 1:0.003987242933362722 2:0.9720930457115173 3:0.843137264251709 
-0.0 8192.0 0.0 8192.0 1:0.0024154584389179945 2:0.9583333134651184 3:0.8470588326454163 
-0.0 8192.0 0.0 8192.0 1:8.130073547363281E-4 2:0.9534883499145508 3:0.843137264251709 
-0.0 8192.0 0.0 8192.0 1:8.503397111780941E-4 2:0.9245283007621765 3:0.8313725590705872 
-0.0 8192.0 0.0 8192.0 1:0.0 2:0.9257143139839172 3:0.686274528503418 
-0.0 0.0 8192.0 8192.0 1:0.9938271641731262 2:0.9585798978805542 3:0.6627451181411743 
-0.0 8192.0 0.0 8192.0 1:0.0 2:1.0 3:0.615686297416687 
-0.0 8192.0 0.0 8192.0 1:0.0 2:1.0 3:0.615686297416687 
-0.0 8192.0 0.0 8192.0 1:0.0 2:0.9509202241897583 3:0.6392157077789307 
-0.0 8192.0 0.0 8192.0 1:0.0010893245926126838 2:0.9807692170143127 3:0.6117647290229797 
-0.0 8192.0 0.0 8192.0 1:0.0020576119422912598 2:1.0 3:0.6352941393852234 
-0.0 8192.0 8192.0 8192.0 1:0.0036429862957447767 2:0.9838709831237793 3:0.729411780834198 
-0.0 8192.0 0.0 8192.0 1:0.0 2:1.0 3:0.7450980544090271 
-0.0 8192.0 0.0 8192.0 1:7.002850179560483E-4 2:0.9754098653793335 3:0.95686274766922 
-0.0 8192.0 8192.0 8192.0 1:0.009103645570576191 2:0.9834710955619812 3:0.9490196108818054 
-0.0 8192.0 8192.0 8192.0 1:0.0027322371024638414 2:0.9760000109672546 3:0.9803921580314636 
-0.0 8192.0 8192.0 8192.0 1:0.0027322371024638414 2:0.9760000109672546 3:0.9803921580314636 
-0.0 8192.0 8192.0 8192.0 1:0.00902777910232544 2:0.9958506226539612 3:0.9450980424880981 
-0.0 8192.0 0.0 0.0 1:0.00476190447807312 2:0.9959349632263184 3:0.9647058844566345 
-0.0 8192.0 0.0 8192.0 1:0.004739334341138601 2:0.9419642686843872 3:0.8784313797950745 
-0.0 8192.0 0.0 8192.0 1:0.004739334341138601 2:0.9419642686843872 3:0.8784313797950745 
-0.0 8192.0 0.0 8192.0 1:0.004184097051620483 2:0.9795082211494446 3:0.95686274766922 
-0.0 8192.0 0.0 8192.0 1:8.680522441864014E-4 2:0.9696969985961914 3:0.7764706015586853 
-0.0 8192.0 0.0 8192.0 1:0.0035460989456623793 2:0.9740932583808899 3:0.7568627595901489 
-0.0 8192.0 0.0 8192.0 1:0.001736114383675158 2:0.9948186278343201 3:0.7568627595901489 
-0.0 8192.0 0.0 8192.0 1:0.0 2:1.0 3:0.6000000238418579 
-0.0 8192.0 0.0 8192.0 1:0.0 2:0.9822485446929932 3:0.6627451181411743 
-0.0 8192.0 0.0 334.73598608507734 1:0.0013605455169454217 2:0.9839357137680054 3:0.9764705896377563 
-0.0 8192.0 8192.0 8192.0 1:0.004662007093429565 2:0.7333333492279053 3:0.7647058963775635 
-0.0 8192.0 8192.0 8192.0 1:0.9893617033958435 2:0.6527777910232544 3:0.2823529541492462 
-0.0 8192.0 8192.0 8192.0 1:0.9893617033958435 2:0.6527777910232544 3:0.2823529541492462 
-0.0 8192.0 8192.0 8192.0 1:0.9848484992980957 2:0.6707317233085632 3:0.32156863808631897 
-0.0 0.0 8192.0 8192.0 1:0.9907407164573669 2:0.7297297120094299 3:0.29019609093666077 
-0.0 0.0 8192.0 8192.0 1:0.9912281036376953 2:0.6129032373428345 3:0.12156862765550613 
-0.0 8192.0 8192.0 8192.0 1:0.020467838272452354 2:0.5699999928474426 3:0.3921568691730499 
-0.0 8192.0 8192.0 8192.0 1:0.0025641026441007853 2:0.9027777910232544 3:0.8470588326454163 
-0.0 8192.0 0.0 8192.0 1:0.0 2:1.0 3:0.5882353186607361 
-0.0 8192.0 0.0 8192.0 1:9.416242246516049E-4 2:0.9779005646705627 3:0.7098039388656616 
-0.0 8192.0 8192.0 8192.0 1:0.0052083334885537624 2:0.991150438785553 3:0.886274516582489 
-0.0 8192.0 8192.0 8192.0 1:0.009929080493748188 2:0.9873949289321899 3:0.9333333373069763 
-0.0 8192.0 0.0 8192.0 1:0.002380957128480077 2:0.9333333373069763 3:0.8823529481887817 
-0.0 8192.0 0.0 8192.0 1:0.002380957128480077 2:0.9333333373069763 3:0.8823529481887817 
-37.481520507869284 8192.0 8192.0 8192.0 1:0.9947916865348816 2:0.41025641560554504 3:0.30588236451148987 
-0.0 0.0 8192.0 8192.0 1:0.9885844588279724 2:0.8202247023582458 3:0.3490196168422699 
-0.0 8192.0 8192.0 8192.0 1:0.0012077292194589972 2:0.650943398475647 3:0.8313725590705872 
-0.0 8192.0 8192.0 8192.0 1:0.9967105388641357 2:0.7203791737556458 3:0.8274509906768799 
-0.0 8192.0 8192.0 8192.0 1:0.9979550242424011 2:0.7117903828620911 3:0.8980392217636108 
-0.0 8192.0 0.0 0.0 1:0.003999998327344656 2:0.9960159659385681 3:0.9843137264251709 
-0.0 8192.0 8192.0 8192.0 1:0.00413223123177886 2:0.9679999947547913 3:0.9803921580314636 
-0.0 8192.0 0.0 8192.0 1:0.0 2:1.0 3:0.5647059082984924 
-0.0 8192.0 8192.0 0.0 1:0.005420058965682983 2:0.9919354915618896 3:0.9725490212440491 
-0.0 8192.0 8192.0 0.0 1:0.005442172288894653 2:0.9919028282165527 3:0.9686274528503418 
-0.0 8192.0 0.0 8192.0 1:0.0 2:0.9714285731315613 3:0.9607843160629272 
-0.0 0.0 8192.0 0.0 1:0.9986394643783569 2:0.9722222089767456 3:0.9882352948188782 
-0.0 8192.0 0.0 8192.0 1:0.004820933099836111 2:0.9837398529052734 3:0.9647058844566345 
-0.0 8192.0 8192.0 8192.0 1:0.004820933099836111 2:0.9797570705413818 3:0.9686274528503418 
-0.0 8192.0 8192.0 8192.0 1:0.004820933099836111 2:0.9797570705413818 3:0.9686274528503418 
-0.0 8192.0 0.0 8192.0 1:0.004820933099836111 2:0.9837398529052734 3:0.9647058844566345 
-0.0 8192.0 8192.0 8192.0 1:0.010833333246409893 2:0.9756097793579102 3:0.8039215803146362 
-0.0 8192.0 0.0 8192.0 1:0.0026595790404826403 2:1.0 3:0.7372549176216125 
-0.0 8192.0 0.0 8192.0 1:7.507503032684326E-4 2:0.9406779408454895 3:0.9254902005195618 
-0.0 8192.0 0.0 8192.0 1:0.0013831257820129395 2:0.9757084846496582 3:0.9686274528503418 
-0.0 8192.0 0.0 8192.0 1:8.012850885279477E-4 2:0.9585253596305847 3:0.8509804010391235 
-0.0 8192.0 0.0 8192.0 1:0.004651159048080444 2:0.9907833933830261 3:0.8509804010391235 
-0.0 8192.0 0.0 8192.0 1:0.004651159048080444 2:0.9907833933830261 3:0.8509804010391235 
-0.0 8192.0 0.0 8192.0 1:0.004651159048080444 2:0.9907833933830261 3:0.8509804010391235 
-0.0 8192.0 0.0 8192.0 1:0.003115266328677535 2:0.9816513657569885 3:0.8549019694328308 
-0.0 8192.0 8192.0 8192.0 1:0.00625977898016572 2:0.9770641922950745 3:0.8549019694328308 
-0.0 8192.0 0.0 8192.0 1:8.250872488133609E-4 2:0.9395349025726318 3:0.843137264251709 
-0.0 0.0 8192.0 0.0 1:0.9992175102233887 2:0.9861111044883728 3:0.8470588326454163 
-0.0 8192.0 8192.0 8192.0 1:0.007894734852015972 2:0.9693877696990967 3:0.7686274647712708 
-0.0 8192.0 8192.0 8192.0 1:0.007894734852015972 2:0.9693877696990967 3:0.7686274647712708 
-0.0 8192.0 8192.0 8192.0 1:0.007894734852015972 2:0.9693877696990967 3:0.7686274647712708 
-0.0 8192.0 8192.0 8192.0 1:0.007894734852015972 2:0.9693877696990967 3:0.7686274647712708 
-0.0 0.0 8192.0 8192.0 1:0.9971591234207153 2:0.9263157844543457 3:0.7450980544090271 
-0.0 0.0 8192.0 8192.0 1:0.9971591234207153 2:0.9263157844543457 3:0.7450980544090271 
-0.0 0.0 8192.0 8192.0 1:0.989130437374115 2:0.9857142567634583 3:0.5490196347236633 
-0.0 8192.0 0.0 8192.0 1:0.0 2:0.9520000219345093 3:0.4901960790157318 
-0.0 8192.0 0.0 8192.0 1:0.003676474094390869 2:0.9927007555961609 3:0.5372549295425415 
-0.0 8192.0 0.0 8192.0 1:0.003676474094390869 2:0.9927007555961609 3:0.5372549295425415 
-0.0 8192.0 0.0 8192.0 1:0.003676474094390869 2:0.9927007555961609 3:0.5372549295425415 
-0.0 8192.0 0.0 8192.0 1:0.003676474094390869 2:0.9927007555961609 3:0.5372549295425415 
-0.0 8192.0 0.0 8192.0 1:0.003676474094390869 2:0.9927007555961609 3:0.5372549295425415 
-0.0 8192.0 0.0 8192.0 1:0.003676474094390869 2:0.9927007555961609 3:0.5372549295425415 
-0.0 8192.0 0.0 8192.0 1:0.003676474094390869 2:0.9927007555961609 3:0.5372549295425415 
-0.0 8192.0 0.0 8192.0 1:0.003676474094390869 2:0.9927007555961609 3:0.5372549295425415 
-0.0 8192.0 0.0 8192.0 1:0.003676474094390869 2:0.9927007555961609 3:0.5372549295425415 
-0.0 -8192.0 0.0 0.0 1:0.008474578149616718 2:1.0 3:0.4627451002597809 
-0.0 -8192.0 0.0 0.0 1:0.01262626051902771 2:0.9924812316894531 3:0.5215686559677124 
-0.0 -8192.0 0.0 0.0 1:0.03981481119990349 2:0.9836065769195557 3:0.7176470756530762 
-0.0 -8192.0 0.0 0.0 1:0.06456456333398819 2:0.891566276550293 3:0.9764705896377563 
-0.0 -8192.0 0.0 8192.0 1:0.0714285671710968 2:0.9333333373069763 3:0.8823529481887817 
-0.0 -8192.0 0.0 0.0 1:0.07087227702140808 2:0.869918704032898 3:0.9647058844566345 
-0.0 -8192.0 0.0 8192.0 1:0.06996855139732361 2:0.9257642030715942 3:0.8980392217636108 
-0.0 -8192.0 0.0 0.0 1:0.03312629461288452 2:0.987730085849762 3:0.6392157077789307 
-0.0 -8192.0 0.0 0.0 1:0.056737590581178665 2:0.9915611743927002 3:0.929411768913269 
-0.0 -8192.0 0.0 0.0 1:0.06339031457901001 2:0.9397590160369873 3:0.9764705896377563 
-0.0 -8192.0 0.0 0.0 1:0.06339031457901001 2:0.9397590160369873 3:0.9764705896377563 
-0.0 -8192.0 0.0 0.0 1:0.06465517729520798 2:0.9789029359817505 3:0.929411768913269 
-0.0 -8192.0 0.0 8192.0 1:0.07203390449285507 2:0.9672130942344666 3:0.95686274766922 
-0.0 -8192.0 0.0 8192.0 1:0.07359307259321213 2:0.9788135886192322 3:0.9254902005195618 
-0.0 -8192.0 0.0 0.0 1:0.06565656512975693 2:0.9203187227249146 3:0.9843137264251709 
-0.0 -8192.0 0.0 0.0 1:0.03125 2:0.9670329689979553 3:0.7137255072593689 
-0.0 -8192.0 0.0 0.0 1:0.03170289471745491 2:0.9892473220825195 3:0.729411780834198 
-0.0 -8192.0 0.0 0.0 1:0.036723166704177856 2:0.9943820238113403 3:0.6980392336845398 
-0.0 -8192.0 0.0 0.0 1:0.01075268816202879 2:0.96875 3:0.501960813999176 
-0.0 -8192.0 0.0 0.0 1:0.008838385343551636 2:1.0 3:0.5176470875740051 
-0.0 -8192.0 0.0 0.0 1:0.010416666977107525 2:0.9846153855323792 3:0.5098039507865906 
-0.0 -8192.0 0.0 0.0 1:0.008333335630595684 2:0.9929078221321106 3:0.5529412031173706 
-0.0 -8192.0 0.0 0.0 1:0.002398083684965968 2:1.0 3:0.545098066329956 
-0.0 -8192.0 0.0 0.0 1:0.002398083684965968 2:1.0 3:0.545098066329956 
-0.0 -8192.0 0.0 0.0 1:0.0 2:0.9375 3:0.501960813999176 
-0.0 -8192.0 0.0 0.0 1:0.00907029677182436 2:0.9865771532058716 3:0.5843137502670288 
-0.0 -8192.0 0.0 0.0 1:0.043478261679410934 2:0.9465020298957825 3:0.9529411792755127 
-0.0 -8192.0 0.0 0.0 1:0.05747126415371895 2:0.9392712712287903 3:0.9686274528503418 
-0.0 -8192.0 0.0 0.0 1:0.0714285671710968 2:0.9428571462631226 3:0.9607843160629272 
-0.0 -8192.0 0.0 8192.0 1:0.072592593729496 2:0.949367105960846 3:0.929411768913269 
-0.0 -8192.0 0.0 0.0 1:0.06540084630250931 2:0.9713114500045776 3:0.95686274766922 
-0.0 -8192.0 0.0 8192.0 1:0.07391911000013351 2:0.9755101799964905 3:0.9607843160629272 
-0.0 -8192.0 0.0 8192.0 1:0.07374631613492966 2:0.93388432264328 3:0.9490196108818054 
-0.0 -8192.0 0.0 0.0 1:0.06624826043844223 2:0.9372549057006836 3:1.0 
-0.0 -8192.0 0.0 0.0 1:0.059574466198682785 2:0.9832636117935181 3:0.9372549057006836 
-0.0 -0.0 8192.0 8192.0 1:0.08227848261594772 2:0.7181817889213562 3:0.8627451062202454 
-0.0 -0.0 8192.0 226.60335934692188 1:0.08057395368814468 2:0.6711111068725586 3:0.8823529481887817 
-0.0 -8192.0 0.0 0.0 1:0.06574923545122147 2:0.9356223344802856 3:0.9137254953384399 
-0.0 -8192.0 0.0 0.0 1:0.06904762238264084 2:0.8786610960960388 3:0.9372549057006836 
-0.0 -8192.0 0.0 0.0 1:0.061274509876966476 2:0.8986784219741821 3:0.8901960849761963 
-0.0 -8192.0 0.0 0.0 1:0.005747129675000906 2:0.9830508232116699 3:0.4627451002597809 
-0.0 -8192.0 0.0 0.0 1:0.013245035894215107 2:1.0 3:0.5921568870544434 
-0.0 -8192.0 0.0 0.0 1:0.020000001415610313 2:1.0 3:0.5882353186607361 
-0.0 -8192.0 0.0 0.0 1:0.00821596384048462 2:1.0 3:0.5568627715110779 
-0.0 -8192.0 0.0 0.0 1:0.012304246425628662 2:0.9612902998924255 3:0.6078431606292725 
-0.0 -8192.0 0.0 0.0 1:0.013095240108668804 2:1.0 3:0.5490196347236633 
-0.0 -8192.0 0.0 0.0 1:0.04932735487818718 2:0.9176954627037048 3:0.9529411792755127 
-0.0 -8192.0 0.0 0.0 1:0.03666667267680168 2:0.9852216839790344 3:0.7960784435272217 
-0.0 -8192.0 0.0 0.0 1:0.01742919348180294 2:0.9329268336296082 3:0.6431372761726379 
-0.0 -8192.0 0.0 0.0 1:0.06467661261558533 2:0.8481012582778931 3:0.929411768913269 
-0.0 -8192.0 0.0 0.0 1:0.06852791458368301 2:0.8382978439331055 3:0.9215686321258545 
-0.0 -8192.0 0.0 0.0 1:0.06808510422706604 2:0.9437751173973083 3:0.9764705896377563 
-0.0 -8192.0 0.0 0.0 1:0.06956521421670914 2:0.9126983880996704 3:0.9882352948188782 
-0.0 -8192.0 1529.3181756166919 8192.0 1:0.08438818901777267 2:0.929411768913269 3:1.0 
-0.0 -8192.0 0.0 8192.0 1:0.06711915135383606 2:0.9822221994400024 3:0.8823529481887817 
-0.0 -8192.0 0.0 0.0 1:0.06565656512975693 2:0.9624999761581421 3:0.9411764740943909 
-0.0 -8192.0 0.0 0.0 1:0.04691876843571663 2:0.9754098653793335 3:0.95686274766922 
-0.0 -8192.0 0.0 0.0 1:0.06578946858644485 2:0.9011857509613037 3:0.9921568632125854 
-0.0 -8192.0 0.0 0.0 1:0.05150214955210686 2:0.9246031641960144 3:0.9882352948188782 
-0.0 -8192.0 0.0 0.0 1:0.049929678440093994 2:0.9595141410827637 3:0.9686274528503418 
-0.0 -8192.0 8192.0 8192.0 1:0.08548850566148758 2:0.9098039269447327 3:1.0 
-0.0 -8192.0 0.0 8192.0 1:0.07681158930063248 2:0.9055117964744568 3:0.9960784316062927 
-0.0 -8192.0 0.0 0.0 1:0.04430379346013069 2:0.9518072009086609 3:0.9764705896377563 
-0.0 -8192.0 8192.0 8192.0 1:0.9971751570701599 2:0.9440000057220459 3:0.9803921580314636 
-0.0 -8192.0 8192.0 8192.0 1:0.9971751570701599 2:0.9440000057220459 3:0.9803921580314636 
-0.0 -8192.0 0.0 0.0 1:0.039215683937072754 2:0.9484978318214417 3:0.9137254953384399 
-0.0 -8192.0 0.0 8192.0 1:0.06827309727668762 2:0.7477477192878723 3:0.43529412150382996 
-0.0 -8192.0 0.0 8192.0 1:0.06995884329080582 2:0.7297297120094299 3:0.43529412150382996 
-0.0 -8192.0 0.0 8192.0 1:0.07872340083122253 2:0.9362549781799316 3:0.9843137264251709 
-0.0 -8192.0 0.0 0.0 1:0.05306427553296089 2:0.899193525314331 3:0.9725490212440491 
-0.0 -8192.0 0.0 0.0 1:0.05306427553296089 2:0.899193525314331 3:0.9725490212440491 
-0.0 -8192.0 0.0 0.0 1:0.05306427553296089 2:0.899193525314331 3:0.9725490212440491 
-0.0 -8192.0 0.0 0.0 1:0.05925925448536873 2:0.9336099624633789 3:0.9450980424880981 
-0.0 -8192.0 0.0 0.0 1:0.07276994735002518 2:0.8452380895614624 3:0.9882352948188782 
-0.0 -8192.0 0.0 0.0 1:0.06449275463819504 2:0.931174099445343 3:0.9686274528503418 
-0.0 -8192.0 0.0 0.0 1:0.028888890519738197 2:0.9740259647369385 3:0.6039215922355652 
-0.0 -8192.0 0.0 0.0 1:0.02499999664723873 2:0.9756097793579102 3:0.6431372761726379 
-0.0 -8192.0 0.0 0.0 1:0.049593497067689896 2:0.9234234094619751 3:0.8705882430076599 
-0.0 -8192.0 0.0 0.0 1:0.049593497067689896 2:0.9234234094619751 3:0.8705882430076599 
-0.0 -8192.0 0.0 0.0 1:0.058252424001693726 2:0.9363636374473572 3:0.8627451062202454 
-0.0 -8192.0 0.0 0.0 1:0.04750402644276619 2:0.9409090876579285 3:0.8627451062202454 
-0.0 -8192.0 0.0 0.0 1:0.054471541196107864 2:0.9151785969734192 3:0.8784313797950745 
-0.0 -8192.0 0.0 0.0 1:0.0584518201649189 2:0.9055793881416321 3:0.9137254953384399 
-0.0 -8192.0 0.0 0.0 1:0.06521739810705185 2:0.9623430967330933 3:0.9372549057006836 
-0.0 -8192.0 0.0 0.0 1:0.05982905626296997 2:0.9359999895095825 3:0.9803921580314636 
-0.0 -8192.0 0.0 8192.0 1:0.06998556852340698 2:0.9746835231781006 3:0.929411768913269 
-0.0 -8192.0 0.0 0.0 1:0.07059679180383682 2:0.9051383137702942 3:0.9921568632125854 
-0.0 -8192.0 0.0 0.0 1:0.06331878155469894 2:0.9233871102333069 3:0.9725490212440491 
-0.0 -8192.0 0.0 0.0 1:0.012820512056350708 2:0.9811320900917053 3:0.6235294342041016 
-0.0 -8192.0 0.0 0.0 1:0.029523810371756554 2:1.0 3:0.686274528503418 
-0.0 -8192.0 0.0 4703.513335262043 1:0.06915628910064697 2:0.9877049326896667 3:0.95686274766922 
-0.0 -8192.0 0.0 0.0 1:0.050724636763334274 2:0.9465020298957825 3:0.9529411792755127 
-0.0 -8192.0 0.0 0.0 1:0.06329113990068436 2:0.9634146094322205 3:0.9647058844566345 
-0.0 -8192.0 0.0 0.0 1:0.06666666269302368 2:0.9561753273010254 3:0.9843137264251709 
-0.0 -8192.0 0.0 0.0 1:0.0498511902987957 2:0.9491525292396545 3:0.9254902005195618 
-0.0 -8192.0 0.0 0.0 1:0.05994151905179024 2:0.9230769276618958 3:0.9686274528503418 
-0.0 -8192.0 0.0 0.0 1:0.0558035671710968 2:0.9655172228813171 3:0.9098039269447327 
-0.0 -8192.0 0.0 0.0 1:0.05603448674082756 2:0.9430894255638123 3:0.9647058844566345 
-0.0 -8192.0 0.0 0.0 1:0.05383480712771416 2:0.9186992049217224 3:0.9647058844566345 
-0.0 -8192.0 0.0 0.0 1:0.05383480712771416 2:0.9186992049217224 3:0.9647058844566345 
-0.0 -8192.0 0.0 0.0 1:0.06014493107795715 2:0.9200000166893005 3:0.9803921580314636 
-0.0 -8192.0 0.0 0.0 1:0.06896551698446274 2:0.9392712712287903 3:0.9686274528503418 
-0.0 -8192.0 8192.0 8192.0 1:0.9947643876075745 2:0.9502487778663635 3:0.7882353067398071 
-0.0 -8192.0 8192.0 8192.0 1:0.9947643876075745 2:0.9502487778663635 3:0.7882353067398071 
-0.0 -8192.0 8192.0 8192.0 1:0.9947643876075745 2:0.9502487778663635 3:0.7882353067398071 
-0.0 -8192.0 8192.0 8192.0 1:0.9947643876075745 2:0.9502487778663635 3:0.7882353067398071 
-0.0 -8192.0 8192.0 8192.0 1:0.9991748929023743 2:0.9805825352668762 3:0.8078431487083435 
-0.0 -8192.0 8192.0 8192.0 1:0.9986772537231445 2:0.9333333373069763 3:0.529411792755127 
-0.0 -8192.0 0.0 0.0 1:0.020430108532309532 2:0.9748427867889404 3:0.6235294342041016 
-0.0 -8192.0 0.0 0.0 1:0.015350878238677979 2:0.9934640526771545 3:0.6000000238418579 
-0.0 -8192.0 0.0 0.0 1:0.015258212573826313 2:0.9594594836235046 3:0.5803921818733215 
-0.0 -8192.0 0.0 0.0 1:0.06535947322845459 2:0.8429751992225647 3:0.9490196108818054 
-0.0 -8192.0 0.0 0.0 1:0.06790123134851456 2:0.8744939565658569 3:0.9686274528503418 
-0.0 -8192.0 0.0 0.0 1:0.06489675492048264 2:0.89682537317276 3:0.9882352948188782 
-0.0 -8192.0 0.0 0.0 1:0.04971988871693611 2:0.9520000219345093 3:0.9803921580314636 
-0.0 -8192.0 0.0 0.0 1:0.008045981638133526 2:1.0 3:0.5686274766921997 
-0.0 -8192.0 0.0 0.0 1:0.006459951400756836 2:1.0 3:0.5058823823928833 
-0.0 -8192.0 0.0 0.0 1:0.006459951400756836 2:1.0 3:0.5058823823928833 
-0.0 -3135.6416659026245 0.0 0.0 1:0.010563383810222149 2:0.9466666579246521 3:0.5882353186607361 
-0.0 -8192.0 0.0 0.0 1:0.012643675319850445 2:0.9797297120094299 3:0.5803921818733215 
-0.0 -8192.0 0.0 0.0 1:0.007874011993408203 2:0.9694656729698181 3:0.5137255191802979 
-0.0 -8192.0 0.0 0.0 1:0.017031630501151085 2:0.9785714149475098 3:0.5490196347236633 
-0.0 -8192.0 0.0 0.0 1:0.015815088525414467 2:0.9927536249160767 3:0.5411764979362488 
-0.0 -8192.0 0.0 0.0 1:0.0013774136314168572 2:0.9837398529052734 3:0.48235294222831726 
-0.0 -8192.0 0.0 0.0 1:0.004464288707822561 2:0.9824561476707458 3:0.4470588266849518 
-0.0 -8192.0 0.0 0.0 1:0.005910167936235666 2:1.0 3:0.5529412031173706 
-0.0 -8192.0 0.0 0.0 1:0.0067114136181771755 2:0.9933333396911621 3:0.5882353186607361 
-0.0 -8190.829272634413 0.0 0.0 1:0.0020576119422912598 2:1.0 3:0.6352941393852234 
-0.0 -8192.0 0.0 0.0 1:0.01369862724095583 2:0.9931972622871399 3:0.5764706134796143 
-0.0 -8192.0 0.0 0.0 1:0.021990736946463585 2:0.9931034445762634 3:0.5686274766921997 
-0.0 -8192.0 0.0 0.0 1:0.053921569138765335 2:0.9875518679618835 3:0.9450980424880981 
-0.0 -8192.0 0.0 0.0 1:0.07266982644796371 2:0.8719007968902588 3:0.9490196108818054 
-0.0 -8192.0 0.0 0.0 1:0.06709956377744675 2:0.9788135886192322 3:0.9254902005195618 
-0.0 -8192.0 0.0 0.0 1:0.060471970587968826 2:0.8897637724876404 3:0.9960784316062927 
-0.0 -8192.0 0.0 8192.0 1:0.06365740299224854 2:0.8135592937469482 3:0.6941176652908325 
-0.0 -8192.0 0.0 0.0 1:0.0011737048625946045 2:1.0 3:0.5568627715110779 
-0.0 -8192.0 0.0 0.0 1:0.06000000238418579 2:0.8547008633613586 3:0.9176470637321472 
-0.0 -8192.0 0.0 0.0 1:0.0555555522441864 2:0.9279661178588867 3:0.9254902005195618 
-0.0 -8192.0 0.0 0.0 1:0.017382413148880005 2:0.9819276928901672 3:0.6509804129600525 
-0.0 -8192.0 0.0 0.0 1:0.016666671261191368 2:0.9929078221321106 3:0.5529412031173706 
-0.0 -8192.0 0.0 0.0 1:0.035580527037382126 2:0.9319371581077576 3:0.7490196228027344 
-0.0 -8192.0 0.0 0.0 1:0.03350970149040222 2:0.9545454382896423 3:0.7764706015586853 
-0.0 -8192.0 0.0 0.0 1:0.045454543083906174 2:0.93034827709198 3:0.7882353067398071 
-0.0 -3168.6314674256005 0.0 0.0 1:0.04432624578475952 2:0.8826290965080261 3:0.8352941274642944 
-0.0 -8192.0 0.0 0.0 1:0.014084507711231709 2:0.9930070042610168 3:0.5607843399047852 
-0.0 -8192.0 0.0 0.0 1:0.06563422083854675 2:0.9262295365333557 3:0.95686274766922 
-0.0 -8192.0 8192.0 8192.0 1:0.07692307233810425 2:0.625 3:0.40784314274787903 
-0.0 -8192.0 0.0 0.0 1:0.0634218230843544 2:0.9456067085266113 3:0.9372549057006836 
-0.0 -8192.0 0.0 0.0 1:0.07249626517295837 2:0.8814229369163513 3:0.9921568632125854 
-0.0 -8192.0 0.0 8192.0 1:0.07249626517295837 2:0.9176954627037048 3:0.9529411792755127 
-0.0 -8192.0 0.0 0.0 1:0.05246913433074951 2:0.9818181991577148 3:0.8627451062202454 
-0.0 -8192.0 0.0 0.0 1:0.06184011697769165 2:0.9484978318214417 3:0.9137254953384399 
-0.0 -8192.0 0.0 0.0 1:0.06269112974405289 2:0.8790322542190552 3:0.9725490212440491 
-0.0 -8192.0 0.0 0.0 1:0.02415459416806698 2:1.0 3:0.5411764979362488 
-0.0 -8192.0 0.0 0.0 1:0.02222222089767456 2:1.0 3:0.529411792755127 
-0.0 -8192.0 0.0 0.0 1:0.034909915179014206 2:0.9367088675498962 3:0.6196078658103943 
-0.0 -8192.0 0.0 0.0 1:0.01369862724095583 2:1.0 3:0.572549045085907 
-0.0 -8192.0 0.0 0.0 1:0.020000001415610313 2:0.9933775067329407 3:0.5921568870544434 
-0.0 -8192.0 0.0 0.0 1:0.04029303789138794 2:0.9430052042007446 3:0.7568627595901489 
-0.0 -8192.0 0.0 8192.0 1:0.0847107395529747 2:0.975806474685669 3:0.9725490212440491 
-13.64283733376376 -8192.0 8192.0 8192.0 1:0.08838383108377457 2:0.6000000238418579 3:0.4313725531101227 
-0.0 -8192.0 0.0 0.0 1:0.03532009199261665 2:0.9617834687232971 3:0.615686297416687 
-0.0 -8192.0 0.0 0.0 1:0.03401361033320427 2:0.8963414430618286 3:0.6431372761726379 
-0.0 -8192.0 0.0 0.0 1:0.054794520139694214 2:0.9201680421829224 3:0.9333333373069763 
-0.0 -8192.0 0.0 0.0 1:0.058695655316114426 2:0.9913793206214905 3:0.9098039269447327 
-0.0 -8192.0 0.0 0.0 1:0.05982905626296997 2:0.9322709441184998 3:0.9843137264251709 
-0.0 -8192.0 0.0 0.0 1:0.06903765350580215 2:0.9676113128662109 3:0.9686274528503418 
-0.0 -8192.0 0.0 0.0 1:0.059670787304639816 2:0.9959016442298889 3:0.95686274766922 
-0.0 -8192.0 0.0 0.0 1:0.061549097299575806 2:0.9488189220428467 3:0.9960784316062927 
-0.0 -8192.0 0.0 0.0 1:0.061549097299575806 2:0.9488189220428467 3:0.9960784316062927 
-0.0 -8192.0 0.0 0.0 1:0.06314244121313095 2:0.9869565367698669 3:0.9019607901573181 
-0.0 -8192.0 0.0 8192.0 1:0.0764462873339653 2:0.9718875288963318 3:0.9764705896377563 
-0.0 -8192.0 0.0 0.0 1:0.061042528599500656 2:0.9759036302566528 3:0.9764705896377563 
-0.0 -8192.0 0.0 0.0 1:0.05038760229945183 2:0.9885057210922241 3:0.6823529601097107 
-0.0 -8192.0 0.0 8192.0 1:0.06782945990562439 2:0.7413793206214905 3:0.45490196347236633 
-0.0 -8192.0 0.0 0.0 1:0.06896551698446274 2:0.849372386932373 3:0.9372549057006836 
-0.0 -8192.0 0.0 0.0 1:0.0033783812541514635 2:0.9866666793823242 3:0.5882353186607361 
-0.0 -527.1765769209997 0.0 0.0 1:0.026722928509116173 2:0.9957982897758484 3:0.9333333373069763 
-0.0 -8192.0 0.0 0.0 1:0.036549706012010574 2:0.9956331849098206 3:0.8980392217636108 
-0.0 -8192.0 0.0 0.0 1:0.05602836608886719 2:0.9631147384643555 3:0.95686274766922 
-0.0 -8192.0 0.0 8192.0 1:0.0760233923792839 2:0.9083665609359741 3:0.9843137264251709 
-0.0 -8192.0 0.0 8192.0 1:0.0765957459807396 2:0.9362549781799316 3:0.9843137264251709 
-0.0 -8192.0 0.0 0.0 1:0.06576979905366898 2:0.9529914259910583 3:0.9176470637321472 
-0.0 -8192.0 0.0 0.0 1:0.06867671757936478 2:0.8844444155693054 3:0.8823529481887817 
-0.0 -8192.0 0.0 8192.0 1:0.06862744688987732 2:0.8500000238418579 3:0.0784313753247261 
-0.0 -8192.0 0.0 8192.0 1:0.06698564440011978 2:0.9372197389602661 3:0.8745098114013672 
-0.0 -8192.0 0.0 8192.0 1:0.07768362015485764 2:0.9672130942344666 3:0.95686274766922 
-0.0 -8192.0 0.0 0.0 1:0.06092436984181404 2:0.9520000219345093 3:0.9803921580314636 
-0.0 -8192.0 0.0 0.0 1:0.05701754614710808 2:0.9785407781600952 3:0.9137254953384399 
-0.0 -8192.0 0.0 0.0 1:0.059370528906583786 2:0.9471544623374939 3:0.9647058844566345 
-0.0 -8192.0 0.0 0.0 1:0.053191494196653366 2:0.9552845358848572 3:0.9647058844566345 
-0.0 -8192.0 0.0 0.0 1:0.058908045291900635 2:1.0 3:0.9098039269447327 
-0.0 -8192.0 0.0 0.0 1:0.019166668877005577 2:1.0 3:0.7843137383460999 
-0.0 -8192.0 0.0 0.0 1:0.055084746330976486 2:0.9440000057220459 3:0.9803921580314636 
-0.0 -8192.0 0.0 0.0 1:0.052521008998155594 2:0.9958158731460571 3:0.9372549057006836 
-0.0 -8192.0 0.0 0.0 1:0.06736110895872116 2:0.9411764740943909 3:1.0 
-0.0 -8192.0 0.0 0.0 1:0.04700854420661926 2:1.0 3:0.9176470637321472 
-0.0 -8192.0 0.0 0.0 1:0.05676855519413948 2:0.9015747904777527 3:0.9960784316062927 
-0.0 -8192.0 0.0 0.0 1:0.05416666343808174 2:0.9958506226539612 3:0.9450980424880981 
-0.0 -8192.0 0.0 8192.0 1:0.06723891943693161 2:0.995726466178894 3:0.9176470637321472 
-0.0 -8192.0 0.0 0.0 1:0.06221197918057442 2:0.9644444584846497 3:0.8823529481887817 
-0.0 -8192.0 0.0 0.0 1:0.057203393429517746 2:0.9672130942344666 3:0.95686274766922 
-0.0 -8192.0 0.0 0.0 1:0.06072874739766121 2:0.9724409580230713 3:0.9960784316062927 
-0.0 -8192.0 0.0 0.0 1:0.06072874739766121 2:0.9724409580230713 3:0.9960784316062927 
-0.0 -8192.0 0.0 0.0 1:0.0625879094004631 2:0.9753086566925049 3:0.9529411792755127 
-0.0 -8192.0 0.0 0.0 1:0.06695156544446945 2:0.9831932783126831 3:0.9333333373069763 
-0.0 -8192.0 0.0 0.0 1:0.05927475169301033 2:0.9958333373069763 3:0.9411764740943909 
-0.0 -8192.0 0.0 0.0 1:0.06002824380993843 2:0.9254902005195618 3:1.0 
-0.0 -8192.0 0.0 0.0 1:0.06875000149011612 2:0.9638554453849792 3:0.9764705896377563 
-0.0 -8192.0 0.0 0.0 1:0.07040229439735413 2:0.9392712712287903 3:0.9686274528503418 
-0.0 -8192.0 0.0 8192.0 1:0.06513410061597824 2:0.7631579041481018 3:0.4470588266849518 
-0.0 -8192.0 8192.0 8192.0 1:0.08371735364198685 2:0.9079498052597046 3:0.9372549057006836 
-0.0 -8192.0 8192.0 8192.0 1:0.08371735364198685 2:0.9079498052597046 3:0.9372549057006836 
-0.0 -8192.0 0.0 8192.0 1:0.07940251380205154 2:0.9464285969734192 3:0.8784313797950745 
-0.0 -8192.0 0.0 8192.0 1:0.06761006265878677 2:0.9953051805496216 3:0.8352941274642944 
-0.0 -8192.0 0.0 0.0 1:0.06461086869239807 2:0.9458333253860474 3:0.9411764740943909 
-0.0 -8192.0 0.0 0.0 1:0.06666666269302368 2:0.9426229596138 3:0.95686274766922 
-0.0 -8192.0 0.0 8192.0 1:0.07730496674776077 2:0.932539701461792 3:0.9882352948188782 
-0.0 -8192.0 0.0 0.0 1:0.06582632660865784 2:0.9754098653793335 3:0.95686274766922 
-0.0 -8192.0 0.0 0.0 1:0.07357356697320938 2:0.874015748500824 3:0.9960784316062927 
-0.0 -8192.0 0.0 8192.0 1:0.07162534445524216 2:0.9679999947547913 3:0.9803921580314636 
-0.0 -8192.0 0.0 0.0 1:0.06563422083854675 2:0.93388432264328 3:0.9490196108818054 
-0.0 -8192.0 0.0 0.0 1:0.057909607887268066 2:0.9632652997970581 3:0.9607843160629272 
-0.0 -8192.0 0.0 0.0 1:0.06481481343507767 2:0.8962655663490295 3:0.9450980424880981 
-0.0 -8192.0 0.0 0.0 1:0.022900760173797607 2:0.9290780425071716 3:0.5529412031173706 
-0.0 -8192.0 0.0 0.0 1:0.06891026347875595 2:0.8965517282485962 3:0.9098039269447327 
-0.0 -8192.0 0.0 0.0 1:0.04919236898422241 2:0.9458333253860474 3:0.9411764740943909 
-0.0 -8192.0 0.0 0.0 1:0.06111111119389534 2:0.9170305728912354 3:0.8980392217636108 
-0.0 -8192.0 0.0 0.0 1:0.059294868260622025 2:0.8813559412956238 3:0.9254902005195618 
-0.0 -8192.0 0.0 0.0 1:0.06016260385513306 2:0.9624413251876831 3:0.8352941274642944 
-0.0 -8192.0 0.0 0.0 1:0.048742134124040604 2:0.9298245906829834 3:0.8941176533699036 
-0.0 -8192.0 0.0 0.0 1:0.059764306992292404 2:0.8722466826438904 3:0.8901960849761963 
-0.0 -8192.0 0.0 0.0 1:0.07264956831932068 2:0.9359999895095825 3:0.9803921580314636 
-0.0 -8192.0 0.0 0.0 1:0.05994151905179024 2:0.949999988079071 3:0.9411764740943909 
-0.0 -8192.0 0.0 0.0 1:0.05348837375640869 2:1.0 3:0.843137264251709 
-0.0 -8192.0 0.0 0.0 1:0.0644257664680481 2:0.9482071995735168 3:0.9843137264251709 
-0.0 -8192.0 0.0 0.0 1:0.04843304678797722 2:0.9669421315193176 3:0.9490196108818054 
-0.0 -8192.0 0.0 0.0 1:0.04000000283122063 2:0.97826087474823 3:0.9019607901573181 
-0.0 -8192.0 -0.0 0.0 1:0.5799086689949036 2:0.9776785969734192 3:0.8784313797950745 
-0.0 -8192.0 -8192.0 0.0 1:0.5696401000022888 2:0.9466666579246521 3:0.8823529481887817 
-0.0 -8192.0 -0.0 0.0 1:0.577327311038971 2:1.0 3:0.8705882430076599 
-0.0 -8192.0 -0.0 0.0 1:0.577327311038971 2:1.0 3:0.8705882430076599 
-0.0 -8192.0 -0.0 0.0 1:0.577327311038971 2:1.0 3:0.8705882430076599 
-0.0 -8192.0 -0.0 0.0 1:0.584454357624054 2:0.9955357313156128 3:0.8784313797950745 
-0.0 -8192.0 -0.0 0.0 1:0.5755064487457275 2:0.8578199148178101 3:0.8274509906768799 
-0.0 -8192.0 -0.0 0.0 1:0.5755064487457275 2:0.8578199148178101 3:0.8274509906768799 
-0.0 -8192.0 -0.0 0.0 1:0.5737705230712891 2:0.8926829099655151 3:0.8039215803146362 
-0.0 -8192.0 -0.0 0.0 1:0.5737705230712891 2:0.8926829099655151 3:0.8039215803146362 
-0.0 -8192.0 -0.0 0.0 1:0.5737705230712891 2:0.8206278085708618 3:0.8745098114013672 
-0.0 -8192.0 -0.0 0.0 1:0.5684818625450134 2:0.8632478713989258 3:0.9176470637321472 
-0.0 -8192.0 -0.0 0.0 1:0.5684818625450134 2:0.8632478713989258 3:0.9176470637321472 
-0.0 -8192.0 -0.0 0.0 1:0.5749158263206482 2:0.970588207244873 3:0.800000011920929 
-0.0 -8192.0 -0.0 0.0 1:0.577826738357544 2:0.9380165338516235 3:0.9490196108818054 
-0.0 -8192.0 -0.0 0.0 1:0.5763583183288574 2:0.9265305995941162 3:0.9607843160629272 
-0.0 -8192.0 -0.0 0.0 1:0.5795106887817383 2:0.9688888788223267 3:0.8823529481887817 
-0.0 -8192.0 -0.0 0.0 1:0.5825825333595276 2:0.9694322943687439 3:0.8980392217636108 
-0.0 -8192.0 -0.0 0.0 1:0.5825825333595276 2:0.9694322943687439 3:0.8980392217636108 
-0.0 -8192.0 -0.0 0.0 1:0.5805243849754333 2:0.9368420839309692 3:0.7450980544090271 
-0.0 -8192.0 -0.0 0.0 1:0.5742424130439758 2:0.924369752407074 3:0.9333333373069763 
-0.0 -8192.0 -0.0 0.0 1:0.5785984992980957 2:0.9411764740943909 3:0.7333333492279053 
-0.0 -8192.0 -0.0 0.0 1:0.5765306353569031 2:0.9560975432395935 3:0.8039215803146362 
-0.0 -8192.0 -0.0 0.0 1:0.5755451321601868 2:0.9511111378669739 3:0.8823529481887817 
-0.0 -8192.0 -0.0 0.0 1:0.5729783177375793 2:0.8666666746139526 3:0.7647058963775635 
-0.0 -8192.0 -0.0 0.0 1:0.5711382031440735 2:0.800000011920929 3:0.8039215803146362 
-0.0 -8192.0 -0.0 0.0 1:0.5720164775848389 2:0.8059701323509216 3:0.7882353067398071 
-0.0 -8192.0 -0.0 0.0 1:0.5709876418113708 2:0.7677724957466125 3:0.8274509906768799 
-0.0 -8192.0 -0.0 0.0 1:0.5668724179267883 2:0.7864077687263489 3:0.8078431487083435 
-0.0 -8192.0 -8192.0 0.0 1:0.5648148059844971 2:0.8059701323509216 3:0.7882353067398071 
-0.0 -8192.0 -0.0 0.0 1:0.5675105452537537 2:0.7523809671401978 3:0.8235294222831726 
-0.0 -8192.0 -0.0 0.0 1:0.5754716992378235 2:0.9059829115867615 3:0.9176470637321472 
-0.0 -8192.0 -0.0 0.0 1:0.5833333134651184 2:0.9748743772506714 3:0.7803921699523926 
-0.0 -4023.309288006316 -0.0 0.0 1:0.5842294096946716 2:0.939393937587738 3:0.7764706015586853 
-0.0 -8192.0 -0.0 0.0 1:0.5739796161651611 2:0.9468598961830139 3:0.8117647171020508 
-0.0 -8192.0 -0.0 0.0 1:0.5755336284637451 2:0.9103139042854309 3:0.8745098114013672 
-0.0 -8192.0 -0.0 0.0 1:0.5787878632545471 2:0.9954751133918762 3:0.8666666746139526 
-0.0 -8192.0 -0.0 0.0 1:0.5736434459686279 2:0.9347826242446899 3:0.9019607901573181 
-0.0 -8192.0 -0.0 0.0 1:0.5779436230659485 2:0.9054054021835327 3:0.8705882430076599 
-0.0 -8192.0 -0.0 0.0 1:0.5776143670082092 2:0.9066666960716248 3:0.8823529481887817 
-0.0 -8192.0 -0.0 0.0 1:0.5788177847862244 2:0.9485981464385986 3:0.8392156958580017 
-0.0 -8192.0 -0.0 0.0 1:0.5799663066864014 2:0.9124423861503601 3:0.8509804010391235 
-0.0 -8192.0 -0.0 0.0 1:0.5778748393058777 2:0.9956521987915039 3:0.9019607901573181 
-0.0 -8192.0 -0.0 0.0 1:0.5789085030555725 2:0.9912280440330505 3:0.8941176533699036 
-0.0 -8192.0 -0.0 0.0 1:0.5679824352264404 2:0.7487684488296509 3:0.7960784435272217 
-0.0 -8192.0 -8192.0 0.0 1:0.5664682388305664 2:0.8399999737739563 3:0.7843137383460999 
-0.0 -8192.0 -8192.0 0.0 1:0.5613126158714294 2:0.8853210806846619 3:0.8549019694328308 
-0.0 -8192.0 -8192.0 0.0 1:0.5661881566047668 2:0.9047619104385376 3:0.9058823585510254 
-0.0 -8192.0 -8192.0 0.0 1:0.5679011940956116 2:0.931034505367279 3:0.9098039269447327 
-0.0 -8192.0 -0.0 0.0 1:0.5745614171028137 2:1.0 3:0.8941176533699036 
-0.0 -8192.0 -0.0 0.0 1:0.57750004529953 2:0.9803921580314636 3:0.800000011920929 
-0.0 -8192.0 -0.0 0.0 1:0.5742659568786621 2:0.9146919250488281 3:0.8274509906768799 
-0.0 -8192.0 -0.0 0.0 1:0.5863094925880432 2:1.0 3:0.21960784494876862 
-0.0 -5695.896714438949 -0.0 0.0 1:0.5740740895271301 2:0.84112149477005 3:0.8392156958580017 
-0.0 -8192.0 -0.0 0.0 1:0.5731707215309143 2:0.8453608155250549 3:0.3803921639919281 
-0.0 -8192.0 -0.0 0.0 1:0.5720164775848389 2:0.8526315689086914 3:0.37254902720451355 
-0.0 -8192.0 -0.0 0.0 1:0.5699588656425476 2:0.8999999761581421 3:0.3529411852359772 
-0.0 -8192.0 -0.0 0.0 1:0.5687499642372131 2:0.8695651888847351 3:0.3607843220233917 
-0.0 -8192.0 -0.0 0.0 1:0.5692641139030457 2:0.9624999761581421 3:0.3137255012989044 
-0.0 -8192.0 -8192.0 0.0 1:0.5638474822044373 2:0.8626609444618225 3:0.9137254953384399 
-0.0 -8192.0 -0.0 0.0 1:0.5715532302856445 2:0.936274528503418 3:0.800000011920929 
-0.0 -8192.0 -0.0 0.0 1:0.5746527314186096 2:0.8727272748947144 3:0.8627451062202454 
-0.0 -8192.0 -0.0 0.0 1:0.5763888955116272 2:0.9458128213882446 3:0.7960784435272217 
-0.0 -8192.0 -0.0 0.0 1:0.5780141949653625 2:0.9894737005233765 3:0.7450980544090271 
-0.0 -8192.0 -0.0 0.0 1:0.5749601721763611 2:0.9631336331367493 3:0.8509804010391235 
-0.0 -8192.0 -0.0 0.0 1:0.5748662948608398 2:0.9350000023841858 3:0.7843137383460999 
-0.0 -8192.0 -0.0 0.0 1:0.5736040472984314 2:0.8794642686843872 3:0.8784313797950745 
-0.0 -8192.0 -0.0 0.0 1:0.5710659623146057 2:0.8491379022598267 3:0.9098039269447327 
-0.0 -8192.0 -0.0 0.0 1:0.5752688050270081 2:0.9253731369972229 3:0.7882353067398071 
-0.0 -8192.0 -0.0 0.0 1:0.5782313346862793 2:0.9751243591308594 3:0.7882353067398071 
-0.0 -8192.0 -0.0 0.0 1:0.5721649527549744 2:0.8899082541465759 3:0.8549019694328308 
-0.0 -382.95099945695137 -0.0 0.0 1:0.5757575631141663 2:0.7333333492279053 3:0.05882352963089943 
-0.0 -212.17473158892034 -0.0 0.0 1:0.5757575631141663 2:0.7333333492279053 3:0.05882352963089943 
-0.0 -332.45855183464244 -0.0 0.0 1:0.5757575631141663 2:0.7333333492279053 3:0.05882352963089943 
-0.0 -7.3493651306001855 -0.0 20.300791159209243 1:0.5757575631141663 2:0.7333333492279053 3:0.05882352963089943 
-0.0 -8192.0 -0.0 0.0 1:0.5768116116523743 2:0.9956709742546082 3:0.9058823585510254 
-0.0 -8192.0 -0.0 0.0 1:0.5775362849235535 2:0.9745762944221497 3:0.9254902005195618 
-0.0 -8192.0 -0.0 0.0 1:0.5866965651512146 2:1.0 3:0.8745098114013672 
-0.0 -8192.0 -0.0 0.0 1:0.5837104320526123 2:0.9735682606697083 3:0.8901960849761963 
-0.0 -8192.0 -0.0 0.0 1:0.5771756768226624 2:0.9227272868156433 3:0.8627451062202454 
-0.0 -8192.0 -8192.0 0.0 1:0.5705882906913757 2:0.9444444179534912 3:0.7058823704719543 
-0.0 -8192.0 -0.0 0.0 1:0.5686274170875549 2:0.7657657861709595 3:0.8705882430076599 
-0.0 -8192.0 -0.0 0.0 1:0.5676470398902893 2:0.7798165082931519 3:0.8549019694328308 
-0.0 -8192.0 -0.0 0.0 1:0.5841836929321289 2:0.9898989796638489 3:0.7764706015586853 
-0.0 -8192.0 -0.0 0.0 1:0.5773524641990662 2:0.9047619104385376 3:0.9058823585510254 
-0.0 -8192.0 -0.0 0.0 1:0.5734323859214783 2:0.8669527769088745 3:0.9137254953384399 
-0.0 -8192.0 -0.0 0.0 1:0.5754310488700867 2:0.9666666388511658 3:0.9411764740943909 
-0.0 -8192.0 -0.0 0.0 1:0.5777279734611511 2:0.9955357313156128 3:0.8784313797950745 
-0.0 -8192.0 -0.0 0.0 1:0.5777279734611511 2:0.9955357313156128 3:0.8784313797950745 
-0.0 -8192.0 -0.0 0.0 1:0.5777279734611511 2:0.9955357313156128 3:0.8784313797950745 
-0.0 -8192.0 -0.0 0.0 1:0.5777279734611511 2:0.9955357313156128 3:0.8784313797950745 
-0.0 -8192.0 -0.0 0.0 1:0.5737462639808655 2:0.922448992729187 3:0.9607843160629272 
-0.0 -8192.0 -0.0 0.0 1:0.5748298764228821 2:0.9655172228813171 3:0.7960784435272217 
-0.0 -8192.0 -0.0 0.0 1:0.5756756663322449 2:0.9113300442695618 3:0.7960784435272217 
-0.0 -8192.0 -0.0 0.0 1:0.5670731663703918 2:0.7224669456481934 3:0.8901960849761963 
-0.0 -8192.0 -0.0 0.0 1:0.5684210658073425 2:0.8962264060974121 3:0.4156862795352936 
-0.0 -8192.0 -7759.912254859032 0.0 1:0.5641025900840759 2:0.8666666746139526 3:0.4117647111415863 
-0.0 -8192.0 -0.0 0.0 1:0.5632911324501038 2:0.7745097875595093 3:0.4000000059604645 
-0.0 -8192.0 -5442.30286317079 0.0 1:0.5618101954460144 2:0.6425532102584839 3:0.9215686321258545 
-0.0 -8192.0 -0.0 0.0 1:0.5648769736289978 2:0.7303921580314636 3:0.800000011920929 
-0.0 -8192.0 -0.0 0.0 1:0.5652680397033691 2:0.6975609660148621 3:0.8039215803146362 
-0.0 -8192.0 -0.0 0.0 1:0.5662393569946289 2:0.7722772359848022 3:0.3960784375667572 
-0.0 -8192.0 -0.0 0.0 1:0.5662393569946289 2:0.7722772359848022 3:0.3960784375667572 
-0.0 -8192.0 -0.0 0.0 1:0.5662393569946289 2:0.7722772359848022 3:0.3960784375667572 
-0.0 -8192.0 -0.0 0.0 1:0.5662393569946289 2:0.7722772359848022 3:0.3960784375667572 
-0.0 -8192.0 -0.0 0.0 1:0.5711111426353455 2:0.8064516186714172 3:0.364705890417099 
-0.0 -8192.0 -0.0 0.0 1:0.5704225897789001 2:0.7977527976036072 3:0.3490196168422699 
-54.93204689362671 -8192.0 -8192.0 9.318653684200418 1:0.5438596606254578 2:0.3877550959587097 3:0.3843137323856354 
-0.0 -8192.0 -0.0 0.0 1:0.5753295421600342 2:0.8428571224212646 3:0.8235294222831726 
-0.0 -8192.0 -0.0 0.0 1:0.5718390941619873 2:0.8130841255187988 3:0.8392156958580017 
-0.0 -8192.0 -0.0 0.0 1:0.5718390941619873 2:0.8130841255187988 3:0.8392156958580017 
-0.0 -8192.0 -0.0 0.0 1:0.5718390941619873 2:0.8130841255187988 3:0.8392156958580017 
-0.0 -8192.0 -0.0 0.0 1:0.5718390941619873 2:0.8130841255187988 3:0.8392156958580017 
-0.0 -8192.0 -1325.2680897430894 0.0 1:0.5727400779724121 2:0.9833333492279053 3:0.9411764740943909 
-0.0 -8192.0 -3385.834967843827 0.0 1:0.5727400779724121 2:0.9833333492279053 3:0.9411764740943909 
-0.0 -8192.0 -8192.0 0.0 1:0.5704323649406433 2:0.9795082211494446 3:0.95686274766922 
-0.0 -8192.0 -8192.0 0.0 1:0.5711206793785095 2:0.9547325372695923 3:0.9529411792755127 
-0.0 -8192.0 -0.0 0.0 1:0.5737462639808655 2:0.9912280440330505 3:0.8941176533699036 
-0.0 -8192.0 -0.0 0.0 1:0.5737462639808655 2:0.9416666626930237 3:0.9411764740943909 
-0.0 -8192.0 -0.0 0.0 1:0.576296329498291 2:0.9740259647369385 3:0.9058823585510254 
-0.0 -8192.0 -0.0 0.0 1:0.5756914019584656 2:0.9828326106071472 3:0.9137254953384399 
-0.0 -8192.0 -8192.0 0.0 1:0.5669577717781067 2:0.9786324501037598 3:0.9176470637321472 
-0.0 -8192.0 -0.0 0.0 1:0.5739064812660217 2:0.9094650149345398 3:0.9529411792755127 
-0.0 -8192.0 -0.0 0.0 1:0.5751488208770752 2:0.9218106865882874 3:0.9529411792755127 
-0.0 -8192.0 -0.0 0.0 1:0.5730088353157043 2:0.9416666626930237 3:0.9411764740943909 
-0.0 -8191.961142293722 -0.0 0.0 1:0.5725309252738953 2:0.7200000286102295 3:0.5882353186607361 
-0.0 -4584.063031865401 -0.0 0.0 1:0.5725309252738953 2:0.7200000286102295 3:0.5882353186607361 
-0.0 -8192.0 -0.0 0.0 1:0.5626911520957947 2:0.7315436005592346 3:0.5843137502670288 
-0.0 -8192.0 -8192.0 20.95131182937709 1:0.5485074520111084 2:0.8815789222717285 3:0.5960784554481506 
-0.0 -8192.0 -8192.0 -0.0 1:0.23796792328357697 2:0.8657407164573669 3:0.8470588326454163 
-0.0 -0.0 -8192.0 -0.0 1:0.2366071492433548 2:0.7567567825317383 3:0.5803921818733215 
-0.0 -8192.0 -8192.0 -0.0 1:0.24038462340831757 2:0.9203540086746216 3:0.886274516582489 
-0.0 -8192.0 -0.0 -0.0 1:0.25124379992485046 2:0.9710144996643066 3:0.8117647171020508 
-0.0 -8192.0 -8192.0 -0.0 1:0.24257425963878632 2:0.9528301954269409 3:0.8313725590705872 
-0.0 -8192.0 -0.0 -0.0 1:0.24339933693408966 2:0.9711538553237915 3:0.8156862854957581 
-0.0 -8192.0 -0.0 -0.0 1:0.24790620803833008 2:0.9431279897689819 3:0.8274509906768799 
-0.0 -8192.0 -0.0 -0.0 1:0.2470085620880127 2:0.989847719669342 3:0.772549033164978 
-0.0 -8192.0 -0.0 -0.0 1:0.24416665732860565 2:0.9756097793579102 3:0.8039215803146362 
-0.0 -8192.0 -8192.0 -0.0 1:0.2288786619901657 2:0.990867555141449 3:0.8588235378265381 
-0.0 -8192.0 -0.0 -0.0 1:0.2699805200099945 2:0.929347813129425 3:0.7215686440467834 
-0.0 -8192.0 -0.0 -0.0 1:0.2658959627151489 2:0.9611111283302307 3:0.7058823704719543 
-0.0 -8192.0 -0.0 -0.0 1:0.2535087764263153 2:0.9644669890403748 3:0.772549033164978 
-0.0 -8192.0 -0.0 -0.0 1:0.25043630599975586 2:0.9896373152732849 3:0.7568627595901489 
-0.0 -8192.0 -0.0 -0.0 1:0.24444444477558136 2:0.979899525642395 3:0.7803921699523926 
-0.0 -8192.0 -0.0 -0.0 1:0.25366297364234924 2:0.989130437374115 3:0.7215686440467834 
-0.0 -8192.0 -0.0 -0.0 1:0.25661376118659973 2:0.9792746305465698 3:0.7568627595901489 
-0.0 -8192.0 -8192.0 -0.0 1:0.24371857941150665 2:0.8728070259094238 3:0.8941176533699036 
-0.0 -8192.0 -0.0 -0.0 1:0.236111119389534 2:0.9454545378684998 3:0.6470588445663452 
-0.0 -8192.0 -7002.698204672816 -0.0 1:0.24280881881713867 2:0.9563106894493103 3:0.8078431487083435 
-0.0 -8192.0 -0.0 -0.0 1:0.24820788204669952 2:0.9587628841400146 3:0.7607843279838562 
-0.0 -8192.0 -0.0 -0.0 1:0.24873097240924835 2:0.9656862616539001 3:0.800000011920929 
-0.0 -8192.0 -0.0 -0.0 1:0.25044092535972595 2:0.9130434989929199 3:0.8117647171020508 
-0.0 -8192.0 -8192.0 -0.0 1:0.2391304224729538 2:0.880382776260376 3:0.8196078538894653 
-0.0 -8192.0 -0.0 -0.0 1:0.24744375050067902 2:0.9209039807319641 3:0.6941176652908325 
-0.0 -8192.0 -0.0 -0.0 1:0.24744375050067902 2:0.9209039807319641 3:0.6941176652908325 
-0.0 -8192.0 -8192.0 -0.0 1:0.24329502880573273 2:0.8743718862533569 3:0.7803921699523926 
-0.0 -8192.0 -8192.0 -0.0 1:0.2395264357328415 2:0.905940592288971 3:0.7921568751335144 
-0.0 -8192.0 -8192.0 -0.0 1:0.24190478026866913 2:0.8838383555412292 3:0.7764706015586853 
-0.0 -8192.0 -0.0 -0.0 1:0.2554112672805786 2:0.7857142686843872 3:0.7686274647712708 
-0.0 -4235.355912872491 -0.0 -0.0 1:0.2554112672805786 2:0.7857142686843872 3:0.7686274647712708 
-0.0 -8192.0 -0.0 -0.0 1:0.2672101557254791 2:0.9246231317520142 3:0.7803921699523926 
-0.0 -8192.0 -0.0 -0.0 1:0.2707182466983795 2:0.9576719403266907 3:0.7411764860153198 
-0.0 -8192.0 -0.0 -0.0 1:0.2512195110321045 2:0.9234234094619751 3:0.8705882430076599 
-0.0 -8192.0 -0.0 -0.0 1:0.24796748161315918 2:0.9276018142700195 3:0.8666666746139526 
-0.0 -8192.0 -8192.0 -0.0 1:0.24213838577270508 2:0.9636363387107849 3:0.8627451062202454 
-0.0 -8192.0 -0.0 -0.0 1:0.2699805200099945 2:0.9553072452545166 3:0.7019608020782471 
-0.0 -8192.0 -0.0 -0.0 1:0.2768031060695648 2:0.9344262480735779 3:0.7176470756530762 
-0.0 -8192.0 -8192.0 -0.0 1:0.24523811042308807 2:0.963302731513977 3:0.8549019694328308 
-0.0 -8192.0 -8192.0 -0.0 1:0.23878204822540283 2:0.9327354431152344 3:0.8745098114013672 
-0.0 -8192.0 -8192.0 -0.0 1:0.2343234270811081 2:0.9483568072319031 3:0.8352941274642944 
-0.0 -8192.0 -8192.0 -0.0 1:0.23798449337482452 2:0.9953703880310059 3:0.8470588326454163 
-0.0 -8192.0 -0.0 -0.0 1:0.2587476968765259 2:0.8916256427764893 3:0.7960784435272217 
-0.0 -8192.0 -8192.0 -0.0 1:0.2380952388048172 2:0.9644444584846497 3:0.8823529481887817 
-0.0 -8192.0 -0.0 -0.0 1:0.2717948853969574 2:0.9774436354637146 3:0.5215686559677124 
-0.0 -8192.0 -0.0 -0.0 1:0.25632181763648987 2:0.9863945841789246 3:0.5764706134796143 
-0.0 -8192.0 -0.0 -0.0 1:0.2629108130931854 2:0.887499988079071 3:0.6274510025978088 
-0.0 -8192.0 -0.0 -0.0 1:0.26436781883239746 2:0.8895705342292786 3:0.6392157077789307 
-0.0 -8192.0 -0.0 -0.0 1:0.2617521286010742 2:0.9570552110671997 3:0.6392157077789307 
-0.0 -8192.0 -0.0 -0.0 1:0.2617521286010742 2:0.9570552110671997 3:0.6392157077789307 
-0.0 -8192.0 -0.0 -0.0 1:0.2607709467411041 2:0.9671052694320679 3:0.5960784554481506 
-0.0 -8192.0 -0.0 -0.0 1:0.2554112672805786 2:0.9221556782722473 3:0.6549019813537598 
-0.0 -8192.0 -8192.0 -0.0 1:0.23927395045757294 2:0.922374427318573 3:0.8588235378265381 
-0.0 -8192.0 -0.0 -0.0 1:0.24339933693408966 2:0.9573459625244141 3:0.8274509906768799 
-0.0 -8192.0 -8192.0 -0.0 1:0.23664824664592743 2:0.896039605140686 3:0.7921568751335144 
-0.0 -8192.0 -8192.0 -0.0 1:0.23333334922790527 2:0.9953703880310059 3:0.8470588326454163 
-0.0 -8192.0 -8192.0 -0.0 1:0.236635223031044 2:0.9422222375869751 3:0.8823529481887817 
-0.0 -8192.0 -8192.0 -0.0 1:0.24046432971954346 2:0.9950494766235352 3:0.7921568751335144 
-0.0 -8192.0 -8192.0 -0.0 1:0.23905722796916962 2:0.9383886456489563 3:0.8274509906768799 
-0.0 -8192.0 -0.0 -0.0 1:0.24529914557933807 2:0.946601927280426 3:0.8078431487083435 
-0.0 -8192.0 -0.0 -0.0 1:0.24598932266235352 2:0.9396985173225403 3:0.7803921699523926 
-0.0 -8192.0 -8192.0 -0.0 1:0.2431972771883011 2:0.8990825414657593 3:0.8549019694328308 
-0.0 -8192.0 -0.0 -0.0 1:0.2511415481567383 2:0.9182389974594116 3:0.6235294342041016 
-0.0 -8192.0 -8192.0 -0.0 1:0.24731183052062988 2:0.8691588640213013 3:0.8392156958580017 
-0.0 -8192.0 -8192.0 -0.0 1:0.23905722796916962 2:0.9252336621284485 3:0.8392156958580017 
-0.0 -8192.0 -8192.0 -0.0 1:0.2403508871793747 2:0.9405940771102905 3:0.7921568751335144 
-0.0 -8192.0 -8192.0 -0.0 1:0.2403508871793747 2:0.8558558821678162 3:0.8705882430076599 
-0.0 -8192.0 -0.0 -0.0 1:0.24514992535114288 2:0.9497487545013428 3:0.7803921699523926 
-0.0 -8192.0 -0.0 -0.0 1:0.2542954981327057 2:0.9282296895980835 3:0.8196078538894653 
-0.0 -8192.0 -0.0 -0.0 1:0.27708330750465393 2:0.8888888955116272 3:0.7058823704719543 
-0.0 -8192.0 -0.0 -0.0 1:0.27708330750465393 2:0.8888888955116272 3:0.7058823704719543 
-0.0 -8192.0 -0.0 -0.0 1:0.27708330750465393 2:0.8888888955116272 3:0.7058823704719543 
-0.0 -8192.0 -0.0 -0.0 1:0.2588832378387451 2:0.9704433679580688 3:0.7960784435272217 
-0.0 -8192.0 -8192.0 -0.0 1:0.24915826320648193 2:0.8839285969734192 3:0.8784313797950745 
-0.0 -8192.0 -0.0 -0.0 1:0.2446102648973465 2:0.9757281541824341 3:0.8078431487083435 
-0.0 -8192.0 -0.0 -0.0 1:0.24836599826812744 2:0.9668246507644653 3:0.8274509906768799 
-0.0 -8192.0 -0.0 -0.0 1:0.28285714983940125 2:0.9162303805351257 3:0.7490196228027344 
-0.0 -8192.0 -0.0 -0.0 1:0.28285714983940125 2:0.9162303805351257 3:0.7490196228027344 
-0.0 -8192.0 -0.0 -0.0 1:0.28285714983940125 2:0.9162303805351257 3:0.7490196228027344 
-0.0 -8192.0 -0.0 -0.0 1:0.259631484746933 2:0.9707317352294922 3:0.8039215803146362 
-0.0 -8192.0 -0.0 -0.0 1:0.27744510769844055 2:0.9823529124259949 3:0.6666666865348816 
-0.0 -8192.0 -0.0 -0.0 1:0.24688057601451874 2:0.9077669978141785 3:0.8078431487083435 
-0.0 -8192.0 -0.0 -0.0 1:0.25766873359680176 2:0.885869562625885 3:0.7215686440467834 
-0.0 -8192.0 -0.0 -0.0 1:0.2537878751754761 2:0.9462365508079529 3:0.729411780834198 
-0.0 -8192.0 -0.0 -0.0 1:0.24861879646778107 2:0.870192289352417 3:0.8156862854957581 
-0.0 -8192.0 -8192.0 -0.0 1:0.2468123883008957 2:0.8672986030578613 3:0.8274509906768799 
-0.0 -8192.0 -0.0 -0.0 1:0.24863386154174805 2:0.8926829099655151 3:0.8039215803146362 
-0.0 -8192.0 -0.0 -0.0 1:0.25045046210289 2:0.8980582356452942 3:0.8078431487083435 
-0.0 -8192.0 -0.0 -0.0 1:0.25045046210289 2:0.8980582356452942 3:0.8078431487083435 
-0.0 -8192.0 -0.0 -0.0 1:0.25045046210289 2:0.8980582356452942 3:0.8078431487083435 
-0.0 -8192.0 -8192.0 -0.0 1:0.24327123165130615 2:0.8385416865348816 3:0.7529411911964417 
-0.0 -8192.0 -8192.0 -0.0 1:0.2295082062482834 2:0.8591549396514893 3:0.8352941274642944 
-0.0 -8192.0 -8192.0 -0.0 1:0.2295082062482834 2:0.8591549396514893 3:0.8352941274642944 
-0.0 -8192.0 -0.0 -0.0 1:0.2530413568019867 2:0.9256756901741028 3:0.5803921818733215 
-0.0 -8192.0 -0.0 -0.0 1:0.25563907623291016 2:0.949999988079071 3:0.5490196347236633 
-0.0 -8192.0 -8192.0 -0.0 1:0.23876404762268066 2:0.8599033951759338 3:0.8117647171020508 
-0.0 -8192.0 -0.0 -0.0 1:0.2593632936477661 2:0.9726775884628296 3:0.7176470756530762 
-0.0 -8192.0 -0.0 -0.0 1:0.2707129418849945 2:0.9558011293411255 3:0.7098039388656616 
-0.0 -8192.0 -0.0 -0.0 1:0.2707129418849945 2:0.9558011293411255 3:0.7098039388656616 
-0.0 -8192.0 -0.0 -0.0 1:0.27709612250328064 2:0.8956043720245361 3:0.7137255072593689 
-0.0 -8192.0 -0.0 -0.0 1:0.27709612250328064 2:0.8956043720245361 3:0.7137255072593689 
-0.0 -8192.0 -0.0 -0.0 1:0.27709612250328064 2:0.8956043720245361 3:0.7137255072593689 
-0.0 -8192.0 -0.0 -0.0 1:0.27709612250328064 2:0.8956043720245361 3:0.7137255072593689 
-0.0 -8192.0 -0.0 -0.0 1:0.27709612250328064 2:0.8956043720245361 3:0.7137255072593689 
-0.0 -8192.0 -0.0 -0.0 1:0.27709612250328064 2:0.8956043720245361 3:0.7137255072593689 
-0.0 -8192.0 -0.0 -0.0 1:0.27709612250328064 2:0.8956043720245361 3:0.7137255072593689 
-0.0 -8192.0 -0.0 -0.0 1:0.27709612250328064 2:0.8956043720245361 3:0.7137255072593689 
-0.0 -8192.0 -0.0 -0.0 1:0.27709612250328064 2:0.8956043720245361 3:0.7137255072593689 
-0.0 -8192.0 -0.0 -0.0 1:0.27709612250328064 2:0.8956043720245361 3:0.7137255072593689 
-0.0 -8192.0 -0.0 -0.0 1:0.27709612250328064 2:0.8956043720245361 3:0.7137255072593689 
-0.0 -8192.0 -0.0 -0.0 1:0.2869757115840912 2:0.9320987462997437 3:0.6352941393852234 
-0.0 -8192.0 -0.0 -0.0 1:0.27263376116752625 2:0.9938650131225586 3:0.6392157077789307 
-0.0 -8192.0 -0.0 -0.0 1:0.26217231154441833 2:0.9569892287254333 3:0.729411780834198 
-0.0 -8192.0 -0.0 -0.0 1:0.2539682388305664 2:0.8399999737739563 3:0.8823529481887817 
-0.0 -8192.0 -8192.0 -0.0 1:0.2429519146680832 2:0.9136363863945007 3:0.8627451062202454 
-0.0 -8192.0 -0.0 -0.0 1:0.24688057601451874 2:0.8990384340286255 3:0.8156862854957581 
-0.0 -8192.0 -0.0 -0.0 1:0.24688057601451874 2:0.9842105507850647 3:0.7450980544090271 
-0.0 -8192.0 -0.0 -0.0 1:0.24954955279827118 2:0.8851674795150757 3:0.8196078538894653 
-0.0 -8192.0 -0.0 -0.0 1:0.24784111976623535 2:0.9061033129692078 3:0.8352941274642944 
-0.0 -8192.0 -8192.0 -0.0 1:0.24410772323608398 2:0.9252336621284485 3:0.8392156958580017 
-0.0 -8192.0 -0.0 -0.0 1:0.2456597089767456 2:0.9411764740943909 3:0.800000011920929 
-0.0 -8192.0 -8192.0 -0.0 1:0.24321706593036652 2:0.8557214140892029 3:0.7882353067398071 
-0.0 -8192.0 -0.0 -0.0 1:0.25139665603637695 2:0.988950252532959 3:0.7098039388656616 
-0.0 -8192.0 -0.0 -0.0 1:0.26722535490989685 2:0.9132652878761292 3:0.7686274647712708 
-0.0 -8192.0 -0.0 -0.0 1:0.2976939380168915 2:1.0 3:0.6235294342041016 
-0.0 -8192.0 -0.0 -0.0 1:0.2896341383457184 2:0.9371428489685059 3:0.686274528503418 
-0.0 -8192.0 -0.0 -0.0 1:0.2556131184101105 2:0.9507389068603516 3:0.7960784435272217 
-0.0 -8192.0 -0.0 -0.0 1:0.27676770091056824 2:0.9482758641242981 3:0.6823529601097107 
-0.0 -8192.0 -0.0 -0.0 1:0.25741711258888245 2:0.8340611457824707 3:0.8980392217636108 
-0.0 -8192.0 -0.0 -0.0 1:0.25741711258888245 2:0.8340611457824707 3:0.8980392217636108 
-0.0 -8192.0 -0.0 -0.0 1:0.25741711258888245 2:0.8340611457824707 3:0.8980392217636108 
-0.0 -8192.0 -0.0 -0.0 1:0.25 2:0.932692289352417 3:0.8156862854957581 
-0.0 -8192.0 -0.0 -0.0 1:0.25 2:0.932692289352417 3:0.8156862854957581 
-0.0 -8192.0 -0.0 -0.0 1:0.2568627595901489 2:0.9189189076423645 3:0.7254902124404907 
-23.827641393375366 -0.0 -0.0 -0.0 1:0.25961539149284363 2:0.5 3:0.40784314274787903 
-0.0 -0.0 -6119.4184899362535 -0.0 1:0.236111119389534 2:0.6122449040412903 3:0.3843137323856354 
-0.0 -8192.0 -0.0 -0.0 1:0.28195488452911377 2:0.9637681245803833 3:0.5411764979362488 
-0.0 -8192.0 -0.0 -0.0 1:0.2638888657093048 2:0.8571428656578064 3:0.7137255072593689 
-0.0 -8192.0 -0.0 -0.0 1:0.27444443106651306 2:0.8875739574432373 3:0.6627451181411743 
-0.0 -8192.0 -0.0 -0.0 1:0.28356480598449707 2:0.9230769276618958 3:0.6117647290229797 
-0.0 -8192.0 -0.0 -0.0 1:0.2585858404636383 2:0.9482758641242981 3:0.6823529601097107 
-0.0 -8192.0 -0.0 -0.0 1:0.2719298303127289 2:0.8735632300376892 3:0.6823529601097107 
-0.0 -8192.0 -0.0 -0.0 1:0.2688171863555908 2:0.7989690899848938 3:0.7607843279838562 
-0.0 -8192.0 -0.0 -0.0 1:0.2641509473323822 2:0.8030303120613098 3:0.7764706015586853 
-0.0 -8192.0 -0.0 -0.0 1:0.2677419185638428 2:0.837837815284729 3:0.7254902124404907 
-0.0 -8192.0 -0.0 -0.0 1:0.26422762870788574 2:0.8723404407501221 3:0.7372549176216125 
-0.0 -8192.0 -0.0 -0.0 1:0.2647058963775635 2:0.9239130616188049 3:0.7215686440467834 
-0.0 -8192.0 -0.0 -0.0 1:0.2656862735748291 2:0.9139785170555115 3:0.729411780834198 
-0.0 -8192.0 -0.0 -0.0 1:0.266853928565979 2:0.9468085169792175 3:0.7372549176216125 
-0.0 -8192.0 -0.0 -0.0 1:0.2689873278141022 2:0.9753086566925049 3:0.6352941393852234 
-0.0 -8192.0 -0.0 -0.0 1:0.260606050491333 2:0.9166666865348816 3:0.7058823704719543 
-0.0 -8192.0 -0.0 -0.0 1:0.2637130916118622 2:0.8977272510528564 3:0.6901960968971252 
-0.0 -8192.0 -0.0 -0.0 1:0.2609523832798004 2:0.9615384340286255 3:0.7137255072593689 
-0.0 -8192.0 -0.0 -0.0 1:0.25732600688934326 2:0.9629629850387573 3:0.7411764860153198 
-0.0 -8192.0 -0.0 -0.0 1:0.2548500597476959 2:0.8831775784492493 3:0.8392156958580017 
-0.0 -8192.0 -0.0 -0.0 1:0.2548500597476959 2:0.8831775784492493 3:0.8392156958580017 
-0.0 -8192.0 -0.0 -0.0 1:0.26036036014556885 2:0.929648220539093 3:0.7803921699523926 
-0.0 -8192.0 -0.0 -0.0 1:0.2567567527294159 2:0.9536082744598389 3:0.7607843279838562 
-0.0 -8192.0 -0.0 -0.0 1:0.25537633895874023 2:0.939393937587738 3:0.7764706015586853 
-0.0 -8192.0 -0.0 -0.0 1:0.2516666650772095 2:0.8810572624206543 3:0.8901960849761963 
-0.0 -8192.0 -0.0 -0.0 1:0.2666666507720947 2:0.9937888383865356 3:0.6313725709915161 
-0.0 -8192.0 -0.0 -0.0 1:0.2563405930995941 2:0.978723406791687 3:0.7372549176216125 
-0.0 -8192.0 -0.0 -0.0 1:0.24410772323608398 2:0.9801980257034302 3:0.7921568751335144 
-0.0 -8192.0 -0.0 -0.0 1:0.2567567527294159 2:0.9893048405647278 3:0.7333333492279053 
-0.0 -8192.0 -0.0 -0.0 1:0.25392672419548035 2:0.9182692170143127 3:0.8156862854957581 
-0.0 -8192.0 -0.0 -0.0 1:0.25740742683410645 2:1.0 3:0.7058823704719543 
-0.0 -8192.0 -0.0 -0.0 1:0.25322282314300537 2:0.9378238320350647 3:0.7568627595901489 
-0.0 -8192.0 -8192.0 -0.0 1:0.2389770746231079 2:0.8999999761581421 3:0.8235294222831726 
-0.0 -8192.0 -0.0 -0.0 1:0.24955908954143524 2:0.9402984976768494 3:0.7882353067398071 
-0.0 -8192.0 -8192.0 -0.0 1:0.24273502826690674 2:0.8863636255264282 3:0.8627451062202454 
-0.0 -8192.0 -0.0 -0.0 1:0.2508503496646881 2:0.9800000190734863 3:0.7843137383460999 
-0.0 -8192.0 -0.0 -0.0 1:0.26724138855934143 2:0.9830508232116699 3:0.6941176652908325 
-0.0 -8192.0 -0.0 -0.0 1:0.2491319626569748 2:0.9458128213882446 3:0.7960784435272217 
-0.0 -8192.0 -0.0 -0.0 1:0.2549549639225006 2:1.0 3:0.7254902124404907 
-0.0 -8192.0 -0.0 -0.0 1:0.2547008693218231 2:0.979899525642395 3:0.7803921699523926 
-0.0 -8192.0 -0.0 -0.0 1:0.26600441336631775 2:0.8934911489486694 3:0.6627451181411743 
-0.0 -8192.0 -0.0 -0.0 1:0.27199074625968933 2:0.9056603908538818 3:0.6235294342041016 
-0.0 -8192.0 -0.0 -0.0 1:0.27262696623802185 2:0.8579545617103577 3:0.6901960968971252 
-0.0 -8192.0 -0.0 -0.0 1:0.2591397762298584 2:0.9281437397003174 3:0.6549019813537598 
-0.0 -8192.0 -0.0 -0.0 1:0.2637130916118622 2:0.9186046719551086 3:0.6745098233222961 
-0.0 -8192.0 -0.0 -0.0 1:0.2637130916118622 2:0.9186046719551086 3:0.6745098233222961 
-0.0 -8192.0 -0.0 -0.0 1:0.24789030849933624 2:0.8586956262588501 3:0.7215686440467834 
-0.0 -8192.0 -0.0 -0.0 1:0.27586206793785095 2:0.895061731338501 3:0.6352941393852234 
-0.0 -8192.0 -0.0 -0.0 1:0.3044619560241699 2:0.9769230484962463 3:0.5098039507865906 
-0.0 -8192.0 -0.0 -0.0 1:0.3044619560241699 2:0.9769230484962463 3:0.5098039507865906 
-0.0 -8192.0 -0.0 -0.0 1:0.2459150105714798 2:0.9444444179534912 3:0.8470588326454163 
-0.0 -8192.0 -0.0 -0.0 1:0.24396133422851562 2:0.9764150977134705 3:0.8313725590705872 
-0.0 -8192.0 -0.0 -0.0 1:0.25211504101753235 2:1.0 3:0.772549033164978 
-0.0 -8192.0 -0.0 -0.0 1:0.2589743435382843 2:0.9653465151786804 3:0.7921568751335144 
-0.0 -8192.0 -0.0 -0.0 1:0.2597517967224121 2:0.89952152967453 3:0.8196078538894653 
-0.0 -8192.0 -0.0 -0.0 1:0.26867032051086426 2:0.8280543088912964 3:0.8666666746139526 
-0.0 -8192.0 -0.0 -0.0 1:0.2675159275531769 2:0.9289940595626831 3:0.6627451181411743 
-0.0 -8192.0 -0.0 -0.0 1:0.24792702496051788 2:0.934883713722229 3:0.843137264251709 
-0.0 -8192.0 -0.0 -0.0 1:0.278769850730896 2:0.9710982441902161 3:0.6784313917160034 
-0.0 -8192.0 -0.0 -0.0 1:0.26593807339668274 2:0.953125 3:0.7529411911964417 
-0.0 -8192.0 -0.0 -0.0 1:0.2599637508392334 2:0.9154228568077087 3:0.7882353067398071 
-0.0 -8192.0 -0.0 -0.0 1:0.2477477341890335 2:0.9788359999656677 3:0.7411764860153198 
-0.0 -8192.0 -8192.0 -0.0 1:0.2456597089767456 2:0.9056603908538818 3:0.8313725590705872 
-0.0 -8192.0 -0.0 -0.0 1:0.24736841022968292 2:0.9452736377716064 3:0.7882353067398071 
-0.0 -8192.0 -0.0 -0.0 1:0.24352331459522247 2:0.9747474789619446 3:0.7764706015586853 
-0.0 -8192.0 -8192.0 -0.0 1:0.23488371074199677 2:0.9684684872627258 3:0.8705882430076599 
-0.0 -8192.0 -8192.0 -0.0 1:0.23488371074199677 2:0.9684684872627258 3:0.8705882430076599 
-0.0 -8192.0 -8192.0 -0.0 1:0.23655915260314941 2:0.8857142925262451 3:0.8235294222831726 
-0.0 -8192.0 -8192.0 -0.0 1:0.24581007659435272 2:0.8443396091461182 3:0.8313725590705872 
-0.0 -8192.0 -0.0 -0.0 1:0.2682926654815674 2:0.9479768872261047 3:0.6784313917160034 
-0.0 -8192.0 -0.0 -0.0 1:0.2594810426235199 2:0.9382022619247437 3:0.6980392336845398 
-0.0 -8192.0 -0.0 -0.0 1:0.2610441744327545 2:0.8383838534355164 3:0.7764706015586853 
-0.0 -8192.0 -0.0 -0.0 1:0.2537878751754761 2:0.9832402467727661 3:0.7019608020782471 
-0.0 -8192.0 -0.0 -0.0 1:0.250946968793869 2:0.907216489315033 3:0.7607843279838562 
-0.0 -8192.0 -0.0 -0.0 1:0.2518315017223358 2:0.8921568393707275 3:0.800000011920929 
-0.0 -8192.0 -0.0 -0.0 1:0.2562499940395355 2:0.9090909361839294 3:0.6901960968971252 
-0.0 -8192.0 -0.0 -0.0 1:0.25833332538604736 2:0.9271523356437683 3:0.5921568870544434 
-0.0 -3090.4399476170665 -0.0 -0.0 1:0.2729658782482147 2:0.9694656729698181 3:0.5137255191802979 
-0.0 -8192.0 -0.0 -0.0 1:0.2626931667327881 2:0.8779069781303406 3:0.6745098233222961 
-0.0 -8192.0 -0.0 -0.0 1:0.2626931667327881 2:0.8779069781303406 3:0.6745098233222961 
-0.0 -8192.0 -0.0 -0.0 1:0.2976190149784088 2:0.9746835231781006 3:0.6196078658103943 
-0.0 -8192.0 -0.0 -0.0 1:0.3154362440109253 2:0.871345043182373 3:0.6705882549285889 
-0.0 -8192.0 -0.0 -0.0 1:0.3154362440109253 2:0.871345043182373 3:0.6705882549285889 
-0.0 -0.0 -0.0 -50.57075667278675 1:0.36021506786346436 2:0.738095223903656 3:0.3294117748737335 
