svm_type c_svc
kernel_type linear
nr_class 5
total_sv 62
rho 5.068852662095213 1.112767846269612 8.83668103072812 4.5352126647232325 1.3447979616031716 -9.038271233654768 5.549680817635653 -1.0909714082498514 0.41839160569402123 6.7256921966588825
label 0 1 2 3 4
probA -2.6430640125442277 -4.044374360640318 -1.880427210070673 -2.076545888065253 -3.9951978160350925 -2.799144817469893 -2.01819036906243 -3.9547810945113597 -2.6566140124501914 -2.023287481000957
probB -0.5511109878944043 -0.33247811445856545 0.17169900482850275 0.7516920496171562 0.1602393840087135 -0.8467263225556685 0.7952044992084244 -0.30411587519642125 0.322461722754579 0.2980007560912917
nr_sv 7 19 6 24 6
SV
0.0 5.372144848927103 0.0 0.0 1:0.9620758295059204 2:0.6987447738647461 3:0.9372549057006836 
32.0 0.0 32.0 0.0 1:0.9685534834861755 2:0.6883116960525513 3:0.6039215922355652 
32.0 32.0 32.0 7.217169019693616 1:0.0012345711002126336 2:0.6958763003349304 3:0.7607843279838562 
0.0 0.0 32.0 0.0 1:0.9925373196601868 2:0.5 3:0.5254902243614197 
0.0 0.0 32.0 0.0 1:0.9907407164573669 2:0.421875 3:0.501960813999176 
23.530166052141304 0.0 4.983366482537892 0.0 1:0.9684210419654846 2:0.625 3:0.5960784554481506 
28.96791553188258 0.0 32.0 9.321092159878724 1:0.9696969985961914 2:0.4471544623374939 3:0.48235294222831726 
-0.0 0.0 32.0 0.0 1:0.6277056336402893 2:0.5877862572669983 3:0.5137255191802979 
-0.0 0.0 32.0 25.987338454357236 1:0.6370968222618103 2:0.46268656849861145 3:0.5254902243614197 
-0.0 0.0 32.0 0.0 1:0.6357526779174805 2:0.6813187003135681 3:0.7137255072593689 
-0.0 0.0 32.0 0.0 1:0.6064814925193787 2:0.7105262875556946 3:0.5960784554481506 
-0.0 0.0 32.0 0.0 1:0.6242138743400574 2:0.675159215927124 3:0.615686297416687 
-0.0 0.0 32.0 0.0 1:0.5925925374031067 2:0.6870229244232178 3:0.5137255191802979 
-0.0 0.0 18.61601032460703 0.0 1:0.6115819811820984 2:0.6178010702133179 3:0.7490196228027344 
-0.0 0.0 32.0 0.0 1:0.6194226145744324 2:0.6580311059951782 3:0.7568627595901489 
-15.329649020848452 0.0 32.0 0.0 1:0.632478654384613 2:0.625668466091156 3:0.7333333492279053 
-32.0 0.0 32.0 0.0 1:0.6439394354820251 2:0.6748466491699219 3:0.6392157077789307 
-0.0 0.0 32.0 0.0 1:0.6204481720924377 2:0.7168674468994141 3:0.6509804129600525 
-0.0 0.0 32.0 0.0 1:0.6196581721305847 2:0.569343090057373 3:0.5372549295425415 
-0.0 0.0 32.0 0.0 1:0.6197183132171631 2:0.6068376302719116 3:0.4588235318660736 
-5.16843256317541 0.0 32.0 0.0 1:0.6443089842796326 2:0.5815602540969849 3:0.5529412031173706 
-32.0 0.0 32.0 0.0 1:0.6466667056083679 2:0.5281690359115601 3:0.5568627715110779 
-0.0 0.0 7.717226527608578 0.0 1:0.5654761791229248 2:0.6942148804664612 3:0.4745098054409027 
-0.0 5.097857224786319 0.0 0.0 1:0.5361445546150208 2:0.9222221970558167 3:0.7058823704719543 
-0.0 4.498067950437682 0.0 0.0 1:0.5426997542381287 2:0.6612021923065186 3:0.7176470756530762 
-32.0 0.0 32.0 0.0 1:0.6700336933135986 2:0.6600000262260437 3:0.5882353186607361 
-15.452848958871954 -7.621914329565536 0.0 0.0 1:0.08638743311166763 2:0.8526785969734192 3:0.8784313797950745 
-0.0 -0.0 0.5493485547125787 0.0 1:0.05714285373687744 2:0.36269429326057434 3:0.7568627595901489 
-0.0 -0.0 0.0 11.10797021719562 1:0.04901960492134094 2:0.3805970251560211 3:0.5254902243614197 
-17.33652452413685 -0.0 0.0 0.0 1:0.07507508248090744 2:0.6166666746139526 3:0.7058823704719543 
-0.0 -1.9740108456584657 2.0056892508230555 7.280784952944081 1:0.07017543911933899 2:0.5428571701049805 3:0.13725490868091583 
-4.58277136591826 -0.0 3.626987144013634 0.0 1:0.06802720576524734 2:0.4974619150161743 3:0.772549033164978 
-32.0 -0.0 -0.0 0.24736777704981064 1:0.949999988079071 2:0.1785714328289032 3:0.21960784494876862 
-0.0 -32.0 -0.0 0.0 1:0.6546391844749451 2:0.6339869499206543 3:0.6000000238418579 
-0.0 -32.0 -2.8853923105376658 0.0 1:0.6523809432983398 2:0.6730769276618958 3:0.6117647290229797 
-0.0 -32.0 -0.0 0.0 1:0.6647509932518005 2:0.5918367505073547 3:0.5764706134796143 
-32.0 -2.73725643072217 -0.0 0.0 1:0.6936936974525452 2:0.6851851940155029 3:0.6352941393852234 
-0.0 -32.0 -0.0 0.0 1:0.6755319237709045 2:0.6573426723480225 3:0.5607843399047852 
-0.0 -32.0 -0.0 0.0 1:0.6792452931404114 2:0.6928104758262634 3:0.6000000238418579 
-32.0 -32.0 -0.0 0.0 1:0.6798245906829834 2:0.6951219439506531 3:0.6431372761726379 
-0.0 -32.0 -0.0 0.0 1:0.6777777671813965 2:0.6603773832321167 3:0.6235294342041016 
-0.0 -32.0 -0.0 0.0 1:0.6783333420753479 2:0.649350643157959 3:0.6039215922355652 
-2.6098142835343854 -0.0 -0.0 0.0 1:0.8921568393707275 2:0.25757575035095215 3:0.25882354378700256 
-0.0 -0.0 -0.0 32.0 1:0.692307710647583 2:0.20967741310596466 3:0.24313725531101227 
-0.0 -32.0 -0.0 0.0 1:0.6771929860115051 2:0.6050955653190613 3:0.615686297416687 
-0.0 -23.595980421493433 -0.0 0.0 1:0.6742424368858337 2:0.5714285969734192 3:0.6039215922355652 
-32.0 -0.0 -0.0 0.0 1:0.698019802570343 2:0.6474359035491943 3:0.6117647290229797 
-0.0 -32.0 -0.0 0.0 1:0.6748366355895996 2:0.637499988079071 3:0.6274510025978088 
-0.0 -32.0 -0.0 0.0 1:0.6822430491447449 2:0.6729559898376465 3:0.6235294342041016 
-0.0 -32.0 -0.0 0.0 1:0.6592592597007751 2:0.6293706297874451 3:0.5607843399047852 
-0.0 -32.0 -3.2966326390116025 32.0 1:0.6190476417541504 2:0.2631579041481018 3:0.5215686559677124 
-0.0 -32.0 -0.0 0.0 1:0.653508722782135 2:0.6280992031097412 3:0.4745098054409027 
-0.0 -0.0 -0.0 18.49519733699687 1:0.6666666865348816 2:0.25196850299835205 3:0.49803921580314636 
-0.0 -0.0 -0.0 10.493810498798275 1:0.7125000357627869 2:0.4938271641731262 3:0.3176470696926117 
-29.5505472732078 -0.0 -0.0 0.0 1:0.6932623982429504 2:0.6103895902633667 3:0.6039215922355652 
-4.823004925795725 -32.0 -0.0 0.0 1:0.6915204524993896 2:0.7080745100975037 3:0.6313725709915161 
-0.0 -0.0 -11.50580790683688 -0.0 1:0.390625 2:0.3595505654811859 3:0.3490196168422699 
-3.3906424512220763 -4.436420931200206 -0.0 -0.0 1:0.4114583432674408 2:0.3764705955982208 3:0.3333333432674408 
-0.0 -4.885074250791152 -0.0 -32.0 1:0.9166666865348816 2:0.0882352963089943 3:0.2666666805744171 
-0.0 -0.0 -6.882947263302819 -0.0 1:0.25 2:0.14705882966518402 3:0.2666666805744171 
-0.0 -0.0 -0.0 -32.0 1:0.4367816150188446 2:0.3020833432674408 3:0.3764705955982208 
-13.147618728350265 -16.665843272365876 -0.0 -29.23637561284496 1:0.42473116517066956 2:0.3263157904148102 3:0.37254902720451355 
