svm_type c_svc
kernel_type linear
nr_class 5
total_sv 195
rho -4.649006946178554 -2.0728026535056645 -3.311515724468826 -4.952237092019736 1.2196038843523733 3.575384150142024 1.7704296922845713 -1.4882400125617727 -2.906437171459556 3.2730378371544764
label 0 1 2 3 4
probA -1.8517136688210916 -2.4817896585692565 -2.299774908966706 -2.132836524658347 -3.233006626109298 -1.6020936478659382 -2.5080317745690213 -4.775275535896733 -4.0891833702024405 -4.056551121216832
probB 0.26938688386484505 0.05181976723446569 -0.9971043592247189 -0.25628646132354993 -1.1223654558211278 -0.2530205778223478 -0.7512033313079022 0.11661438449592013 0.18671046311042627 -0.5797458354252855
nr_sv 12 60 27 54 42
SV
0.0 0.0 31.00487860317478 0.0 1:0.9444444179534912 2:0.027027027681469917 3:0.43529412150382996 
32.0 32.0 32.0 32.0 1:0.1794871836900711 2:0.34210526943206787 3:0.14901961386203766 
0.0 0.0 0.24905366925550773 32.0 1:0.192307710647583 2:0.31707316637039185 3:0.16078431904315948 
0.0 15.420319630741933 0.0 32.0 1:0.1794871836900711 2:0.31707316637039185 3:0.16078431904315948 
0.0 0.0 0.0 32.0 1:0.1794871836900711 2:0.2888889014720917 3:0.1764705926179886 
0.0 0.0 0.0 32.0 1:0.12820513546466827 2:0.1547619104385376 3:0.3294117748737335 
11.922159655666759 0.0 0.0 32.0 1:0.5 2:0.24074074625968933 3:0.21176470816135406 
32.0 0.0 0.0 32.0 1:0.5 2:0.25 3:0.20392157137393951 
0.0 0.0 0.0 4.124285902310375 1:0.125 2:0.13953489065170288 3:0.33725491166114807 
0.0 0.0 0.0 32.0 1:0.125 2:0.13953489065170288 3:0.33725491166114807 
0.0 0.0 0.0 7.183445925757358 1:0.0952380895614624 2:0.05932203307747841 3:0.4627451002597809 
0.0 0.0 2.5341484510699543 0.0 1:0.138888880610466 2:0.04958677664399147 3:0.4745098054409027 
-0.0 32.0 32.0 32.0 1:0.0 2:0.6548223495483398 3:0.772549033164978 
-0.0 0.0 32.0 0.0 1:0.9723618030548096 2:0.8805309534072876 3:0.886274516582489 
-0.0 32.0 0.0 32.0 1:0.96875 2:0.35555556416511536 3:0.1764705926179886 
-0.0 32.0 32.0 32.0 1:0.014880955219268799 2:0.7417218685150146 3:0.5921568870544434 
-0.0 0.0 0.0 3.0429327018503223 1:0.9844444394111633 2:0.36231884360313416 3:0.8117647171020508 
-0.0 0.0 32.0 0.0 1:0.9715762138366699 2:0.7543859481811523 3:0.6705882549285889 
-0.0 0.0 32.0 0.0 1:0.9715762138366699 2:0.7543859481811523 3:0.6705882549285889 
-0.0 0.0 32.0 0.0 1:0.9731638431549072 2:0.8428571224212646 3:0.5490196347236633 
-0.0 0.0 32.0 0.0 1:0.9690476059913635 2:0.6603773832321167 3:0.8313725590705872 
-0.0 0.0 32.0 0.0 1:0.9686146974563599 2:0.6724891066551208 3:0.8980392217636108 
-0.0 0.0 32.0 0.0 1:0.9688888788223267 2:0.6976743936538696 3:0.843137264251709 
-0.0 0.0 32.0 0.0 1:0.9752252101898193 2:0.7400000095367432 3:0.7843137383460999 
-0.0 0.0 32.0 0.0 1:0.9729064106941223 2:0.8285714387893677 3:0.9607843160629272 
-0.0 32.0 32.0 32.0 1:0.008064518682658672 2:0.6739130616188049 3:0.7215686440467834 
-0.0 0.0 32.0 0.0 1:0.9771825075149536 2:0.8615384697914124 3:0.7647058963775635 
-0.0 32.0 32.0 32.0 1:0.003724396228790283 2:0.7850877046585083 3:0.8941176533699036 
-0.0 0.0 13.07880715175089 0.0 1:0.9750000238418579 2:0.5714285969734192 3:0.13725490868091583 
-20.358216969288073 0.0 0.0 32.0 1:0.976190447807312 2:0.30434781312942505 3:0.09019608050584793 
-0.0 0.0 0.0 1.8348215557017349 1:0.9791666865348816 2:0.3478260934352875 3:0.18039216101169586 
-12.635288375898538 32.0 32.0 32.0 1:0.0 2:0.6097561120986938 3:0.16078431904315948 
-0.0 0.0 32.0 0.0 1:0.9701986908912659 2:0.7330096960067749 3:0.8078431487083435 
-0.0 0.0 32.0 0.0 1:0.970588207244873 2:0.7727272510528564 3:0.7764706015586853 
-0.0 2.2604487894234673 32.0 0.0 1:0.9659863710403442 2:0.7170731425285339 3:0.8039215803146362 
-0.0 32.0 32.0 32.0 1:0.0037878751754760742 2:0.6616541147232056 3:0.5215686559677124 
-0.0 32.0 32.0 32.0 1:0.0014880994567647576 2:0.7943262457847595 3:0.5529412031173706 
-0.0 32.0 32.0 32.0 1:0.005847950931638479 2:0.75 3:0.5960784554481506 
-0.0 32.0 32.0 32.0 1:0.005847950931638479 2:0.75 3:0.5960784554481506 
-0.0 0.0 32.0 0.0 1:0.9713804721832275 2:0.8497853875160217 3:0.9137254953384399 
-0.0 0.0 32.0 0.0 1:0.9738955497741699 2:0.8469387888908386 3:0.7686274647712708 
-0.0 0.0 32.0 0.0 1:0.9764227867126465 2:0.8506224155426025 3:0.9450980424880981 
-0.0 32.0 32.0 32.0 1:0.00220750761218369 2:0.7023255825042725 3:0.843137264251709 
-32.0 32.0 32.0 32.0 1:0.0 2:0.4324324429035187 3:0.14509804546833038 
-0.0 0.0 0.0 25.684172062017133 1:0.9722222089767456 2:0.5063291192054749 3:0.929411768913269 
-0.0 0.0 17.0918851948512 0.0 1:0.97826087474823 2:0.85537189245224 3:0.9490196108818054 
-0.0 0.0 32.0 0.0 1:0.9773869514465332 2:0.8923766613006592 3:0.8745098114013672 
-0.0 0.0 32.0 0.0 1:0.9752475023269653 2:0.8595744967460632 3:0.9215686321258545 
-0.0 0.0 32.0 0.0 1:0.9754902124404907 2:0.8571428656578064 3:0.9333333373069763 
-0.0 32.0 32.0 32.0 1:0.02280702255666256 2:0.7037037014961243 3:0.529411792755127 
-0.0 0.0 0.0 32.0 1:0.9819819927215576 2:0.31092438101768494 3:0.46666666865348816 
-0.0 0.0 0.0 32.0 1:0.9819819927215576 2:0.31092438101768494 3:0.46666666865348816 
-10.92865431048015 0.0 0.0 32.0 1:0.9819819927215576 2:0.31092438101768494 3:0.46666666865348816 
-0.0 32.0 32.0 32.0 1:0.9652777910232544 2:0.4137931168079376 3:0.45490196347236633 
-0.0 32.0 32.0 32.0 1:0.003846158506348729 2:0.7558139562606812 3:0.6745098233222961 
-0.0 32.0 32.0 32.0 1:0.0039370059967041016 2:0.7604790329933167 3:0.6549019813537598 
-0.0 32.0 32.0 32.0 1:0.0039370059967041016 2:0.7604790329933167 3:0.6549019813537598 
-0.0 32.0 32.0 32.0 1:0.0039370059967041016 2:0.7604790329933167 3:0.6549019813537598 
-0.0 32.0 32.0 32.0 1:0.0039370059967041016 2:0.7604790329933167 3:0.6549019813537598 
-0.0 32.0 32.0 32.0 1:0.0039370059967041016 2:0.7604790329933167 3:0.6549019813537598 
-0.0 32.0 32.0 32.0 1:0.011904765851795673 2:0.8296296000480652 3:0.529411792755127 
-0.0 0.0 32.0 0.0 1:0.9710144996643066 2:0.7740384340286255 3:0.8156862854957581 
-0.0 0.0 32.0 0.0 1:0.9701645970344543 2:0.7677724957466125 3:0.8274509906768799 
-0.0 0.0 32.0 0.0 1:0.9695122241973877 2:0.8118811845779419 3:0.7921568751335144 
-0.0 0.0 32.0 0.0 1:0.9698795080184937 2:0.8097561001777649 3:0.8039215803146362 
-0.0 0.0 32.0 0.0 1:0.9752380847930908 2:0.7990867495536804 3:0.8588235378265381 
-0.0 0.0 32.0 0.0 1:0.979066014289856 2:0.892241358757019 3:0.9098039269447327 
-0.0 0.0 32.0 0.0 1:0.977225661277771 2:0.8090452551841736 3:0.7803921699523926 
-0.0 0.0 32.0 0.0 1:0.9755555391311646 2:0.6818181872367859 3:0.4313725531101227 
-0.0 0.0 7.401004836724243 0.0 1:0.9793814420700073 2:0.8738738894462585 3:0.8705882430076599 
-0.0 32.0 32.0 32.0 1:0.01773049496114254 2:0.6911764740943909 3:0.5333333611488342 
-0.0 32.0 32.0 32.0 1:0.013333330862224102 2:0.8101851940155029 3:0.8470588326454163 
-0.0 -18.14705220701807 0.0 0.0 1:0.07982455939054489 2:0.7883817553520203 3:0.9450980424880981 
-0.0 -32.0 0.0 0.0 1:0.08606556802988052 2:0.6931818127632141 3:0.6901960968971252 
-0.0 -32.0 0.0 16.032441955547103 1:0.10000000149011612 2:0.625 3:0.0313725508749485 
-0.0 -32.0 0.0 0.0 1:0.0833333358168602 2:0.75 3:0.0313725508749485 
-0.0 -32.0 0.0 0.0 1:0.0833333358168602 2:0.75 3:0.0313725508749485 
-7.941424358878478 -32.0 6.046720150128593 32.0 1:0.1111111044883728 2:0.6000000238418579 3:0.019607843831181526 
-32.0 -0.0 0.0 0.0 1:0.0416666679084301 2:0.4444444477558136 3:0.03529411926865578 
-0.0 -26.316749468516804 0.0 0.0 1:0.08268734067678452 2:0.6482412219047546 3:0.7803921699523926 
-7.478895271863451 -0.0 0.0 0.0 1:0.0625 2:0.40336135029792786 3:0.9333333373069763 
-0.0 -13.671834145642 0.0 0.0 1:0.0833333358168602 2:0.6666666865348816 3:0.03529411926865578 
-0.0 -8.124812968246587 0.0 0.0 1:0.0833333358168602 2:0.6666666865348816 3:0.03529411926865578 
-0.0 -32.0 0.0 0.0 1:0.08510638028383255 2:0.6184210777282715 3:0.5960784554481506 
-0.0 -32.0 0.0 0.0 1:0.08477842062711716 2:0.6784313917160034 3:1.0 
-0.0 -32.0 0.0 32.0 1:0.09795322269201279 2:0.7124999761581421 3:0.6274510025978088 
-0.0 -32.0 0.0 29.51012428417068 1:0.09759759902954102 2:0.6098901033401489 3:0.7137255072593689 
-0.0 -32.0 0.0 32.0 1:0.09905660152435303 2:0.6838709712028503 3:0.6078431606292725 
-0.0 -32.0 0.0 0.0 1:0.08997049927711487 2:0.7243589758872986 3:0.6117647290229797 
-0.0 -32.0 5.486859115977016 32.0 1:0.10360360145568848 2:0.632478654384613 3:0.9176470637321472 
-0.0 -32.0 0.0 0.0 1:0.08150851726531982 2:0.8106508851051331 3:0.6627451181411743 
-0.0 -32.0 0.0 0.0 1:0.08084577322006226 2:0.7613636255264282 3:0.6901960968971252 
-0.0 -32.0 0.0 0.0 1:0.09604519605636597 2:0.6555555462837219 3:0.7058823704719543 
-0.0 -32.0 0.0 0.0 1:0.09166666865348816 2:0.7361963391304016 3:0.6392157077789307 
-0.0 -32.0 0.0 0.0 1:0.08444444090127945 2:0.7281553149223328 3:0.8078431487083435 
-0.0 -32.0 0.0 0.0 1:0.08433735370635986 2:0.7477477192878723 3:0.8705882430076599 
-0.0 -32.0 0.0 0.0 1:0.08568075299263 2:0.7029703259468079 3:0.7921568751335144 
-0.0 -32.0 0.0 0.0 1:0.08564814925193787 2:0.6760563254356384 3:0.8352941274642944 
-0.0 -32.0 0.0 0.0 1:0.08465608209371567 2:0.6363636255264282 3:0.38823530077934265 
-32.0 -0.0 -4.583115206670403 15.59515480024697 1:0.5166666507720947 2:0.10869564861059189 3:0.3607843220233917 
-0.0 -32.0 -0.0 0.0 1:0.5620155334472656 2:0.4648648500442505 3:0.7254902124404907 
-0.0 -32.0 -0.0 0.0 1:0.567415714263916 2:0.5562499761581421 3:0.6274510025978088 
-32.0 -32.0 -0.0 0.0 1:0.5694444179534912 2:0.3913043439388275 3:0.3607843220233917 
-0.0 -32.0 -0.0 0.0 1:0.5625 2:0.9049773812294006 3:0.8666666746139526 
-0.0 -32.0 -0.0 0.0 1:0.564039409160614 2:0.918552041053772 3:0.8666666746139526 
-0.0 -32.0 -0.0 0.0 1:0.5642978549003601 2:0.9120370149612427 3:0.8470588326454163 
-0.0 -0.0 -6.950464059435205 17.759830060454973 1:0.5286884903907776 2:0.9384615421295166 3:0.5098039507865906 
-0.0 -7.960337401773816 -0.0 0.0 1:0.5591985583305359 2:0.8206278085708618 3:0.8745098114013672 
-0.0 -32.0 -0.0 0.0 1:0.5568181872367859 2:0.4971751272678375 3:0.6941176652908325 
-0.0 -32.0 -0.0 0.0 1:0.5555555820465088 2:0.5823529362678528 3:0.6666666865348816 
-0.0 -32.0 -0.0 0.0 1:0.5655339360237122 2:0.9237667918205261 3:0.8745098114013672 
-0.0 -32.0 -0.0 0.0 1:0.550000011920929 2:0.4093567132949829 3:0.6705882549285889 
-0.0 -32.0 -0.0 0.0 1:0.5626780986785889 2:0.7405063509941101 3:0.6196078658103943 
-0.0 -0.0 -0.0 2.294646212646915 1:0.5356454849243164 2:0.7899543642997742 3:0.8588235378265381 
-0.0 -32.0 -0.0 0.0 1:0.5762712359428406 2:0.9888268113136292 3:0.7019608020782471 
-0.0 -32.0 -0.0 0.0 1:0.5728070139884949 2:0.9134615659713745 3:0.8156862854957581 
-0.0 -32.0 -0.0 0.0 1:0.5828678011894226 2:0.9572192430496216 3:0.7333333492279053 
-0.0 -32.0 -0.0 0.0 1:0.5818882584571838 2:1.0 3:0.6784313917160034 
-0.0 -32.0 -0.0 0.0 1:0.5631067752838135 2:0.9237667918205261 3:0.8745098114013672 
-0.0 -32.0 -0.0 0.0 1:0.5702810883522034 2:0.8217821717262268 3:0.7921568751335144 
-0.0 -32.0 -0.0 0.0 1:0.5738255381584167 2:0.8142076730728149 3:0.7176470756530762 
-0.0 -32.0 -0.0 0.0 1:0.5751366019248962 2:0.5495495200157166 3:0.8705882430076599 
-1.7880807235002496 -32.0 -0.0 0.0 1:0.5680271983146667 2:0.5104166865348816 3:0.3764705955982208 
-0.0 -32.0 -0.0 0.0 1:0.5731707215309143 2:1.0 3:0.8039215803146362 
-0.0 -32.0 -0.0 0.0 1:0.5603272318840027 2:0.7652581930160522 3:0.8352941274642944 
-0.0 -32.0 -0.0 0.0 1:0.5622490048408508 2:0.46368715167045593 3:0.7019608020782471 
-0.0 -32.0 -0.0 0.0 1:0.5669934749603271 2:0.5483871102333069 3:0.729411780834198 
-0.0 -32.0 -0.0 0.0 1:0.5663956999778748 2:0.7454545497894287 3:0.6470588445663452 
-0.0 -32.0 -0.0 0.0 1:0.5615941882133484 2:0.7540983557701111 3:0.47843137383461 
-0.0 -32.0 -0.0 0.0 1:0.5546448230743408 2:0.4121621549129486 3:0.5803921818733215 
-0.0 -32.0 -0.0 0.0 1:0.5516431927680969 2:0.4701986610889435 3:0.5921568870544434 
-0.0 -32.0 -0.0 0.0 1:0.5597484111785889 2:0.33974358439445496 3:0.6117647290229797 
-0.0 -32.0 -0.0 0.0 1:0.5642857551574707 2:0.5343511700630188 3:0.5137255191802979 
-0.0 -32.0 -0.0 0.0 1:0.5639730095863342 2:0.8461538553237915 3:0.4588235318660736 
-0.0 -32.0 -0.0 0.0 1:0.564039409160614 2:0.902222216129303 3:0.8823529481887817 
-0.0 -32.0 -0.0 0.0 1:0.5634517669677734 2:0.8418803215026855 3:0.9176470637321472 
-0.0 -32.0 -0.0 0.0 1:0.5588235259056091 2:0.7142857313156128 3:0.46666666865348816 
-0.0 -32.0 -0.0 0.0 1:0.5588235259056091 2:0.7142857313156128 3:0.46666666865348816 
-0.0 -32.0 -0.0 0.0 1:0.5596590638160706 2:0.800000011920929 3:0.8627451062202454 
-0.0 -32.0 -0.0 0.0 1:0.5559139847755432 2:0.6652360558509827 3:0.9137254953384399 
-0.0 -29.611359781552427 -0.0 0.0 1:0.5503144264221191 2:0.5326633453369141 3:0.7803921699523926 
-0.0 -32.0 -0.0 0.0 1:0.5638298392295837 2:0.9475806355476379 3:0.9725490212440491 
-0.0 -32.0 -0.0 0.0 1:0.5639881491661072 2:0.9294605851173401 3:0.9450980424880981 
-0.0 -32.0 -0.0 0.0 1:0.5663900375366211 2:0.9877049326896667 3:0.95686274766922 
-0.0 -32.0 -0.0 0.0 1:0.5716666579246521 2:0.9950248599052429 3:0.7882353067398071 
-0.0 -32.0 -0.0 0.0 1:0.5626984238624573 2:0.9210526347160339 3:0.8941176533699036 
-0.0 -32.0 -0.0 0.0 1:0.5655021667480469 2:0.9956521987915039 3:0.9019607901573181 
-0.0 -32.0 -0.0 0.0 1:0.5666666626930237 2:0.9907833933830261 3:0.8509804010391235 
-0.0 -32.0 -0.0 0.0 1:0.5680751204490662 2:1.0 3:0.8352941274642944 
-0.0 -32.0 -0.0 0.0 1:0.5721392631530762 2:0.7052631378173828 3:0.37254902720451355 
-0.0 -32.0 -0.0 0.0 1:0.5721392631530762 2:0.7052631378173828 3:0.37254902720451355 
-0.0 -32.0 -0.0 0.0 1:0.5721392631530762 2:0.7052631378173828 3:0.37254902720451355 
-0.0 -32.0 -0.0 0.0 1:0.5795645117759705 2:1.0 3:0.7803921699523926 
-0.0 -0.0 -13.126442695388846 -0.0 1:0.20987653732299805 2:0.4029850661754608 3:0.5254902243614197 
-0.0 -32.0 -0.0 -32.0 1:0.2884615361690521 2:0.6190476417541504 3:0.4941176474094391 
-0.0 -32.0 -0.0 -0.0 1:0.2431972771883011 2:0.7050359845161438 3:0.545098066329956 
-0.0 -32.0 -0.0 -0.0 1:0.28138527274131775 2:0.6209677457809448 3:0.48627451062202454 
-0.0 -32.0 -0.0 -0.0 1:0.2848101556301117 2:0.7181817889213562 3:0.4313725531101227 
-0.0 -32.0 -0.0 -0.0 1:0.24901962280273438 2:0.6640625 3:0.501960813999176 
-32.0 -0.0 -0.41612354432898346 -0.0 1:0.21153847873210907 2:0.24074074625968933 3:0.42352941632270813 
-0.0 -32.0 -0.0 -0.0 1:0.22881357371807098 2:0.6020408272743225 3:0.3843137323856354 
-32.0 -0.0 -0.0 -0.0 1:0.21969695389270782 2:0.27848100662231445 3:0.30980393290519714 
-0.0 -32.0 -0.0 -0.0 1:0.2330508679151535 2:0.8872180581092834 3:0.5215686559677124 
-0.0 -0.0 -32.0 -0.0 1:0.2064676731824875 2:0.6666666865348816 3:0.7882353067398071 
-0.0 -0.0 -32.0 -0.0 1:0.2060810774564743 2:0.7290640473365784 3:0.7960784435272217 
-0.0 -0.0 -32.0 -0.0 1:0.2070707082748413 2:0.7021276354789734 3:0.18431372940540314 
-0.0 -32.0 -0.0 -0.0 1:0.227678582072258 2:0.6549707651138306 3:0.6705882549285889 
-0.0 -32.0 -0.0 -0.0 1:0.23899371922016144 2:0.5729729533195496 3:0.7254902124404907 
-0.0 -32.0 -0.0 -0.0 1:0.23765432834625244 2:0.6585366129875183 3:0.6431372761726379 
-0.0 -32.0 -0.0 -0.0 1:0.2239583283662796 2:0.6881720423698425 3:0.729411780834198 
-0.0 -32.0 -0.0 -0.0 1:0.24561405181884766 2:0.6291390657424927 3:0.5921568870544434 
-0.0 -32.0 -0.0 -0.0 1:0.2523364722728729 2:0.7086092829704285 3:0.5921568870544434 
-32.0 -0.5586966013447712 -0.0 -0.0 1:0.25 2:0.34285715222358704 3:0.13725490868091583 
-32.0 -0.0 -0.0 -0.0 1:0.25 2:0.34285715222358704 3:0.13725490868091583 
-32.0 -1.877539715642121 -0.0 -0.0 1:0.25 2:0.34285715222358704 3:0.13725490868091583 
-0.0 -32.0 -0.0 -0.0 1:0.2258567065000534 2:0.6564416885375977 3:0.6392157077789307 
-0.0 -32.0 -0.0 -0.0 1:0.22010178864002228 2:0.7401130199432373 3:0.6941176652908325 
-0.0 -0.0 -32.0 -0.0 1:0.20666666328907013 2:0.5681818127632141 3:0.1725490242242813 
-32.0 -0.0 -0.0 -0.0 1:0.23529410362243652 2:0.43589743971824646 3:0.15294118225574493 
-0.0 -32.0 -0.0 -0.0 1:0.24313724040985107 2:0.5 3:0.6666666865348816 
-0.0 -0.0 -32.0 -0.0 1:0.2048022747039795 2:0.6742857098579407 3:0.686274528503418 
-0.0 -32.0 -0.0 -0.0 1:0.22126436233520508 2:0.707317054271698 3:0.6431372761726379 
-0.0 -32.0 -0.0 -0.0 1:0.2339743822813034 2:0.5416666865348816 3:0.3764705955982208 
-0.0 -32.0 -0.0 -0.0 1:0.22972972691059113 2:0.5967742204666138 3:0.48627451062202454 
-0.0 -32.0 -0.0 -0.0 1:0.23333334922790527 2:0.6547619104385376 3:0.3294117748737335 
-11.307731828067745 -0.0 -0.0 -0.0 1:0.2631578743457794 2:0.113772451877594 3:0.6549019813537598 
-0.0 -32.0 -0.0 -0.0 1:0.2760416567325592 2:0.5517241358757019 3:0.45490196347236633 
-0.0 -32.0 -0.0 -0.0 1:0.2808642089366913 2:0.5192307829856873 3:0.40784314274787903 
-0.0 -32.0 -0.0 -0.0 1:0.23333334922790527 2:0.6284152865409851 3:0.7176470756530762 
-0.0 -32.0 -0.0 -0.0 1:0.2345132827758789 2:0.6890243887901306 3:0.6431372761726379 
-0.0 -32.0 -0.0 -0.0 1:0.2469135969877243 2:0.6242774724960327 3:0.6784313917160034 
-32.0 -32.0 -0.0 -3.64963107334885 1:0.2777777910232544 2:0.12328767031431198 3:0.2862745225429535 
-32.0 -0.0 -0.0 -0.0 1:0.24166667461395264 2:0.2777777910232544 3:0.2823529541492462 
-0.0 -32.0 -0.0 -0.0 1:0.23027987778186798 2:0.6968085169792175 3:0.7372549176216125 
-0.0 -28.125690002582292 -0.0 -0.0 1:0.22139303386211395 2:0.7089946866035461 3:0.7411764860153198 
